<?xml version="1.0"?>
<opencv_storage>
<opencv_ml_svm>
  <format>3</format>
  <svmType>C_SVC</svmType>
  <kernel>
    <type>RBF</type>
    <gamma>5.0625000000000009e-01</gamma></kernel>
  <C>6.2500000000000000e+01</C>
  <term_criteria><epsilon>1.1920928955078125e-07</epsilon>
    <iterations>1000</iterations></term_criteria>
  <var_count>2000</var_count>
  <class_count>2</class_count>
  <class_labels type_id="opencv-matrix">
    <rows>2</rows>
    <cols>1</cols>
    <dt>i</dt>
    <data>
      -1 1</data></class_labels>
  <sv_total>20</sv_total>
  <support_vectors>
    <_>
      0. 0. 3.91134294e-03 0. 0. 0. 6.51890470e-04 0. 0. 6.51890470e-04
      3.25945229e-03 6.51890470e-04 1.95567147e-03 0. 0. 0.
      1.30378094e-03 1.30378094e-03 6.51890470e-04 0. 0. 6.51890470e-04
      0. 0. 0. 0. 6.51890470e-04 1.95567147e-03 1.95567147e-03 0. 0.
      6.51890470e-04 0. 5.21512376e-03 0. 0. 0. 0. 0. 0. 2.60756188e-03
      0. 5.21512376e-03 6.51890470e-04 6.51890470e-04 0. 5.21512376e-03
      5.86701417e-03 9.77835711e-03 0. 0. 6.51890470e-04 0. 0.
      3.91134294e-03 1.30378094e-03 2.60756188e-03 0. 0. 1.95567147e-03
      0. 0. 3.25945229e-03 6.51890470e-04 0. 0. 0. 6.51890470e-04
      3.91134294e-03 6.51890470e-04 6.51890470e-04 0. 0. 0. 0.
      1.30378094e-03 0. 1.95567147e-03 0. 0. 0. 6.51890470e-04
      6.51890470e-04 0. 0. 2.60756188e-03 2.60756188e-03 0.
      6.51890470e-04 1.95567147e-03 0. 0. 3.25945229e-03 2.60756188e-03
      0. 1.30378094e-03 0. 7.17079500e-03 0. 3.91134294e-03
      6.51890470e-04 0. 6.51890470e-04 0. 6.51890470e-04 6.51890470e-04
      3.91134294e-03 6.51890470e-04 0. 0. 2.60756188e-03 0. 0.
      1.95567147e-03 0. 0. 1.95567147e-03 0. 1.95567147e-03 0. 0. 0. 0.
      0. 0. 0. 6.51890470e-04 5.86701417e-03 6.51890470e-04 0.
      1.30378094e-03 2.60756188e-03 0. 6.51890470e-04 0. 0. 0.
      1.95567147e-03 6.51890470e-04 0. 6.51890470e-04 0. 0. 0. 0. 0. 0.
      0. 1.30378094e-03 0. 0. 0. 0. 0. 0. 0. 1.95567147e-03 0.
      6.51890470e-04 1.30378094e-03 3.91134294e-03 3.91134294e-03 0. 0.
      1.95567147e-03 6.51890470e-04 0. 0. 0. 0. 0. 0. 5.86701417e-03
      3.91134294e-03 1.30378094e-03 1.30378094e-03 1.30378094e-03 0. 0.
      0. 0. 0. 0. 0. 1.30378094e-03 6.51890470e-04 0. 1.95567147e-03 0.
      1.30378094e-03 0. 0. 0. 0. 0. 6.51890470e-04 0. 6.51890470e-04
      1.30378094e-03 1.30378094e-03 0. 0. 6.51890470e-04 0. 0.
      1.95567147e-03 6.51890470e-04 0. 0. 0. 3.91134294e-03
      5.21512376e-03 0. 6.51890470e-04 0. 0. 0. 0. 0. 0. 0. 0. 0. 0.
      6.51890470e-04 6.51890470e-04 0. 0. 0. 0. 0. 0. 6.51890470e-04
      3.25945229e-03 0. 1.30378094e-03 6.51890470e-04 0. 0.
      6.51890470e-04 0. 0. 1.30378094e-03 6.51890470e-04 0.
      1.30378094e-03 0. 1.30378094e-03 1.95567147e-03 0. 0. 0. 0. 0. 0.
      0. 1.30378094e-03 6.51890470e-04 0. 0. 0. 0. 1.95567147e-03 0. 0.
      1.30378094e-03 1.95567147e-03 0. 1.30378094e-03 0. 0. 0. 0. 0. 0.
      0. 0. 0. 0. 1.30378094e-03 1.30378094e-03 0. 0. 0. 1.30378094e-03
      0. 0. 0. 0. 3.91134294e-03 0. 0. 6.51890470e-04 0. 2.60756188e-03
      6.51890470e-04 6.51890470e-04 1.95567147e-03 1.30378094e-03 0.
      1.30378094e-03 6.51890470e-04 0. 1.30378094e-03 6.51890470e-04
      1.30378094e-03 0. 0. 6.51890470e-04 0. 0. 0. 0. 0. 0.
      5.21512376e-03 6.51890470e-04 6.51890470e-04 0. 0. 0. 0. 0.
      6.51890470e-04 0. 0. 6.51890470e-04 0. 1.30378094e-03 0. 0.
      6.51890470e-04 0. 1.30378094e-03 0. 0. 0. 0. 6.51890470e-04
      6.51890470e-04 0. 0. 0. 0. 0. 0. 1.30378094e-03 0. 0. 0. 0.
      1.30378094e-03 0. 0. 0. 1.30378094e-03 0. 2.60756188e-03 0. 0. 0.
      0. 0. 0. 0. 0. 0. 0. 6.51890470e-04 5.21512376e-03 0. 0.
      6.51890470e-04 0. 0. 1.30378094e-03 1.95567147e-03 0.
      6.51890470e-04 2.60756188e-03 0. 0. 1.95567147e-03 0. 0.
      2.60756188e-03 0. 6.51890470e-04 6.51890470e-04 0. 0.
      1.30378094e-03 0. 0. 6.51890470e-04 1.30378094e-03 1.30378094e-03
      0. 1.30378094e-03 1.30378094e-03 1.30378094e-03 0. 6.51890470e-04
      0. 6.51890470e-04 6.51890470e-04 6.51890470e-04 2.60756188e-03 0.
      0. 0. 0. 0. 0. 0. 0. 0. 1.30378094e-03 1.95567147e-03
      6.51890470e-04 3.25945229e-03 1.30378094e-03 5.21512376e-03 0. 0.
      1.30378094e-03 0. 0. 0. 0. 0. 6.51890470e-04 0. 0. 0. 0. 0.
      6.51890470e-04 4.56323335e-03 0. 0. 6.51890470e-04 0.
      6.51890470e-04 0. 0. 1.95567147e-03 0. 3.25945229e-03
      6.51890470e-04 0. 0. 0. 0. 0. 0. 6.51890470e-04 6.51890470e-04
      6.51890470e-04 0. 3.25945229e-03 0. 6.51890470e-04 0. 0. 0.
      5.21512376e-03 0. 0. 0. 0. 0. 1.43415900e-02 0. 0. 0.
      1.30378094e-03 2.60756188e-03 6.51890470e-04 0. 6.51890470e-04 0.
      1.30378094e-03 0. 0. 0. 6.51890470e-04 6.51890470e-04 0. 0. 0. 0.
      0. 0. 0. 0. 1.43415900e-02 0. 1.30378094e-03 3.91134294e-03
      1.30378094e-03 0. 0. 0. 2.60756188e-03 0. 0. 6.51890470e-04
      2.60756188e-03 1.95567147e-03 0. 6.51890470e-04 0. 3.25945229e-03
      0. 0. 0. 0. 6.51890470e-04 0. 0. 2.60756188e-03 3.91134294e-03 0.
      0. 1.95567147e-03 0. 0. 0. 0. 0. 0. 0. 0. 0. 0. 0. 6.51890470e-04
      0. 6.51890470e-04 0. 0. 3.91134294e-03 0. 0. 0. 0. 1.30378094e-03
      0. 0. 1.95567147e-03 0. 0. 0. 6.51890470e-04 6.51890470e-04
      6.51890470e-04 0. 0. 6.51890470e-04 0. 0. 4.56323335e-03
      6.51890470e-04 0. 0. 0. 5.21512376e-03 6.51890470e-04 0.
      1.30378094e-03 0. 6.51890470e-04 1.30378094e-03 0. 0. 0. 0. 0. 0.
      0. 0. 6.51890470e-04 0. 0. 0. 0. 1.30378094e-03 0. 0. 0. 0. 0. 0.
      0. 6.51890470e-04 6.51890470e-04 1.95567147e-03 0. 6.51890470e-04
      6.51890470e-04 0. 6.51890470e-04 0. 0. 0. 0. 1.30378094e-03 0.
      6.51890470e-04 1.30378094e-03 0. 0. 6.51890459e-03 0. 0. 0.
      6.51890470e-04 0. 0. 0. 6.51890470e-04 0. 6.51890470e-04
      6.51890470e-04 0. 0. 0. 0. 0. 0. 0. 2.60756188e-03 0.
      1.30378094e-03 0. 6.51890470e-04 1.30378094e-03 0. 0. 0. 0.
      6.51890470e-04 0. 0. 0. 0. 0. 6.51890470e-04 0. 0. 0. 0. 0. 0.
      1.95567147e-03 0. 0. 0. 0. 1.30378094e-03 1.30378094e-03 0. 0.
      1.95567147e-03 1.30378094e-03 0. 0. 0. 0. 1.30378094e-03
      1.30378094e-03 6.51890470e-04 1.30378094e-03 6.51890470e-04
      1.30378094e-03 0. 0. 0. 6.51890470e-04 6.51890470e-04 0. 0. 0.
      4.56323335e-03 0. 0. 0. 6.51890470e-04 0. 0. 0. 0. 0.
      3.25945229e-03 0. 0. 0. 0. 0. 0. 0. 0. 0. 0. 0. 6.51890470e-04 0.
      1.30378094e-03 5.21512376e-03 0. 1.95567147e-03 0. 0. 0. 0. 0. 0.
      0. 0. 0. 0. 0. 1.30378094e-03 0. 6.51890470e-04 0. 0.
      6.51890470e-04 0. 6.51890470e-04 0. 0. 0. 6.51890470e-04 0. 0. 0.
      0. 2.60756188e-03 1.30378094e-03 0. 0. 0. 6.51890470e-04 0. 0.
      1.30378094e-03 0. 0. 1.30378094e-03 3.25945229e-03 1.95567147e-03
      0. 8.47457629e-03 0. 0. 3.25945229e-03 0. 0. 1.30378094e-03 0.
      1.36896996e-02 3.91134294e-03 6.51890470e-04 1.95567147e-03 0.
      1.95567147e-03 0. 0. 0. 2.60756188e-03 0. 0. 1.30378094e-03
      1.30378094e-03 2.60756188e-03 6.51890470e-04 1.30378094e-03
      6.51890470e-04 0. 1.30378094e-03 1.95567147e-03 0. 0.
      6.51890470e-04 0. 1.95567147e-03 0. 1.30378094e-03 6.51890470e-04
      1.30378094e-03 0. 6.51890470e-04 6.51890470e-04 0. 6.51890470e-04
      0. 0. 0. 0. 0. 0. 6.51890470e-04 0. 0. 0. 0. 6.51890470e-04 0. 0.
      6.51890470e-04 6.51890470e-04 0. 6.51890470e-04 0. 0. 0. 0.
      6.51890470e-04 0. 0. 0. 0. 0. 0. 0. 0. 0. 0. 0. 0. 1.56453717e-02
      6.51890470e-04 0. 4.56323335e-03 0. 0. 6.51890470e-04 0.
      1.95567147e-03 0. 0. 0. 0. 0. 1.95567147e-03 0. 0. 0. 0. 0. 0. 0.
      0. 0. 6.51890470e-04 0. 0. 3.25945229e-03 6.51890470e-04
      6.51890470e-04 6.51890470e-04 0. 6.51890470e-04 0. 0. 0.
      6.51890470e-04 6.51890470e-04 0. 0. 0. 6.51890470e-04
      1.30378094e-03 0. 6.51890470e-04 4.56323335e-03 6.51890470e-04 0.
      0. 6.51890470e-04 6.51890470e-04 6.51890470e-04 6.51890470e-04 0.
      6.51890470e-04 6.51890470e-04 6.51890470e-04 0. 6.51890470e-04 0.
      0. 6.51890470e-04 0. 0. 0. 0. 0. 6.51890470e-04 0. 6.51890470e-04
      0. 0. 0. 0. 0. 0. 0. 0. 6.51890470e-04 0. 6.51890470e-04 0. 0. 0.
      0. 0. 6.51890470e-04 0. 0. 0. 0. 0. 0. 0. 0. 0. 0. 0. 0. 0.
      6.51890470e-04 1.95567147e-03 0. 1.30378094e-03 4.56323335e-03
      1.95567147e-03 0. 0. 0. 0. 3.25945229e-03 6.51890470e-04 0.
      6.51890470e-04 0. 0. 6.51890470e-04 6.51890470e-04 0.
      6.51890470e-04 0. 6.51890470e-04 0. 0. 0. 0. 0. 6.51890470e-04
      1.30378094e-03 0. 0. 0. 0. 6.51890470e-04 0. 0. 6.51890470e-04 0.
      0. 6.51890470e-04 6.51890470e-04 0. 0. 0. 0. 0. 0. 0.
      1.95567147e-03 0. 0. 0. 0. 6.51890470e-04 0. 0. 1.95567147e-03 0.
      0. 0. 0. 0. 6.51890470e-04 1.95567147e-03 3.25945229e-03 0. 0.
      6.51890470e-04 0. 0. 6.51890470e-04 1.30378094e-03 6.51890470e-04
      0. 0. 0. 0. 6.51890470e-04 0. 0. 0. 1.30378094e-03 0. 0. 0. 0. 0.
      0. 1.30378094e-03 1.30378094e-03 0. 0. 0. 0. 0. 0. 0.
      6.51890470e-04 1.30378094e-03 0. 0. 1.30378094e-03 0.
      5.86701417e-03 0. 0. 6.51890470e-04 0. 0. 0. 0. 0. 0. 0. 0. 0.
      2.60756188e-03 0. 1.30378094e-03 1.95567147e-03 0. 0.
      6.51890470e-04 6.51890470e-04 0. 0. 1.30378094e-03 0. 0.
      3.25945229e-03 0. 0. 6.51890470e-04 6.51890470e-04 0. 0. 0.
      6.51890470e-04 0. 6.51890470e-04 0. 0. 0. 0. 0. 0. 0.
      6.51890470e-04 0. 0. 1.95567147e-03 6.51890470e-04 6.51890470e-04
      0. 0. 0. 0. 6.51890470e-04 1.30378094e-03 6.51890470e-04 0.
      1.30378094e-03 0. 0. 0. 6.51890470e-04 0. 0. 0. 0. 0.
      6.51890470e-04 0. 0. 0. 0. 0. 0. 0. 0. 4.56323335e-03
      1.95567147e-03 0. 0. 0. 0. 1.30378094e-03 6.51890470e-04 0.
      6.51890470e-04 0. 0. 0. 0. 0. 0. 0. 0. 0. 0. 6.51890470e-04
      1.30378094e-03 6.51890470e-04 0. 0. 0. 0. 0. 0. 0. 0.
      6.51890470e-04 0. 1.30378094e-03 6.51890470e-04 0. 0.
      1.95567147e-03 0. 0. 0. 0. 3.91134294e-03 0. 0. 0. 0. 0. 0.
      6.51890470e-04 0. 0. 6.51890470e-04 0. 0. 0. 0. 0. 0. 0.
      6.51890470e-04 0. 0. 0. 0. 1.30378094e-03 0. 0. 0. 1.30378094e-03
      0. 1.30378094e-03 0. 6.51890470e-04 0. 0. 0. 2.60756188e-03 0. 0.
      0. 0. 0. 0. 0. 6.51890470e-04 0. 0. 1.30378094e-03 0. 0.
      6.51890470e-04 2.60756188e-03 0. 0. 0. 0. 0. 0. 0. 0. 0. 0. 0. 0.
      0. 0. 0. 0. 0. 0. 0. 0. 1.30378094e-03 0. 0. 0. 0. 0.
      6.51890470e-04 1.30378094e-03 0. 6.51890470e-04 0. 0. 0.
      1.30378094e-03 0. 0. 0. 0. 0. 0. 0. 1.30378094e-03 0.
      1.95567147e-03 0. 0. 1.30378094e-03 0. 6.51890470e-04
      6.51890470e-04 0. 1.30378094e-03 1.30378094e-03 0. 0. 0. 0. 0. 0.
      0. 1.30378094e-03 6.51890470e-04 1.95567147e-03 0. 0. 0. 0. 0. 0.
      6.51890470e-04 0. 0. 0. 0. 0. 0. 0. 0. 1.95567147e-03 0. 0. 0. 0.
      0. 1.95567147e-03 0. 0. 0. 0. 1.95567147e-03 1.30378094e-03 0. 0.
      1.30378094e-03 0. 6.51890470e-04 0. 0. 0. 0. 0. 0. 0. 0. 0. 0.
      1.95567147e-03 6.51890470e-04 0. 0. 0. 0. 0. 0. 0. 1.30378094e-03
      0. 0. 1.30378094e-03 1.95567147e-03 6.51890470e-04 0. 0. 0.
      1.30378094e-03 0. 0. 0. 0. 0. 0. 1.95567147e-03 0. 6.51890470e-04
      0. 1.30378094e-03 0. 0. 4.56323335e-03 0. 0. 6.51890470e-04 0. 0.
      0. 0. 1.30378094e-03 0. 6.51890470e-04 0. 1.95567147e-03 0. 0. 0.
      0. 0. 0. 0. 6.51890470e-04 0. 0. 0. 1.95567147e-03 1.30378094e-03
      0. 0. 0. 0. 0. 0. 6.51890470e-04 0. 0. 0. 0. 0. 0. 0. 0. 0. 0. 0.
      0. 1.30378094e-03 0. 0. 6.51890470e-04 0. 0. 0. 0. 0. 0. 0. 0. 0.
      6.51890470e-04 0. 6.51890470e-04 0. 1.30378094e-03 6.51890470e-04
      0. 1.95567147e-03 0. 0. 0. 0. 1.95567147e-03 6.51890470e-04 0. 0.
      0. 0. 0. 5.86701417e-03 1.30378094e-03 0. 0. 0. 0. 0. 0. 0. 0. 0.
      1.95567147e-03 0. 6.51890470e-04 0. 0. 0. 6.51890470e-04
      1.30378094e-03 0. 0. 0. 0. 6.51890470e-04 0. 6.51890470e-04
      6.51890470e-04 0. 0. 6.51890470e-04 0. 0. 0. 0. 1.30378094e-03
      1.23859188e-02 0. 1.30378094e-03 0. 1.30378094e-03 0. 0. 0. 0. 0.
      1.30378094e-03 0. 2.60756188e-03 0. 0. 0. 0. 6.51890470e-04
      1.30378094e-03 0. 0. 0. 0. 0. 0. 6.51890470e-04 0. 0. 0.
      6.51890470e-04 0. 0. 0. 1.95567147e-03 0. 0. 6.51890470e-04 0.
      6.51890470e-04 0. 0. 0. 1.30378094e-03 6.51890470e-04
      6.51890470e-04 6.51890470e-04 0. 6.51890470e-04 0. 0. 0. 0. 0. 0.
      0. 0. 0. 0. 0. 6.51890470e-04 0. 0. 0. 0. 0. 1.30378094e-03
      1.30378094e-03 6.51890470e-04 0. 0. 0. 0. 6.51890470e-04 0.
      1.30378094e-03 3.91134294e-03 0. 0. 0. 0. 2.60756188e-03 0. 0. 0.
      0. 0. 0. 0. 0. 1.30378094e-03 0. 0. 0. 1.30378094e-03
      6.51890470e-04 0. 0. 0. 0. 0. 0. 5.21512376e-03 0. 0. 0. 0. 0. 0.
      0. 0. 0. 0. 0. 1.30378094e-03 6.51890470e-04 0. 0. 0. 0.
      6.51890470e-04 0. 0. 6.51890470e-04 0. 0. 0. 0. 0. 0.
      6.51890470e-04 1.95567147e-03 0. 1.95567147e-03 0. 0. 0. 0. 0. 0.
      0. 0. 0. 1.30378094e-03 0. 0. 6.51890470e-04 0. 0. 6.51890470e-04
      0. 0. 5.21512376e-03 0. 2.60756188e-03 6.51890470e-04
      6.51890470e-04 0. 0. 6.51890470e-04 6.51890470e-04 0. 0. 0.
      1.30378094e-03 0. 0. 0. 0. 6.51890470e-04 3.25945229e-03 0. 0. 0.
      0. 0. 0. 0. 6.51890470e-04 0. 0. 1.95567147e-03 0. 0. 0. 0. 0. 0.
      6.51890470e-04 0. 0. 3.25945229e-03 0. 0. 0. 0. 6.51890470e-04 0.
      6.51890470e-04 1.95567147e-03 0. 0. 0. 1.30378094e-03 0.
      6.51890470e-04 0. 0. 0. 0. 0. 0. 0. 0. 0. 0. 0. 0. 6.51890470e-04
      0. 0. 0. 0. 0. 0. 0. 0. 0. 0. 0. 0. 0. 0. 0. 0. 0. 6.51890470e-04
      6.51890470e-04 6.51890470e-04 0. 1.30378094e-03 0. 0. 0.
      6.51890470e-04 6.51890470e-04 0. 0. 0. 0. 6.51890470e-04 0. 0. 0.
      6.51890470e-04 0. 0. 0. 0. 0. 2.60756188e-03 0. 0. 0. 0. 0.
      6.51890470e-04 0. 0. 0. 2.60756188e-03 6.51890470e-04
      1.95567147e-03 0. 0. 0. 0. 0. 0. 0. 0. 0. 0. 0. 0. 2.60756188e-03
      0. 0. 0. 0. 0. 0. 0. 0. 0. 0. 0. 0. 0. 6.51890459e-03 0.
      6.51890470e-04 0. 0. 1.30378094e-03 0. 0. 1.30378094e-03
      1.30378094e-03 0. 0. 0. 0. 0. 0. 0. 0. 0. 6.51890470e-04 0.
      9.12646670e-03 0. 6.51890470e-04 1.95567147e-03 2.60756188e-03
      6.51890470e-04 0. 0. 1.30378094e-03 0. 0. 0. 6.51890470e-04 0.
      6.51890470e-04 6.51890470e-04 0. 6.51890470e-04 0. 0.
      6.51890470e-04 0. 0. 0. 6.51890470e-04 0. 0. 6.51890470e-04
      6.51890470e-04 0. 0. 0. 5.21512376e-03 0. 0. 0. 0. 6.51890470e-04
      0. 6.51890470e-04 0. 0. 0. 0. 0. 0. 1.95567147e-03 0. 0. 0. 0. 0.
      0. 6.51890470e-04 0. 0. 0. 0. 0. 0. 0. 0. 2.60756188e-03 0. 0. 0.
      0. 0. 0. 0. 0. 0. 6.51890470e-04 0. 0. 0. 0. 0. 0. 0. 0. 0. 0.
      1.30378094e-03 0. 0. 0. 0. 0. 6.51890470e-04 0. 6.51890470e-04 0.
      0. 0. 6.51890470e-04 0. 0. 0. 0. 0. 0. 0. 0. 0. 6.51890470e-04 0.
      6.51890470e-04 0. 0. 0. 0. 0. 0. 0. 0. 1.30378094e-03
      5.86701417e-03 0. 6.51890470e-04 0. 6.51890459e-03 0. 0. 0. 0.
      6.51890470e-04 0. 0. 0. 0. 0. 0. 0. 6.51890470e-04 0.
      6.51890470e-04 7.82268587e-03 6.51890470e-04 0. 0. 0. 0.
      1.30378094e-03 1.95567147e-03 0. 6.51890470e-04 0. 0. 0. 0. 0. 0.
      0. 0. 0. 0. 0. 0. 0. 6.51890470e-04 0. 0. 1.30378094e-03 0. 0. 0.
      0. 6.51890470e-04 0. 0. 0. 1.30378094e-03 6.51890470e-04 0. 0. 0.
      0. 0. 0. 0. 6.51890470e-04 0. 0. 0. 6.51890459e-03 0. 0.
      6.51890470e-04 0. 0. 0. 0. 6.51890470e-04 0. 0. 0. 6.51890470e-04
      0. 6.51890470e-04 0. 0. 0. 0. 0. 1.30378094e-03 0. 1.95567147e-03
      6.51890470e-04 0. 6.51890470e-04 3.25945229e-03 3.91134294e-03
      6.51890470e-04 6.51890470e-04 0. 6.51890470e-04 0. 0. 0. 0. 0. 0.
      0. 0. 0.</_>
    <_>
      0. 0. 2.25008046e-03 0. 0. 0. 3.21440049e-04 1.60720025e-03
      1.92864030e-03 6.42880099e-04 1.28576020e-03 1.60720025e-03
      3.21440049e-04 0. 6.42880099e-04 0. 1.92864030e-03 9.64320148e-04
      6.42880099e-04 1.28576020e-03 0. 0. 0. 3.21440049e-04 0.
      6.42880099e-04 0. 1.92864030e-03 6.42880099e-04 6.42880099e-04
      3.21440049e-04 6.42880099e-04 6.42880099e-04 9.64320148e-04
      9.64320148e-04 6.42880099e-04 3.21440049e-04 0. 3.21440049e-04 0.
      3.21440049e-04 0. 1.92864030e-03 0. 9.64320148e-04 6.42880099e-04
      2.89296033e-03 5.78592066e-03 5.14304079e-03 3.21440049e-04
      3.21440049e-04 3.21440049e-04 3.21440049e-04 0. 9.64320148e-04
      3.21440049e-04 1.28576020e-03 9.64320148e-04 9.64320148e-04
      1.28576020e-03 0. 6.42880099e-04 6.42880099e-04 1.92864030e-03 0.
      1.60720025e-03 3.21440049e-04 3.21440049e-04 1.60720025e-03 0. 0.
      0. 0. 0. 9.64320148e-04 0. 6.42880099e-04 3.21440049e-04
      3.21440049e-04 0. 3.21440049e-04 1.60720025e-03 3.21440049e-04
      9.64320148e-04 0. 1.60720025e-03 9.64320148e-04 0. 1.28576020e-03
      9.64320148e-04 0. 0. 1.28576020e-03 2.89296033e-03 0.
      3.21440049e-04 0. 1.60720025e-03 0. 6.42880099e-04 0. 0.
      6.42880099e-04 0. 6.42880099e-04 9.64320148e-04 0. 3.21440049e-04
      0. 3.21440049e-04 3.21440049e-04 3.21440049e-04 9.64320148e-04 0.
      6.42880099e-04 3.21440049e-04 1.92864030e-03 1.28576020e-03
      9.64320148e-04 3.21440049e-04 3.21440049e-04 0. 0. 0.
      9.64320148e-04 9.64320148e-04 3.21440049e-04 3.21440049e-04
      3.21440049e-04 0. 6.42880099e-04 9.64320148e-04 0. 0.
      9.64320148e-04 2.89296033e-03 3.21440049e-04 2.25008046e-03
      3.21440049e-04 0. 6.42880099e-04 3.21440049e-04 0. 1.60720025e-03
      9.64320148e-04 0. 0. 3.21440049e-04 0. 6.42880099e-04
      6.42880099e-04 3.21440049e-04 0. 1.60720025e-03 0. 0. 0. 0.
      3.21440049e-04 9.64320148e-04 9.64320148e-04 1.28576020e-03 0.
      3.21440049e-04 1.28576020e-03 6.42880099e-04 1.28576020e-03 0. 0.
      4.82160086e-03 0. 0. 4.17872053e-03 6.42880099e-04 0. 0.
      1.28576020e-03 9.64320148e-04 0. 9.64320148e-04 9.64320148e-04
      3.21440049e-04 0. 6.42880099e-04 0. 0. 0. 9.64320172e-03 0.
      1.28576020e-03 3.21440049e-04 6.42880099e-04 0. 0. 6.42880099e-04
      9.64320148e-04 1.60720025e-03 3.21440049e-04 3.21440049e-04
      3.21440049e-04 9.64320148e-04 0. 6.42880099e-04 3.21440049e-04
      3.21440049e-04 3.21440049e-04 9.64320148e-04 0. 0. 3.21440049e-04
      9.64320148e-04 2.57152040e-03 0. 2.89296033e-03 0. 3.21440049e-04
      6.42880099e-04 3.21440049e-04 0. 3.21440049e-04 0. 3.21440049e-04
      9.64320148e-04 0. 6.42880099e-04 0. 3.21440049e-04 3.21440049e-04
      0. 0. 0. 0. 9.64320148e-04 0. 0. 0. 3.21440049e-04 9.64320148e-04
      2.25008046e-03 3.21440049e-04 0. 0. 0. 3.21440049e-04
      3.21440049e-04 1.28576020e-03 3.21440049e-04 9.64320148e-04
      3.53584066e-03 1.60720025e-03 6.42880099e-04 0. 3.53584066e-03 0.
      3.21440049e-04 9.64320148e-04 0. 9.64320148e-04 0. 0. 0.
      6.42880099e-04 0. 1.92864030e-03 3.21440049e-04 9.64320148e-04
      6.42880099e-04 3.21440049e-04 0. 6.42880099e-04 9.64320148e-04
      6.42880099e-04 0. 3.21440049e-04 1.28576020e-03 6.42880099e-04
      3.21440049e-04 3.21440049e-04 0. 3.21440049e-04 0. 0.
      1.28576020e-03 0. 6.42880099e-04 9.64320148e-04 3.21440049e-04
      9.64320148e-04 0. 3.21440049e-04 0. 6.42880099e-04 0.
      3.21440049e-04 3.53584066e-03 0. 3.21440049e-04 2.25008046e-03
      3.21440049e-04 3.21440049e-04 0. 0. 0. 9.64320148e-04
      1.60720025e-03 3.21440049e-04 0. 5.14304079e-03 3.21440049e-04
      3.21440049e-04 3.21440049e-04 3.21440049e-04 3.85728059e-03
      3.21440049e-04 0. 3.21440049e-04 3.21440049e-04 9.64320148e-04
      6.42880099e-04 0. 0. 0. 0. 6.42880099e-04 0. 6.42880099e-04
      3.21440049e-04 3.21440049e-04 0. 0. 0. 3.21440049e-04
      6.42880099e-04 6.42880099e-04 0. 0. 0. 3.21440049e-04 0. 0. 0.
      3.21440049e-04 3.21440049e-04 0. 1.60720025e-03 1.28576020e-03
      3.21440049e-04 0. 6.42880099e-04 3.21440049e-04 0. 0. 0. 0. 0.
      3.21440049e-03 9.64320148e-04 3.21440049e-04 0. 3.21440049e-04
      9.64320148e-04 6.42880099e-04 0. 0. 0. 0. 0. 0. 0. 2.89296033e-03
      9.64320148e-04 3.21440049e-04 3.21440049e-04 0. 0. 3.21440049e-04
      9.64320148e-04 0. 6.42880099e-04 9.64320148e-04 0. 3.21440049e-04
      0. 0. 0. 7.07168132e-03 9.64320148e-04 9.64320148e-04
      3.21440049e-04 0. 0. 6.42880099e-04 0. 6.42880099e-04
      3.21440049e-04 0. 6.42880099e-04 0. 0. 0. 6.42880099e-04
      1.92864030e-03 6.42880099e-04 9.64320148e-04 3.21440049e-04 0.
      3.21440049e-04 3.21440049e-04 3.21440049e-04 6.42880099e-04
      3.21440049e-04 0. 3.21440049e-04 0. 6.42880099e-04 0. 0.
      3.21440049e-04 1.28576020e-03 1.28576020e-03 3.21440049e-04 0.
      1.28576020e-03 0. 3.21440049e-04 0. 9.64320148e-04 3.21440049e-04
      3.21440049e-04 6.42880099e-04 0. 0. 3.21440049e-04 0. 0. 0.
      6.42880099e-04 0. 3.21440049e-03 6.42880099e-04 0. 6.42880099e-04
      0. 1.28576020e-03 0. 6.42880099e-04 6.42880099e-04 1.92864030e-03
      6.42880099e-04 3.21440049e-04 0. 6.42880099e-04 1.28576020e-03
      9.64320148e-04 1.28576020e-03 3.21440049e-04 0. 3.21440049e-04 0.
      0. 1.28576020e-03 0. 3.21440049e-04 1.60720025e-03 0.
      3.21440049e-04 5.14304079e-03 0. 0. 6.42880099e-04 3.21440049e-04
      6.42880099e-04 4.82160086e-03 0. 0. 0. 9.64320148e-04
      1.28576020e-03 0. 0. 3.21440049e-04 0. 0. 3.21440049e-04
      1.60720025e-03 9.64320148e-04 3.21440049e-04 0. 3.21440049e-04
      3.21440049e-04 9.64320148e-04 0. 3.21440049e-04 0. 6.42880099e-04
      3.21440049e-04 2.57152040e-03 0. 6.42880099e-04 0. 0.
      3.21440049e-04 9.64320148e-04 0. 3.21440049e-04 9.64320148e-04 0.
      0. 9.64320148e-04 9.64320148e-04 0. 6.42880099e-04 0.
      1.92864030e-03 0. 0. 0. 0. 9.64320148e-04 0. 0. 1.60720025e-03 0.
      3.21440049e-04 0. 3.21440049e-04 0. 6.42880099e-04 6.42880099e-04
      0. 3.21440049e-04 0. 0. 0. 6.42880099e-04 3.21440049e-04 0. 0.
      9.64320148e-04 6.42880099e-04 0. 2.25008046e-03 0. 0.
      3.21440049e-04 0. 0. 0. 1.60720025e-03 3.21440049e-04
      9.64320148e-04 9.64320148e-04 0. 0. 0. 6.42880099e-04 0. 0. 0.
      3.21440049e-04 0. 0. 9.64320148e-04 0. 0. 3.21440049e-04
      3.21440049e-04 3.21440049e-04 3.21440049e-04 1.60720025e-03
      6.42880099e-04 6.42880099e-04 3.21440049e-04 6.42880099e-04
      1.28576020e-03 9.64320148e-04 0. 0. 3.21440049e-04 4.17872053e-03
      3.21440049e-04 0. 0. 0. 0. 0. 0. 6.42880099e-04 0. 3.21440049e-04
      0. 6.42880099e-04 0. 2.25008046e-03 0. 6.42880099e-04
      6.42880099e-04 1.28576020e-03 3.21440049e-04 0. 0. 0.
      9.64320148e-04 0. 9.64320148e-04 0. 0. 3.21440049e-04 0.
      3.21440049e-04 9.64320148e-04 0. 3.21440049e-04 1.28576020e-03 0.
      0. 0. 6.42880099e-04 0. 0. 5.14304079e-03 0. 3.21440049e-04
      1.28576020e-03 0. 0. 3.21440049e-04 0. 6.42880099e-04
      9.64320148e-04 3.21440049e-04 6.42880099e-04 1.60720025e-03 0. 0.
      3.21440049e-04 3.21440049e-04 0. 0. 0. 6.42880099e-04 0.
      9.64320148e-04 3.21440049e-04 9.64320148e-04 3.21440049e-03
      3.21440049e-04 0. 3.21440049e-04 0. 0. 0. 3.21440049e-04
      3.21440049e-04 0. 0. 3.21440049e-04 1.92864030e-03 6.42880099e-04
      6.42880099e-04 0. 0. 9.64320148e-04 3.21440049e-04 6.42880099e-04
      3.21440049e-04 0. 9.64320148e-04 2.89296033e-03 0. 1.60720025e-03
      3.21440049e-04 3.21440049e-04 6.42880099e-04 0. 3.21440049e-04 0.
      0. 1.60720025e-03 3.21440049e-04 6.42880099e-04 3.21440049e-04
      6.42880099e-04 0. 1.28576020e-03 3.21440049e-04 0. 0.
      3.21440049e-04 3.21440049e-04 0. 1.28576020e-03 3.21440049e-04 0.
      2.57152040e-03 6.42880099e-04 0. 9.64320148e-04 0. 0.
      1.28576020e-03 0. 0. 3.21440049e-04 0. 0. 3.21440049e-04 0.
      9.64320148e-04 2.57152040e-03 6.42880099e-04 3.21440049e-04 0. 0.
      0. 0. 2.57152040e-03 1.28576020e-03 3.21440049e-04 0. 0. 0. 0. 0.
      6.42880099e-04 3.21440049e-04 0. 0. 1.28576020e-03 0.
      3.21440049e-04 0. 0. 0. 3.21440049e-04 3.21440049e-04
      3.21440049e-04 6.42880099e-04 3.21440049e-04 1.28576020e-03
      3.21440049e-04 6.42880099e-04 0. 6.42880099e-04 9.64320148e-04
      3.21440049e-04 6.42880099e-03 0. 3.21440049e-04 0. 3.21440049e-04
      1.60720025e-03 0. 9.64320148e-04 2.57152040e-03 0. 2.25008046e-03
      1.28576020e-03 6.42880099e-04 3.21440049e-04 3.21440049e-04
      9.64320148e-04 1.28576020e-02 9.64320148e-04 3.21440049e-04 0.
      6.42880099e-04 3.21440049e-04 6.42880099e-04 0. 0. 2.57152040e-03
      3.21440049e-04 0. 9.64320148e-04 0. 9.64320148e-04 0.
      6.42880099e-04 3.21440049e-04 3.21440049e-04 0. 2.89296033e-03
      3.21440049e-04 3.21440049e-04 6.42880099e-04 0. 9.64320148e-04 0.
      9.64320148e-04 6.42880099e-04 0. 3.21440049e-04 3.21440049e-04
      6.42880099e-04 3.21440049e-04 3.21440049e-04 3.21440049e-04
      3.21440049e-04 0. 6.42880099e-04 9.64320148e-04 6.42880099e-04
      6.42880099e-04 0. 3.21440049e-04 3.21440049e-04 9.64320148e-04
      1.28576020e-03 0. 0. 0. 6.42880099e-04 9.64320148e-04
      6.42880099e-04 0. 3.21440049e-04 6.42880099e-04 0. 3.21440049e-04
      1.60720025e-03 0. 0. 0. 3.21440049e-04 3.21440049e-04 0.
      6.42880099e-04 3.21440049e-04 3.21440049e-04 0. 0. 3.21440049e-03
      3.21440049e-04 0. 1.28576020e-03 0. 6.42880099e-04 3.21440049e-04
      0. 6.42880099e-04 0. 0. 9.64320148e-04 0. 6.42880099e-04
      6.42880099e-04 0. 6.42880099e-04 3.21440049e-04 0. 0. 0.
      6.42880099e-04 0. 0. 6.42880099e-04 3.85728059e-03 6.42880099e-04
      3.21440049e-04 3.21440049e-04 0. 9.64320148e-04 0. 6.42880099e-04
      0. 9.64320148e-04 0. 6.42880099e-04 3.21440049e-04 9.64320148e-04
      0. 6.42880099e-04 3.21440049e-04 1.28576020e-03 6.42880099e-04
      3.21440049e-04 1.28576020e-03 0. 0. 5.78592066e-03 3.21440049e-04
      1.28576020e-03 0. 3.21440049e-04 0. 3.21440049e-04 3.21440049e-04
      9.64320148e-04 0. 3.21440049e-04 0. 1.28576020e-03 6.42880099e-04
      6.42880099e-04 0. 3.21440049e-04 0. 0. 0. 3.21440049e-04
      6.42880099e-04 6.42880099e-04 0. 0. 6.42880099e-04 9.64320148e-04
      0. 3.21440049e-04 0. 0. 2.89296033e-03 0. 0. 0. 0. 0. 0.
      3.21440049e-04 1.28576020e-03 3.21440049e-04 0. 0. 0.
      6.42880099e-04 1.28576020e-03 9.64320148e-04 0. 3.21440049e-04 0.
      3.21440049e-04 3.21440049e-04 6.42880099e-04 6.42880099e-04
      6.42880099e-04 0. 9.64320148e-04 6.42880099e-04 3.21440049e-04 0.
      6.42880099e-04 4.50016093e-03 0. 0. 0. 0. 0. 0. 0. 3.21440049e-04
      1.28576020e-03 0. 3.21440049e-04 3.21440049e-04 9.64320148e-04 0.
      0. 0. 0. 3.21440049e-04 3.21440049e-04 0. 0. 0. 0. 6.42880099e-04
      3.21440049e-04 0. 0. 0. 0. 3.21440049e-04 3.21440049e-04
      1.60720025e-03 0. 6.42880099e-04 0. 0. 0. 9.64320148e-04
      3.21440049e-04 3.21440049e-04 0. 0. 1.28576020e-03 0. 0.
      3.21440049e-04 1.92864030e-03 0. 1.28576020e-03 0. 9.64320148e-04
      9.64320148e-04 6.42880099e-04 2.25008046e-03 6.42880099e-04 0. 0.
      6.42880099e-04 6.42880099e-04 6.42880099e-04 0. 3.21440049e-04
      3.21440049e-04 0. 3.21440049e-04 0. 3.21440049e-04 3.21440049e-04
      6.42880099e-04 3.21440049e-04 0. 0. 0. 3.21440049e-04
      6.42880099e-04 1.60720025e-03 0. 0. 3.21440049e-04 3.21440049e-04
      1.60720025e-03 0. 3.21440049e-04 7.71456119e-03 1.60720025e-03 0.
      3.21440049e-04 0. 6.42880099e-04 0. 0. 3.21440049e-04 0.
      1.60720025e-03 6.42880099e-04 0. 0. 0. 0. 3.21440049e-04
      3.21440049e-04 0. 3.21440049e-04 1.28576020e-03 3.21440049e-04 0.
      1.92864030e-03 3.21440049e-04 9.64320148e-04 9.64320148e-04 0.
      3.21440049e-04 0. 3.21440049e-04 3.21440049e-04 0. 6.42880099e-04
      0. 0. 0. 0. 0. 6.42880099e-04 0. 3.21440049e-04 0. 1.28576020e-03
      0. 0. 3.21440049e-04 1.28576020e-03 0. 6.42880099e-04
      9.64320148e-04 0. 3.21440049e-04 0. 3.21440049e-04 3.21440049e-04
      0. 0. 3.21440049e-04 9.64320148e-04 0. 3.21440049e-04
      6.42880099e-04 3.21440049e-04 1.28576020e-03 3.21440049e-04
      3.21440049e-04 6.42880099e-04 6.42880099e-04 3.21440049e-04
      6.42880099e-04 1.28576020e-03 3.21440049e-04 9.64320148e-04 0. 0.
      9.64320148e-04 0. 6.42880099e-04 0. 0. 0. 0. 6.42880099e-04 0.
      9.64320148e-04 0. 9.64320148e-04 1.28576020e-03 0. 0.
      6.42880099e-04 0. 6.42880099e-04 3.21440049e-04 3.21440049e-04
      3.21440049e-04 4.17872053e-03 0. 0. 0. 0. 2.25008046e-03 0. 0.
      9.64320148e-04 0. 3.21440049e-04 6.42880099e-04 9.64320148e-04 0.
      0. 0. 0. 1.92864030e-03 0. 0. 0. 3.21440049e-04 3.21440049e-04
      6.42880099e-04 3.21440049e-04 0. 0. 3.21440049e-04 0.
      3.21440049e-04 0. 9.64320148e-04 1.28576020e-03 0. 3.21440049e-04
      9.64320148e-04 0. 0. 0. 3.21440049e-04 3.21440049e-04
      6.42880099e-04 0. 0. 0. 1.28576020e-03 0. 0. 0. 9.64320148e-04
      3.21440049e-04 0. 0. 6.42880099e-04 0. 3.21440049e-04 0. 0.
      3.21440049e-04 3.21440049e-04 0. 9.64320148e-04 0. 3.21440049e-04
      6.42880099e-04 0. 0. 3.21440049e-04 0. 9.64320148e-04
      6.42880099e-04 0. 9.64320148e-04 0. 0. 0. 0. 0. 6.42880099e-04 0.
      3.21440049e-04 6.42880099e-04 9.64320148e-04 3.21440049e-04 0. 0.
      0. 0. 0. 6.42880099e-04 3.21440049e-04 3.21440049e-04
      1.28576020e-03 3.21440049e-04 3.21440049e-04 1.28576020e-03
      3.21440049e-04 0. 0. 0. 0. 9.64320148e-04 0. 0. 0. 3.21440049e-04
      3.21440049e-04 3.21440049e-04 3.21440049e-04 9.64320148e-04
      9.64320148e-04 1.60720025e-03 0. 9.64320148e-04 0. 9.64320148e-04
      6.42880099e-04 1.28576020e-03 0. 0. 0. 0. 3.21440049e-04
      3.21440049e-04 3.21440049e-04 3.21440049e-04 3.21440049e-04 0. 0.
      3.21440049e-04 1.28576020e-03 3.21440049e-04 9.64320148e-04 0.
      6.10736106e-03 3.21440049e-04 0. 0. 6.42880099e-04 6.42880099e-04
      0. 0. 9.64320148e-04 3.21440049e-04 3.21440049e-04 0. 0. 0. 0. 0.
      3.21440049e-04 0. 3.21440049e-04 6.42880099e-04 0. 3.21440049e-04
      1.60720025e-03 1.60720025e-03 0. 0. 6.42880099e-04 6.42880099e-04
      3.21440049e-04 0. 0. 6.42880099e-04 0. 5.78592066e-03 0. 0.
      3.21440049e-04 0. 3.21440049e-04 1.28576020e-03 3.21440049e-04
      3.21440049e-04 0. 9.64320148e-04 1.18932817e-02 0. 3.21440049e-04
      0. 6.42880099e-04 3.21440049e-04 0. 3.21440049e-04 0. 0.
      3.21440049e-04 6.42880099e-04 1.28576020e-03 3.21440049e-04 0. 0.
      0. 3.21440049e-04 0. 3.21440049e-04 3.21440049e-04 0.
      6.42880099e-04 6.42880099e-04 0. 3.21440049e-04 6.42880099e-04 0.
      0. 9.64320148e-04 0. 3.21440049e-04 3.21440049e-04 3.21440049e-04
      0. 0. 0. 0. 6.42880099e-04 0. 6.42880099e-04 9.64320148e-04 0.
      3.21440049e-04 0. 0. 3.21440049e-04 0. 0. 0. 3.21440049e-04
      6.42880099e-04 0. 3.21440049e-04 0. 1.92864030e-03 1.60720025e-03
      1.60720025e-03 3.21440049e-04 3.21440049e-04 0. 0. 0. 0. 0. 0.
      3.21440049e-04 3.21440049e-04 9.64320148e-04 0. 3.21440049e-04
      3.21440049e-04 0. 3.21440049e-04 0. 3.21440049e-04 3.21440049e-04
      0. 0. 3.21440049e-04 0. 0. 1.28576020e-03 0. 3.21440049e-04
      1.60720025e-03 0. 3.21440049e-04 3.21440049e-04 0. 0. 0.
      3.21440049e-04 0. 0. 9.64320148e-04 0. 0. 0. 2.89296033e-03
      3.21440049e-04 0. 3.21440049e-04 0. 0. 3.21440049e-04
      6.42880099e-04 2.89296033e-03 0. 0. 0. 0. 0. 3.21440049e-04
      1.28576020e-03 6.42880099e-04 0. 0. 0. 1.28576020e-03
      9.64320148e-04 0. 6.42880099e-04 0. 6.42880099e-04 2.57152040e-03
      0. 0. 6.42880099e-04 9.64320148e-04 0. 9.64320148e-04
      6.42880099e-04 0. 3.21440049e-04 0. 6.42880099e-04 6.42880099e-04
      3.21440049e-04 3.21440049e-04 0. 0. 3.21440049e-04 6.42880099e-04
      1.28576020e-03 0. 0. 0. 9.64320148e-04 3.21440049e-04 0.
      3.21440049e-04 3.21440049e-04 6.42880099e-04 3.21440049e-04
      1.57505628e-02 9.64320148e-04 1.60720025e-03 6.42880099e-04
      3.21440049e-04 3.21440049e-04 0. 3.21440049e-04 0. 6.42880099e-04
      0. 3.21440049e-04 3.21440049e-04 0. 6.42880099e-04 6.42880099e-04
      1.28576020e-03 6.42880099e-04 6.42880099e-04 0. 0. 1.60720025e-03
      1.92864030e-03 0. 0. 6.42880099e-04 0. 0. 0. 3.21440049e-04 0. 0.
      0. 3.21440049e-04 0. 0. 3.21440049e-04 0. 3.21440049e-04
      3.21440049e-04 6.42880099e-04 3.21440049e-04 3.21440049e-04
      9.64320148e-04 3.21440049e-04 0. 9.64320148e-04 0. 2.89296033e-03
      0. 0. 0. 6.42880099e-04 0. 0. 0. 3.21440049e-04 0. 0.
      3.21440049e-04 0. 0. 3.21440049e-04 0. 6.42880099e-04 0.
      3.21440049e-04 6.42880099e-04 0. 0. 0. 0. 3.21440049e-04
      9.64320148e-04 3.21440049e-04 3.21440049e-04 0. 3.21440049e-04
      6.42880099e-04 1.92864030e-03 9.64320148e-04 0. 0. 0. 0.
      1.28576020e-03 0. 3.21440049e-04 0. 3.21440049e-04 2.57152040e-03
      6.42880099e-04 1.28576020e-03 3.21440049e-04 3.21440049e-04
      3.21440049e-04 0. 0. 1.28576020e-03 3.21440049e-04 0.
      6.42880099e-04 0. 0. 0. 3.21440049e-04 3.21440049e-04 0.
      3.21440049e-04 0. 0. 0. 6.42880099e-04 3.21440049e-04
      3.21440049e-04 0. 3.21440049e-04 9.64320148e-04 0. 6.42880099e-04
      0. 0. 1.28576020e-03 3.21440049e-04 0. 0. 0. 1.60720025e-03 0.
      3.21440049e-03 6.42880099e-04 0. 6.42880099e-04 6.42880099e-04 0.
      6.42880099e-04 3.21440049e-04 0. 0. 1.92864030e-03 0. 0.
      3.21440049e-04 0. 3.21440049e-04 0. 3.21440049e-04 6.42880099e-04
      0. 0. 6.42880099e-04 1.60720025e-03 0. 1.28576020e-03 0.
      3.21440049e-04 1.28576020e-03 0. 3.21440049e-04 0. 0. 0.
      3.21440049e-04 1.28576020e-03 9.64320148e-04 0. 0. 9.64320148e-04
      0. 3.21440049e-04 0. 0. 3.21440049e-04 0. 0. 3.21440049e-04
      1.92864030e-03 0. 0. 0. 0. 9.64320148e-04 9.64320148e-04 0. 0.
      1.60720025e-03 0. 0. 0. 0. 3.21440049e-04 0. 9.64320148e-04 0.
      3.21440049e-04 3.21440049e-04 0. 9.64320148e-04 1.28576020e-03 0.
      0. 0. 6.42880099e-04 0. 6.42880099e-04 0. 3.21440049e-04 0.
      3.21440049e-04 0. 0. 9.64320148e-04 6.42880099e-04 3.21440049e-04
      3.21440049e-04 6.42880099e-04 0. 3.21440049e-04 0. 6.42880099e-04
      6.10736106e-03 0. 0. 0. 0. 0. 3.21440049e-04 0. 0. 0.
      6.42880099e-04 0. 0. 3.21440049e-04 0. 3.21440049e-04
      3.21440049e-04 4.82160086e-03 0. 1.28576020e-03 3.21440049e-04 0.
      3.21440049e-04 3.21440049e-04 3.21440049e-04 0. 1.28576020e-03 0.
      1.92864030e-03 6.42880099e-04 0. 0. 3.21440049e-04 6.42880099e-04
      0. 0. 3.21440049e-04 0. 0. 2.25008046e-03 0. 3.21440049e-04 0. 0.
      9.64320148e-04 6.42880099e-04 0. 6.42880099e-04 0. 1.28576020e-03
      0. 6.42880099e-04 9.64320148e-04 9.64320148e-04 0. 0. 0. 0.
      9.64320148e-04 0. 0. 0. 6.42880099e-04 0. 9.64320148e-04
      3.21440049e-04 0. 1.92864030e-03 6.42880099e-04 1.92864030e-03
      3.21440049e-04 6.42880099e-04 0. 0. 3.21440049e-04 0. 0. 0.
      1.54291224e-02 0. 6.42880099e-04 0. 0. 9.64320148e-04 0. 0.
      6.42880099e-04 0. 9.64320148e-04 9.64320148e-04 0. 0. 0.
      3.21440049e-04 0. 3.21440049e-04 0. 0. 0. 3.21440049e-03
      3.21440049e-04 3.21440049e-04 9.64320148e-04 2.25008046e-03 0.
      1.60720025e-03 6.42880099e-04 6.42880099e-04 3.21440049e-04
      6.42880099e-04 0. 3.21440049e-04 3.21440049e-04 3.21440049e-04
      3.21440049e-04 3.21440049e-04 3.21440049e-04 6.42880099e-04
      9.64320148e-04 3.21440049e-04 0. 3.21440049e-04 3.21440049e-04
      1.92864030e-03 9.64320148e-04 1.60720025e-03 0. 6.42880099e-04 0.
      0. 3.21440049e-04 3.21440049e-04 1.60720025e-03 0. 9.64320148e-04
      0. 3.21440049e-04 0. 0. 1.28576020e-03 0. 0. 0. 0. 0. 0. 0.
      3.21440049e-04 1.60720025e-03 6.42880099e-04 0. 0. 9.64320148e-04
      0. 6.42880099e-04 0. 0. 0. 0. 0. 0. 0. 0. 0. 0. 0. 3.21440049e-04
      3.21440049e-04 0. 6.42880099e-04 0. 3.21440049e-04 0.
      3.21440049e-04 0. 6.42880099e-04 0. 0. 0. 0. 6.42880099e-04
      9.64320148e-04 9.64320148e-04 0. 0. 0. 9.64320148e-04
      3.21440049e-04 0. 6.42880099e-04 0. 3.21440049e-04 0.
      3.21440049e-04 0. 3.21440049e-04 0. 3.21440049e-04 3.21440049e-04
      0. 3.21440049e-04 0. 6.42880099e-04 3.21440049e-04 6.42880099e-04
      6.42880099e-04 3.21440049e-04 0. 3.21440049e-04 0. 6.42880099e-04
      3.21440049e-04 3.21440049e-04 0. 0. 3.21440049e-04 2.57152040e-03
      0. 0. 0. 2.89296033e-03 3.21440049e-04 0. 0. 0. 6.42880099e-04
      9.64320148e-04 0. 0. 3.21440049e-04 3.21440049e-04 0. 0. 0. 0. 0.
      4.82160086e-03 0. 0. 0. 0. 0. 9.64320148e-04 0. 0. 3.21440049e-04
      0. 0. 0. 6.42880099e-04 0. 0. 0. 0. 3.21440049e-04 0.
      3.21440049e-04 0. 3.21440049e-04 6.42880099e-04 0. 0.
      9.64320148e-04 0. 0. 3.21440049e-04 6.42880099e-04 6.42880099e-04
      0. 6.42880099e-04 3.21440049e-04 0. 6.42880099e-04 3.21440049e-04
      0. 9.64320148e-04 3.21440049e-03 0. 3.21440049e-04 3.21440049e-04
      3.21440049e-04 3.21440049e-04 9.64320148e-04 3.21440049e-04
      5.78592066e-03 9.64320148e-04 9.64320148e-04 9.64320148e-04
      9.64320148e-04 0. 0. 0. 9.64320148e-04 3.21440049e-04 0. 0. 0. 0.
      1.28576020e-03 3.21440049e-04 0. 0. 0. 0. 3.21440049e-04
      3.21440049e-04 2.25008046e-03 3.21440049e-04 0. 3.21440049e-04 0.
      6.42880099e-04 0. 3.21440049e-04 0. 6.42880099e-04 0.
      9.64320148e-04 3.21440049e-04 3.21440049e-04 0. 1.28576020e-03
      9.64320148e-04 6.42880099e-04 3.21440049e-04</_>
    <_>
      3.50262708e-04 0. 2.80210166e-03 0. 3.50262708e-04 0. 0.
      3.50262708e-04 2.10157619e-03 1.05078809e-03 1.40105083e-03
      1.05078809e-03 7.00525416e-04 0. 3.50262708e-04 0. 2.10157619e-03
      7.00525416e-04 7.00525416e-04 3.50262708e-04 7.00525416e-04
      3.50262708e-04 2.80210166e-03 3.50262708e-04 3.50262708e-04 0. 0.
      1.40105083e-03 7.00525416e-04 1.40105083e-03 0. 7.00525416e-04 0.
      3.50262708e-04 2.80210166e-03 7.00525416e-04 0. 0. 0. 0.
      3.50262708e-04 0. 2.80210166e-03 3.50262708e-04 0. 0.
      7.00525427e-03 5.95446583e-03 2.80210166e-03 0. 3.50262708e-04
      3.50262708e-04 3.50262708e-04 0. 2.10157619e-03 1.05078809e-03
      3.50262714e-03 2.10157619e-03 3.50262708e-04 7.00525416e-04
      3.50262708e-04 0. 3.50262708e-04 2.10157619e-03 0. 3.50262708e-04
      2.10157619e-03 3.50262708e-04 1.75131357e-03 0. 3.50262708e-04
      1.05078809e-03 3.50262708e-04 3.50262708e-04 0. 7.00525416e-04 0.
      3.50262708e-04 0. 1.05078809e-03 0. 3.50262708e-04 0. 0. 0.
      3.50262708e-04 3.50262708e-04 0. 0. 1.05078809e-03 3.50262708e-04
      0. 2.10157619e-03 1.05078809e-03 3.50262708e-04 0. 0.
      3.50262708e-04 0. 2.10157619e-03 2.80210166e-03 3.50262708e-04
      3.50262708e-04 0. 7.00525416e-04 1.05078809e-03 0. 0.
      3.50262708e-04 0. 3.50262708e-04 0. 7.00525416e-04 0.
      1.75131357e-03 3.50262708e-04 0. 3.50262708e-04 7.00525416e-04
      1.05078809e-03 7.00525416e-04 0. 0. 0. 3.50262708e-04 0. 0.
      3.50262708e-04 0. 0. 3.50262708e-04 0. 0. 3.50262708e-04 0.
      3.15236440e-03 3.50262708e-04 1.40105083e-03 7.00525416e-04
      3.50262708e-04 7.00525416e-04 0. 3.50262708e-04 0. 0.
      7.00525416e-04 0. 3.50262708e-04 0. 0. 7.00525416e-04 0. 0.
      3.50262708e-04 0. 0. 3.50262708e-04 0. 3.50262708e-04
      7.00525416e-04 7.00525416e-04 1.40105083e-03 7.00525416e-04
      1.75131357e-03 7.00525416e-04 1.05078809e-03 7.00525416e-04 0. 0.
      1.40105083e-03 3.50262708e-04 0. 2.45183893e-03 1.75131357e-03
      1.40105083e-03 0. 3.50262708e-04 0. 3.50262708e-04 3.50262708e-04
      0. 7.00525416e-04 7.00525416e-04 0. 0. 3.50262708e-04 0.
      9.45709273e-03 0. 1.05078809e-03 0. 7.00525416e-04 0. 0. 0. 0.
      3.50262708e-04 7.00525416e-04 3.50262708e-04 7.00525416e-04 0.
      1.40105083e-03 7.00525416e-04 0. 0. 7.00525416e-04 3.50262708e-04
      0. 0. 1.05078809e-03 1.40105083e-03 2.10157619e-03 0.
      1.75131357e-03 0. 0. 0. 0. 0. 0. 3.50262708e-04 3.50262708e-04
      3.50262708e-04 7.00525416e-04 1.05078809e-03 0. 3.50262708e-04
      7.00525416e-04 0. 0. 0. 3.50262708e-04 1.40105083e-03
      3.50262708e-04 0. 3.50262708e-04 3.50262708e-04 1.75131357e-03 0.
      0. 0. 0. 7.00525416e-04 7.00525416e-04 0. 1.75131357e-03 0.
      1.05078809e-03 3.15236440e-03 0. 7.00525416e-04 0. 1.75131357e-03
      0. 0. 1.75131357e-03 0. 3.50262708e-04 0. 0. 0. 0. 7.00525416e-04
      1.40105083e-03 0. 7.00525416e-04 0. 3.50262708e-04 0.
      3.50262708e-04 0. 0. 0. 1.40105083e-03 2.80210166e-03
      2.10157619e-03 7.00525416e-04 7.00525416e-04 0. 1.05078809e-03 0.
      0. 3.50262708e-04 0. 3.50262708e-04 7.00525416e-04 3.50262708e-04
      0. 0. 0. 0. 0. 3.50262708e-04 0. 1.75131357e-03 3.50262708e-04
      3.50262708e-04 1.40105083e-03 3.50262708e-04 3.50262708e-04
      3.50262708e-04 3.50262708e-04 0. 1.40105083e-03 2.10157619e-03
      3.50262708e-04 0. 6.65499130e-03 3.50262708e-04 3.50262708e-04
      1.40105083e-03 3.50262708e-04 1.05078809e-03 3.50262708e-04 0.
      7.00525416e-04 3.50262708e-04 1.75131357e-03 0. 0. 0.
      3.50262708e-04 3.50262708e-04 3.50262708e-04 0. 3.50262708e-04
      1.40105083e-03 3.50262708e-04 1.05078809e-03 0. 3.50262708e-04 0.
      1.40105083e-03 3.50262708e-04 0. 1.40105083e-03 3.50262708e-04
      7.00525416e-04 1.05078809e-03 0. 3.50262708e-04 0. 0. 0. 0. 0.
      3.50262708e-04 1.75131357e-03 7.00525416e-04 3.50262708e-04
      3.50262708e-04 0. 0. 0. 3.50262708e-04 1.75131357e-03 0.
      2.80210166e-03 0. 0. 0. 0. 0. 3.50262708e-04 0. 0. 0. 0. 0.
      3.85288987e-03 2.10157619e-03 1.40105083e-03 3.50262708e-04 0. 0.
      0. 3.50262708e-04 3.50262708e-04 0. 1.40105083e-03 0. 0.
      7.00525416e-04 1.05078809e-03 0. 3.85288987e-03 0. 3.50262708e-04
      3.50262708e-04 0. 7.00525416e-04 7.00525416e-04 0. 1.05078809e-03
      3.50262708e-04 7.00525416e-04 0. 0. 3.50262708e-04 0.
      7.00525416e-04 2.10157619e-03 1.40105083e-03 3.50262708e-04
      3.50262708e-04 7.00525416e-04 3.50262708e-04 1.40105083e-03
      1.05078809e-03 0. 1.05078809e-03 0. 1.05078809e-03 1.05078809e-03
      0. 0. 0. 3.50262708e-04 1.40105083e-03 3.50262708e-04 0.
      1.05078809e-03 7.00525416e-04 0. 7.00525416e-04 7.00525416e-04
      3.50262708e-04 3.50262708e-04 0. 1.05078809e-03 0. 0.
      1.05078809e-03 0. 0. 0. 7.00525416e-04 0. 7.00525416e-04 0. 0.
      7.00525416e-04 0. 1.40105083e-03 0. 0. 3.50262708e-04
      2.10157619e-03 1.40105083e-03 3.50262708e-04 0. 7.00525416e-04
      2.10157619e-03 0. 1.75131357e-03 0. 1.05078809e-03 3.50262708e-04
      3.50262708e-04 7.00525416e-04 0. 0. 3.50262708e-04 7.00525416e-04
      0. 0. 2.10157619e-03 0. 3.50262708e-04 0. 0. 0. 2.45183893e-03 0.
      3.50262708e-04 0. 7.00525416e-04 1.40105083e-03 3.50262708e-04 0.
      0. 7.00525416e-04 7.00525416e-04 1.05078809e-03 1.05078809e-03
      1.05078809e-03 0. 3.50262708e-04 1.05078809e-03 0. 3.50262708e-04
      0. 3.50262708e-04 0. 3.50262708e-04 3.50262708e-04 1.40105083e-03
      0. 1.40105083e-03 1.05078809e-03 0. 0. 7.00525416e-04
      3.50262708e-04 7.00525416e-04 2.45183893e-03 0. 3.50262708e-04
      3.50262708e-04 7.00525416e-04 0. 7.00525416e-04 0. 3.50262714e-03
      1.40105083e-03 7.00525416e-04 0. 3.50262708e-04 0. 0. 0.
      1.05078809e-03 3.50262708e-04 3.50262708e-04 0. 0. 0.
      7.00525416e-04 3.50262708e-04 0. 3.50262708e-04 0. 0. 0.
      3.50262708e-04 7.00525416e-04 0. 0. 1.05078809e-03 1.05078809e-03
      3.50262708e-04 4.20315238e-03 0. 0. 0. 0. 0. 3.50262708e-04
      1.40105083e-03 0. 7.00525416e-04 7.00525416e-04 0. 0.
      7.00525416e-04 3.50262708e-04 3.50262708e-04 1.40105083e-03
      7.00525416e-04 7.00525416e-04 0. 0. 4.20315238e-03 0.
      1.05078809e-03 7.00525416e-04 0. 0. 3.50262708e-04 0.
      7.00525416e-04 0. 0. 0. 1.05078809e-03 0. 0. 0. 0. 2.45183893e-03
      7.00525416e-04 0. 0. 0. 0. 0. 0. 7.00525416e-04 3.50262708e-04
      1.05078809e-03 0. 1.40105083e-03 0. 3.85288987e-03 0.
      1.40105083e-03 1.40105083e-03 3.50262708e-04 3.50262708e-04 0.
      3.50262708e-04 0. 0. 0. 1.40105083e-03 1.40105083e-03 0.
      7.00525416e-04 0. 0. 7.00525416e-04 3.50262708e-04 0.
      2.10157619e-03 0. 0. 0. 3.50262708e-04 3.50262708e-04
      3.50262708e-04 2.45183893e-03 3.50262708e-04 7.00525416e-04
      3.50262708e-04 0. 1.05078809e-03 0. 7.00525416e-04 0.
      1.75131357e-03 3.50262708e-04 7.00525416e-04 7.00525416e-04 0.
      7.00525416e-04 0. 7.00525416e-04 3.50262708e-04 0. 0.
      1.75131357e-03 1.05078809e-03 0. 3.50262708e-04 7.00525416e-04
      2.80210166e-03 3.50262708e-04 0. 7.00525416e-04 0. 0.
      2.10157619e-03 1.05078809e-03 0. 3.50262708e-04 3.50262708e-04 0.
      2.80210166e-03 0. 0. 3.50262708e-04 7.00525416e-04 3.50262708e-04
      7.00525416e-04 7.00525416e-04 1.05078809e-03 3.50262708e-04
      1.40105083e-03 0. 0. 3.50262708e-04 3.50262708e-04 3.50262708e-04
      7.00525416e-04 3.50262708e-04 3.50262708e-04 0. 0. 3.50262708e-04
      0. 1.05078809e-03 0. 0. 7.00525416e-04 0. 3.50262708e-04
      1.40105083e-03 0. 7.00525416e-04 3.50262708e-04 0. 1.05078809e-03
      1.40105083e-03 1.40105083e-03 2.80210166e-03 3.50262708e-04 0. 0.
      0. 7.00525416e-04 0. 0. 0. 3.50262708e-04 0. 0. 3.50262708e-04 0.
      3.50262708e-04 3.50262714e-03 3.50262708e-04 3.50262708e-04 0. 0.
      0. 1.05078809e-03 2.10157619e-03 0. 0. 3.50262708e-04
      3.50262708e-04 3.50262708e-04 0. 3.50262708e-04 0. 7.00525416e-04
      7.00525416e-04 0. 3.50262708e-04 3.50262708e-04 7.00525416e-04 0.
      0. 0. 3.50262708e-04 0. 0. 0. 3.50262708e-04 7.00525416e-04
      3.50262708e-04 3.50262708e-04 0. 0. 0. 0. 6.65499130e-03
      1.05078809e-03 0. 0. 7.00525416e-04 1.05078809e-03 0.
      1.40105083e-03 5.25394082e-03 0. 3.15236440e-03 3.50262708e-04
      3.50262708e-04 0. 7.00525416e-04 3.50262708e-04 1.15586696e-02
      1.75131357e-03 7.00525416e-04 3.50262708e-04 0. 7.00525416e-04
      3.50262708e-04 3.50262708e-04 0. 2.10157619e-03 3.50262708e-04
      7.00525416e-04 1.05078809e-03 3.50262708e-04 3.50262708e-04 0.
      1.05078809e-03 3.50262708e-04 3.50262708e-04 7.00525416e-04
      2.10157619e-03 3.50262708e-04 3.50262708e-04 0. 0. 0. 0.
      7.00525416e-04 7.00525416e-04 0. 3.50262708e-04 3.50262708e-04 0.
      7.00525416e-04 3.50262708e-04 3.50262708e-04 2.45183893e-03
      3.50262708e-04 1.05078809e-03 1.40105083e-03 1.40105083e-03
      7.00525416e-04 0. 0. 7.00525416e-04 3.50262708e-04 3.50262708e-04
      0. 0. 3.50262708e-04 0. 0. 7.00525416e-04 0. 0. 7.00525416e-04 0.
      1.05078809e-03 1.40105083e-03 0. 0. 0. 3.50262708e-04
      7.00525416e-04 0. 0. 0. 0. 7.00525416e-04 0. 7.00525416e-04
      7.00525416e-04 0. 3.15236440e-03 0. 1.75131357e-03 3.50262708e-04
      3.50262708e-04 7.00525416e-04 0. 0. 1.75131357e-03 0.
      3.50262708e-04 2.10157619e-03 0. 3.50262708e-04 1.05078809e-03 0.
      3.50262708e-04 0. 3.50262708e-04 0. 3.50262708e-04 3.50262708e-04
      2.80210166e-03 2.45183893e-03 7.00525416e-04 3.50262708e-04 0.
      1.40105083e-03 0. 0. 0. 7.00525416e-04 0. 3.50262708e-04 0. 0. 0.
      1.75131357e-03 3.50262708e-04 3.50262708e-04 7.00525416e-04 0.
      7.00525416e-04 0. 0. 2.45183893e-03 0. 1.05078809e-03
      3.50262708e-04 3.50262708e-04 7.00525416e-04 0. 7.00525416e-04
      3.50262708e-04 0. 3.50262708e-04 0. 0. 3.50262708e-04 0. 0. 0.
      3.50262708e-04 7.00525416e-04 3.50262708e-04 0. 7.00525416e-04 0.
      3.50262708e-04 0. 0. 3.50262708e-04 7.00525416e-04 3.50262708e-04
      0. 3.50262708e-04 3.50262708e-04 1.05078809e-03 0. 0.
      7.00525416e-04 1.05078809e-03 0. 3.50262708e-04 2.45183893e-03 0.
      0. 0. 7.00525416e-04 3.50262708e-04 3.50262708e-04 3.50262708e-04
      1.05078809e-03 0. 3.50262708e-04 0. 0. 0. 3.50262708e-04 0. 0.
      1.75131357e-03 0. 0. 0. 0. 3.85288987e-03 3.50262708e-04 0. 0.
      3.50262708e-04 0. 0. 0. 1.40105083e-03 0. 1.05078809e-03 0. 0.
      7.00525416e-04 3.50262708e-04 0. 3.50262708e-04 0. 3.50262708e-04
      0. 3.50262708e-04 0. 0. 3.50262708e-04 7.00525416e-04
      1.05078809e-03 0. 0. 0. 7.00525416e-04 3.50262708e-04
      1.40105083e-03 1.05078809e-03 0. 7.00525416e-04 0. 0.
      3.50262708e-04 7.00525416e-04 0. 3.50262708e-04 0. 0.
      7.00525416e-04 3.50262708e-04 0. 1.05078809e-03 2.80210166e-03 0.
      2.45183893e-03 3.50262708e-04 7.00525416e-04 3.50262708e-04
      3.50262708e-04 1.05078809e-03 2.10157619e-03 3.50262708e-04
      3.50262708e-04 1.05078809e-03 0. 3.50262708e-04 0. 7.00525416e-04
      3.50262708e-04 0. 3.50262708e-04 0. 3.50262708e-04 7.00525416e-04
      0. 0. 0. 3.50262708e-04 3.50262708e-04 7.00525416e-04
      7.00525416e-04 3.50262708e-04 3.50262708e-04 0. 7.00525416e-04
      7.00525416e-04 3.50262708e-04 3.50262708e-04 1.40105083e-03
      4.55341535e-03 1.40105083e-03 0. 3.50262708e-04 3.50262708e-04
      1.05078809e-03 0. 0. 3.50262708e-04 0. 2.80210166e-03 0.
      3.50262708e-04 0. 7.00525416e-04 0. 3.50262708e-04 1.05078809e-03
      7.00525416e-04 0. 3.50262708e-04 3.50262708e-04 7.00525416e-04
      2.80210166e-03 3.50262708e-04 1.40105083e-03 7.00525416e-04 0. 0.
      7.00525416e-04 1.40105083e-03 1.05078809e-03 0. 7.00525416e-04 0.
      0. 0. 3.50262708e-04 3.50262708e-04 1.05078809e-03 3.50262708e-04
      0. 0. 0. 0. 3.15236440e-03 0. 3.50262708e-04 0. 0. 2.10157619e-03
      0. 3.50262708e-04 0. 0. 2.10157619e-03 0. 3.50262708e-04
      3.50262708e-04 7.00525416e-04 0. 1.40105083e-03 7.00525416e-04 0.
      1.40105083e-03 3.50262708e-04 7.00525416e-04 2.10157619e-03
      7.00525416e-04 1.40105083e-03 3.50262708e-04 1.75131357e-03
      3.50262708e-04 0. 0. 0. 0. 0. 0. 0. 0. 3.50262708e-04 0. 0. 0.
      3.50262708e-04 0. 7.00525416e-04 7.00525416e-04 0. 0.
      3.50262708e-04 0. 0. 7.00525416e-04 0. 1.05078809e-03
      6.30472880e-03 0. 0. 0. 3.50262708e-04 1.75131357e-03 0. 0.
      3.50262708e-04 0. 0. 3.50262708e-04 0. 0. 0. 0. 0. 1.05078809e-03
      0. 7.00525416e-04 0. 3.50262708e-04 1.05078809e-03 7.00525416e-04
      1.05078809e-03 1.05078809e-03 0. 7.00525416e-04 0. 0. 0.
      3.50262708e-04 7.00525416e-04 1.05078809e-03 0. 0. 0. 0. 0.
      3.50262708e-04 3.50262708e-04 3.50262708e-04 0. 0. 0.
      1.40105083e-03 7.00525416e-04 1.05078809e-03 0. 0. 3.50262708e-04
      0. 0. 0. 3.50262708e-04 1.05078809e-03 3.50262708e-04
      1.05078809e-03 7.00525416e-04 0. 0. 7.00525416e-04 0.
      3.50262708e-04 0. 0. 0. 7.00525416e-04 0. 3.50262708e-04
      3.50262708e-04 0. 3.50262708e-04 0. 0. 0. 7.00525416e-04 0. 0. 0.
      3.50262708e-04 3.50262708e-04 1.05078809e-03 3.50262708e-04
      3.50262708e-04 0. 0. 0. 0. 3.50262708e-04 0. 1.05078809e-03
      3.50262708e-04 3.50262708e-04 1.40105083e-03 0. 0. 3.50262708e-04
      3.50262708e-04 0. 3.50262708e-04 3.50262708e-04 3.50262708e-04 0.
      1.05078809e-03 0. 3.50262708e-04 3.50262708e-04 0. 7.00525416e-04
      1.05078809e-03 0. 3.50262708e-04 1.05078809e-03 0. 7.00525416e-04
      0. 0. 0. 0. 0. 0. 0. 0. 3.50262708e-04 0. 0. 0. 0. 7.00525416e-04
      1.40105083e-03 7.00525416e-04 3.50262708e-04 0. 4.55341535e-03
      7.00525416e-04 3.50262708e-04 0. 2.10157619e-03 3.50262708e-04 0.
      3.50262708e-04 3.50262708e-04 7.00525416e-04 1.05078809e-03
      7.00525416e-04 0. 3.50262708e-04 0. 1.05078809e-03 0. 0. 0.
      3.50262708e-04 0. 3.50262708e-04 0. 1.40105083e-03 3.50262714e-03
      0. 0. 1.40105083e-03 0. 0. 3.50262708e-04 7.00525416e-04 0.
      4.55341535e-03 0. 0. 0. 3.50262708e-04 7.00525416e-04
      7.00525416e-04 3.50262708e-04 0. 3.50262708e-04 3.50262708e-04
      9.10683069e-03 7.00525416e-04 3.50262708e-04 3.50262708e-04 0. 0.
      3.50262708e-04 3.50262708e-04 0. 3.50262708e-04 0. 1.05078809e-03
      7.00525416e-04 3.50262708e-04 3.50262708e-04 0. 3.50262708e-04
      3.50262708e-04 0. 7.00525416e-04 3.50262708e-04 0. 0.
      3.50262708e-04 0. 3.50262708e-04 7.00525416e-04 0. 0. 0. 0. 0. 0.
      0. 0. 0. 7.00525416e-04 3.50262708e-04 7.00525416e-04
      3.50262708e-04 3.50262708e-04 1.05078809e-03 0. 0. 0.
      7.00525416e-04 0. 0. 7.00525416e-04 7.00525416e-04 1.75131357e-03
      3.50262708e-04 2.80210166e-03 3.50262708e-04 0. 1.75131357e-03 0.
      1.75131357e-03 3.50262708e-04 3.15236440e-03 7.00525416e-04 0. 0.
      0. 3.50262708e-04 0. 3.50262708e-04 7.00525416e-04 7.00525416e-04
      0. 7.00525416e-04 3.50262708e-04 0. 7.00525416e-04 1.05078809e-03
      7.00525416e-04 7.00525416e-04 0. 0. 0. 7.00525416e-04 0. 0. 0. 0.
      2.45183893e-03 0. 3.50262708e-04 0. 0. 0. 0. 1.05078809e-03 0.
      3.50262708e-04 0. 0. 0. 0. 7.00525416e-04 7.00525416e-04
      7.00525416e-04 3.50262708e-04 0. 3.50262708e-04 7.00525416e-04 0.
      2.10157619e-03 3.50262708e-04 0. 1.40105083e-03 0. 0.
      3.50262708e-04 3.50262708e-04 2.45183893e-03 0. 0. 0.
      7.00525416e-04 1.75131357e-03 7.00525416e-04 0. 3.50262708e-04
      3.50262708e-04 0. 0. 1.05078809e-03 0. 7.00525416e-04 0.
      1.40105083e-03 7.00525416e-04 3.50262708e-04 7.00525416e-04 0. 0.
      0. 0. 3.50262708e-04 0. 3.50262708e-04 3.50262708e-04 0.
      1.05078809e-03 0. 7.00525416e-04 0. 3.50262708e-04 0. 0.
      3.50262708e-04 1.05078809e-03 0. 3.50262708e-04 1.26094576e-02 0.
      7.00525416e-04 3.50262708e-04 0. 0. 0. 0. 0. 7.00525416e-04 0. 0.
      1.40105083e-03 0. 3.50262708e-04 0. 1.40105083e-03 7.00525416e-04
      0. 0. 0. 1.05078809e-03 7.00525416e-04 3.50262708e-04 0. 0.
      7.00525416e-04 0. 0. 3.50262708e-04 0. 0. 1.40105083e-03 0. 0. 0.
      3.50262708e-04 0. 3.50262708e-04 7.00525416e-04 2.10157619e-03 0.
      3.50262708e-04 1.40105083e-03 0. 3.50262708e-04 7.00525416e-04
      1.40105083e-03 3.50262708e-04 3.50262708e-04 0. 3.50262708e-04
      3.50262708e-04 0. 1.05078809e-03 0. 0. 3.50262708e-04 0.
      3.50262708e-04 3.50262708e-04 0. 3.50262708e-04 7.00525416e-04 0.
      3.50262708e-04 7.00525416e-04 3.50262708e-04 0. 0. 3.50262708e-04
      0. 7.00525416e-04 1.05078809e-03 3.50262708e-04 0. 3.50262708e-04
      3.50262708e-04 7.00525416e-04 1.40105083e-03 3.50262708e-04 0.
      7.00525416e-04 0. 3.50262708e-04 1.40105083e-03 0. 0.
      3.50262708e-04 3.50262708e-04 1.40105083e-03 7.00525416e-04
      3.50262708e-04 0. 1.40105083e-03 7.00525416e-04 3.50262708e-04 0.
      3.50262708e-04 0. 0. 7.00525416e-04 0. 7.00525416e-04
      1.75131357e-03 0. 1.05078809e-03 3.50262708e-04 0. 0. 0. 0.
      1.05078809e-03 3.50262708e-04 3.50262708e-04 0. 0. 7.00525416e-04
      0. 0. 0. 3.50262708e-04 3.50262708e-04 7.00525416e-04 0. 0. 0.
      3.50262708e-04 3.50262708e-04 2.45183893e-03 1.75131357e-03 0.
      7.00525416e-04 7.00525416e-04 0. 1.05078809e-03 0. 0. 0. 0. 0. 0.
      7.00525416e-04 3.50262708e-04 3.50262708e-04 0. 0. 1.75131357e-03
      3.50262708e-04 0. 0. 3.85288987e-03 0. 7.00525416e-04 0.
      7.00525416e-04 3.50262708e-04 3.50262708e-04 1.05078809e-03 0.
      7.00525416e-04 3.50262708e-04 3.50262708e-04 3.50262708e-04
      7.00525416e-04 0. 0. 3.50262708e-04 0. 1.40105083e-03 0. 0.
      3.50262708e-04 0. 0. 0. 1.05078809e-03 0. 3.50262708e-04 0.
      1.05078809e-03 3.50262708e-04 0. 3.50262708e-04 0. 1.40105083e-03
      0. 0. 0. 0. 1.05078809e-03 0. 7.00525416e-04 7.00525416e-04
      1.75131357e-03 3.50262708e-04 0. 0. 3.85288987e-03 0.
      3.50262708e-04 3.50262708e-04 7.00525416e-04 0. 3.50262708e-04 0.
      0. 0. 7.00525416e-04 0. 0. 3.50262708e-04 3.50262708e-04 0. 0.
      7.00525416e-04 0. 0. 0. 1.40105083e-03 3.85288987e-03 0. 0.
      3.50262708e-04 0. 0. 0. 0. 0. 0. 3.50262708e-04 0. 0.
      3.50262708e-04 0. 3.50262708e-04 0. 3.15236440e-03 7.00525416e-04
      1.05078809e-03 7.00525416e-04 0. 3.50262708e-04 1.40105083e-03 0.
      0. 0. 0. 3.50262708e-04 1.05078809e-03 3.50262708e-04 0. 0.
      7.00525416e-04 0. 1.05078809e-03 3.50262708e-04 3.50262708e-04
      3.50262708e-04 1.05078809e-03 3.50262708e-04 0. 0. 0.
      7.00525416e-04 3.50262708e-04 0. 3.50262708e-04 0. 1.75131357e-03
      0. 1.05078809e-03 0. 1.05078809e-03 0. 0. 0. 0. 3.50262708e-04 0.
      3.50262708e-04 0. 0. 0. 7.00525416e-04 3.50262708e-04 0.
      1.05078809e-03 7.00525416e-04 3.50262708e-04 1.75131357e-03
      2.10157619e-03 3.50262708e-04 0. 3.50262708e-04 0. 0. 0.
      1.12084066e-02 0. 7.00525416e-04 3.50262708e-04 0. 0. 0. 0.
      1.40105083e-03 0. 3.50262708e-04 7.00525416e-04 0. 3.50262708e-04
      0. 3.50262708e-04 0. 3.50262708e-04 0. 3.50262708e-04
      2.10157619e-03 2.80210166e-03 3.50262708e-04 0. 7.00525416e-04
      1.40105083e-03 0. 3.50262708e-04 2.10157619e-03 1.05078809e-03
      3.50262708e-04 7.00525416e-04 0. 3.50262708e-04 3.50262708e-04
      3.50262708e-04 0. 0. 1.75131357e-03 7.00525416e-04 1.05078809e-03
      3.50262708e-04 0. 0. 0. 1.40105083e-03 0. 0. 0. 0. 0.
      7.00525416e-04 0. 0. 0. 0. 3.50262708e-04 0. 0. 3.50262708e-04 0.
      0. 3.50262708e-04 0. 0. 0. 0. 0. 0. 0. 3.50262708e-04 0.
      1.40105083e-03 0. 1.05078809e-03 0. 3.50262708e-04 0. 0. 0.
      3.50262708e-04 0. 3.50262708e-04 1.05078809e-03 3.50262708e-04
      3.50262708e-04 0. 0. 0. 0. 3.50262708e-04 3.50262708e-04 0.
      3.50262708e-04 3.50262708e-04 3.50262708e-04 7.00525416e-04 0. 0.
      0. 0. 0. 1.40105083e-03 1.05078809e-03 0. 0. 0. 7.00525416e-04
      3.50262708e-04 0. 3.50262708e-04 3.50262708e-04 3.50262708e-04
      1.05078809e-03 3.50262708e-04 0. 0. 3.50262708e-04 0.
      1.40105083e-03 0. 0. 3.50262708e-04 3.50262708e-04 3.50262708e-04
      3.50262708e-04 1.40105083e-03 0. 0. 0. 0. 3.50262708e-04
      3.50262708e-04 3.50262708e-04 7.00525416e-04 3.50262708e-04 0. 0.
      3.50262708e-04 0. 3.50262708e-04 3.50262708e-04 1.75131357e-03 0.
      7.00525416e-04 0. 0. 7.00525416e-04 0. 3.50262708e-04 0.
      3.50262708e-04 3.50262708e-04 3.50262708e-04 0. 0. 0. 0.
      3.15236440e-03 3.50262708e-04 0. 7.00525416e-04 0. 0.
      3.50262708e-04 3.50262708e-04 0. 3.50262708e-04 0. 0. 0.
      1.05078809e-03 1.05078809e-03 0. 3.50262708e-04 0. 3.50262708e-04
      0. 3.50262708e-04 0. 0. 3.50262708e-04 0. 0. 3.50262708e-04 0. 0.
      0. 0. 3.50262708e-04 0. 1.75131357e-03 3.50262708e-04
      3.50262708e-04 1.40105083e-03 0. 0. 3.50262708e-04 2.80210166e-03
      0. 7.00525416e-04 1.05078809e-03 3.50262708e-04 7.00525416e-04
      3.50262708e-04 7.00525416e-04 2.45183893e-03 3.50262708e-04
      1.75131357e-03 1.75131357e-03 3.50262708e-04 0. 0. 0.
      1.75131357e-03 7.00525416e-04 0. 0. 7.00525416e-04 0.
      4.55341535e-03 3.50262708e-04 0. 1.05078809e-03 0. 0. 0. 0.
      1.75131357e-03 3.50262708e-04 0. 0. 3.50262708e-04 7.00525416e-04
      0. 0. 0. 0. 0. 3.50262708e-04 0. 7.00525416e-04 3.50262708e-04
      3.50262708e-04 7.00525416e-04 3.50262708e-04 7.00525416e-04</_>
    <_>
      5.55452716e-04 0. 5.55452716e-04 0. 2.22181086e-03 3.70301801e-04
      1.85150901e-04 1.48120720e-03 1.85150901e-04 7.40603602e-04
      1.48120720e-03 0. 0. 0. 1.11090543e-03 0. 3.70301801e-04
      3.70301801e-04 1.85150901e-04 1.11090543e-03 1.85150901e-04
      1.85150901e-04 0. 1.85150901e-04 3.70301801e-04 0. 3.70301801e-04
      5.55452716e-04 9.25754488e-04 1.85150901e-04 0. 1.85150901e-04
      2.03665998e-03 1.11090543e-03 1.66635809e-03 7.40603602e-04
      1.85150901e-04 9.25754488e-04 7.40603602e-04 0. 5.55452716e-04
      1.66635809e-03 2.03665998e-03 0. 5.55452716e-04 1.11090543e-03
      2.96241441e-03 1.29605632e-03 1.66635809e-03 1.48120720e-03
      1.85150901e-04 1.85150901e-04 2.03665998e-03 0. 1.85150901e-04
      3.70301801e-04 7.40603602e-04 2.59211264e-03 0. 3.70301801e-04
      1.11090543e-03 1.85150901e-04 3.70301801e-04 7.40603602e-04
      5.55452716e-04 3.70301801e-04 9.25754488e-04 1.85150901e-04
      7.40603602e-04 3.14756529e-03 1.85150901e-04 0. 0. 0.
      1.66635809e-03 1.85150901e-04 9.25754488e-04 0. 9.25754488e-04 0.
      0. 0. 5.55452716e-04 1.85150898e-03 1.85150901e-04 1.85150901e-04
      3.70301801e-04 0. 0. 5.55452716e-04 5.55452716e-04 0.
      5.55452716e-04 3.70301801e-04 1.85150901e-04 1.85150901e-04 0.
      1.85150901e-04 5.55452716e-04 1.11090543e-03 7.59118702e-03
      1.85150901e-04 3.70301801e-04 1.85150901e-04 3.70301801e-04
      3.70301801e-04 5.55452716e-04 0. 1.11090543e-03 9.25754488e-04
      1.85150901e-04 5.55452716e-04 0. 0. 3.70301801e-04 1.29605632e-03
      1.85150901e-04 5.55452716e-04 3.70301801e-04 1.85150901e-04
      5.55452716e-04 0. 0. 1.85150901e-04 0. 5.18422527e-03 0.
      3.70301801e-04 0. 1.85150901e-04 1.85150901e-04 9.25754488e-04 0.
      1.85150901e-04 1.85150898e-03 1.85150901e-04 5.55452716e-04
      1.29605632e-03 5.55452716e-04 5.55452716e-04 7.40603602e-04 0.
      3.70301801e-04 7.40603602e-04 5.55452716e-04 0. 0. 1.85150901e-04
      0. 7.40603602e-04 3.70301801e-04 7.40603602e-04 0. 3.70301801e-04
      1.85150901e-04 5.55452716e-04 1.85150901e-04 0. 1.85150901e-04
      3.70301801e-04 5.55452716e-04 1.11090543e-03 0. 1.66635809e-03
      5.55452716e-04 1.11090543e-03 2.22181086e-03 0. 5.55452716e-04
      5.55452716e-04 1.85150901e-04 1.85150901e-04 1.29605632e-03
      5.55452716e-04 0. 0. 3.70301801e-04 1.29605632e-03 1.85150901e-04
      5.55452716e-04 0. 1.29605632e-03 0. 3.70301801e-04 0. 0. 0.
      5.55452704e-03 1.29605632e-03 3.70301801e-04 0. 3.70301801e-04 0.
      0. 0. 3.70301801e-04 1.48120720e-03 0. 1.85150901e-04 0.
      1.85150901e-04 5.55452716e-04 3.70301801e-04 0. 1.85150901e-04
      3.70301801e-04 0. 1.85150901e-04 9.25754488e-04 3.70301801e-04
      9.25754488e-04 1.85150898e-03 0. 0. 0. 1.48120720e-03 0. 0.
      5.55452716e-04 1.11090543e-03 5.55452716e-04 3.14756529e-03
      1.48120720e-03 1.85150898e-03 3.70301801e-04 3.70301801e-04
      1.85150901e-04 1.85150901e-04 5.55452716e-04 3.70301801e-04
      5.55452716e-04 0. 3.70301801e-04 3.70301801e-04 0. 1.85150901e-04
      1.85150901e-04 1.85150901e-04 1.11090543e-03 1.85150901e-04 0.
      1.85150901e-04 1.85150901e-04 1.85150901e-04 1.85150901e-04
      1.85150901e-04 1.85150901e-04 1.85150901e-04 1.29605632e-03
      9.25754488e-04 0. 1.85150901e-04 0. 1.29605632e-03 7.40603602e-04
      1.85150901e-04 3.70301801e-04 1.66635809e-03 9.25754488e-04 0. 0.
      5.55452716e-04 0. 0. 0. 5.55452716e-04 9.25754488e-04
      1.11090543e-03 5.55452716e-04 3.70301801e-04 3.70301801e-04
      2.96241441e-03 0. 3.70301801e-04 6.10997993e-03 0. 1.85150901e-04
      5.55452716e-04 0. 0. 0. 3.70301801e-04 0. 0. 1.85150901e-04
      1.85150901e-04 1.29605632e-03 0. 0. 7.40603602e-04 0.
      3.33271618e-03 3.70301801e-04 0. 1.85150901e-04 1.85150901e-04
      1.85150901e-04 5.55452716e-04 0. 2.59211264e-03 1.48120720e-03
      1.85150901e-04 9.25754488e-04 0. 5.55452716e-04 3.70301801e-04
      3.70301801e-04 4.81392350e-03 0. 1.85150901e-04 1.85150901e-04
      3.70301801e-04 0. 5.55452716e-04 0. 7.40603602e-04 0.
      9.25754488e-04 3.33271618e-03 0. 1.85150901e-04 1.85150901e-04 0.
      1.85150901e-04 1.85150901e-04 5.55452716e-04 1.85150901e-04
      9.25754488e-04 5.55452716e-04 0. 0. 0. 1.85150901e-04
      3.70301801e-04 0. 0. 1.85150901e-04 1.85150901e-04 3.70301801e-04
      0. 0. 0. 7.40603602e-04 0. 1.48120720e-03 0. 1.85150901e-04
      2.59211264e-03 0. 0. 0. 3.70301801e-04 1.85150901e-04
      5.55452716e-04 1.85150901e-04 2.03665998e-03 3.14756529e-03
      1.11090543e-03 0. 1.85150901e-04 3.70301801e-04 7.40603602e-04
      1.85150901e-04 2.03665998e-03 1.66635809e-03 1.85150901e-04
      1.85150901e-04 1.85150901e-04 1.85150901e-04 1.85150898e-03 0.
      1.85150901e-04 3.70301801e-04 0. 0. 1.85150901e-04 3.70301801e-04
      2.40696175e-03 1.85150901e-04 1.85150901e-04 0. 0. 1.85150901e-04
      5.55452716e-04 6.10997993e-03 4.62877238e-03 2.59211264e-03 0.
      1.85150901e-04 0. 0. 0. 0. 0. 3.70301801e-04 1.85150901e-04
      3.70301801e-04 0. 3.70301801e-04 3.70301801e-04 3.70301801e-04
      1.85150901e-04 1.85150901e-04 3.70301801e-04 0. 5.55452716e-04 0.
      1.85150901e-04 7.40603602e-04 5.55452716e-04 1.66635809e-03 0.
      3.70301801e-04 1.85150901e-04 1.85150898e-03 0. 1.85150901e-04
      3.70301801e-04 0. 0. 0. 3.70301801e-04 5.55452716e-04
      1.85150901e-04 3.70301801e-04 5.55452716e-04 0. 3.70301801e-04
      1.85150901e-04 0. 1.11090543e-03 1.85150901e-04 0. 5.55452716e-04
      0. 3.70301801e-04 1.85150901e-04 0. 1.85150901e-04 0.
      1.85150901e-04 0. 1.85150898e-03 3.70301801e-04 0. 0.
      3.70301801e-04 7.40603602e-04 3.70301801e-04 1.85150901e-04
      1.85150901e-04 7.40603602e-04 3.70301801e-04 2.59211264e-03 0.
      1.29605632e-03 0. 1.85150901e-04 1.85150901e-04 0. 3.70301801e-04
      0. 3.70301801e-04 9.25754488e-04 0. 5.55452716e-04 2.22181086e-03
      1.85150901e-04 0. 1.11090543e-03 0. 5.55452716e-04 4.81392350e-03
      1.85150901e-04 5.55452716e-04 0. 5.55452716e-04 7.40603602e-04 0.
      0. 5.55452716e-04 1.48120720e-03 1.85150901e-04 7.40603602e-04
      3.70301801e-04 1.48120720e-03 0. 0. 1.85150901e-04 0.
      1.85150901e-04 0. 0. 1.85150901e-04 1.11090543e-03 3.70301801e-04
      9.25754488e-04 3.70301801e-04 3.70301801e-04 5.55452716e-04 0.
      3.70301801e-04 1.29605632e-03 0. 0. 5.55452716e-04 0.
      7.40603602e-04 1.85150901e-04 3.70301801e-04 3.70301801e-04
      1.85150901e-04 1.11090543e-03 0. 0. 1.66635809e-03 3.70301801e-04
      0. 1.85150901e-04 0. 0. 0. 5.55452716e-04 0. 3.70301801e-04
      3.70301801e-04 0. 3.70301801e-04 3.70301801e-04 0. 3.70301801e-04
      0. 0. 0. 1.85150901e-04 2.03665998e-03 3.70301801e-04 0.
      1.85150901e-04 0. 0. 1.48120720e-03 3.70301801e-04 1.85150901e-04
      9.25754488e-04 1.48120720e-03 2.03665998e-03 5.55452716e-04 0. 0.
      5.55452716e-04 2.22181086e-03 0. 0. 1.85150901e-04 0. 0.
      9.25754488e-04 2.77726352e-03 3.70301801e-04 1.66635809e-03
      1.85150901e-04 9.25754488e-04 3.70301801e-04 0. 0. 1.85150901e-04
      1.85150901e-04 1.85150901e-04 1.48120720e-03 0. 3.33271618e-03
      3.70301801e-04 0. 1.11090543e-03 3.70301801e-04 0. 0.
      1.85150901e-04 5.55452716e-04 0. 0. 0. 0. 1.85150901e-04 0. 0. 0.
      0. 0. 3.70301801e-04 1.85150901e-04 5.55452716e-04 2.03665998e-03
      3.70301801e-04 1.85150901e-04 9.25754488e-04 1.85150901e-04
      5.55452716e-04 1.85150901e-04 1.85150901e-04 0. 0. 0.
      5.55452716e-04 0. 7.40603602e-04 1.85150901e-04 0. 0.
      5.55452716e-04 7.40603602e-04 1.48120720e-03 5.55452716e-04 0.
      3.70301801e-04 0. 0. 1.85150901e-04 1.85150901e-04 1.66635809e-03
      1.85150901e-04 1.85150901e-04 5.55452716e-04 1.85150901e-04
      1.85150898e-03 2.03665998e-03 0. 1.48120720e-03 0. 0.
      5.55452716e-04 0. 0. 0. 5.55452716e-04 0. 1.85150901e-04
      5.55452716e-04 0. 1.11090543e-03 0. 1.85150901e-04 0.
      1.85150901e-04 5.55452716e-04 1.85150901e-04 0. 0. 0. 0.
      1.85150901e-04 1.85150901e-04 1.85150901e-04 0. 1.66635809e-03
      3.70301801e-04 7.40603602e-04 7.40603602e-04 7.40603602e-04
      1.85150901e-04 1.85150901e-04 1.11090543e-03 0. 5.55452716e-04
      5.55452716e-04 1.11090543e-03 7.40603602e-04 1.29605632e-03
      3.70301801e-04 0. 0. 0. 1.85150901e-04 0. 3.70301801e-04 0. 0.
      2.96241441e-03 3.70301801e-04 1.85150901e-04 5.55452716e-04
      1.85150901e-04 1.11090543e-03 3.70301801e-04 1.85150901e-04
      1.85150901e-04 0. 0. 1.48120720e-03 1.85150901e-04 3.33271618e-03
      1.85150901e-04 4.07331996e-03 3.70301801e-04 1.29605632e-03
      1.85150901e-04 3.33271618e-03 1.85150901e-04 1.85150901e-04
      2.22181086e-03 1.85150901e-04 1.85150901e-04 3.70301801e-04 0. 0.
      0. 1.85150901e-04 5.55452716e-04 1.11090543e-03 0. 9.25754488e-04
      1.85150901e-04 1.85150901e-04 1.85150901e-04 0. 3.70301801e-04
      3.70301801e-04 3.70301801e-04 1.85150901e-04 0. 0. 0. 0.
      9.25754488e-04 9.25754488e-04 1.11090543e-03 0. 3.70301801e-04
      3.70301801e-04 1.85150901e-04 0. 3.70301801e-04 0. 0.
      3.70301801e-04 3.70301801e-04 0. 0. 7.40603602e-04 1.85150901e-04
      1.11090543e-03 0. 0. 5.55452716e-04 1.29605632e-03 2.22181086e-03
      1.29605632e-03 1.11090543e-03 0. 0. 5.55452716e-04 3.70301801e-04
      7.40603602e-04 4.44362173e-03 0. 1.11090543e-03 1.85150901e-04
      1.85150898e-03 0. 5.55452716e-04 2.03665998e-03 5.92482882e-03
      7.40603602e-04 0. 3.70301801e-04 3.70301801e-04 3.70301801e-04
      3.70301801e-04 3.70301801e-04 0. 3.70301801e-04 1.29605632e-03
      7.40603602e-04 0. 5.55452716e-04 1.11090543e-03 0. 5.55452716e-04
      3.70301801e-04 1.85150901e-04 1.85150901e-04 5.55452716e-04
      3.70301801e-04 0. 3.70301801e-04 0. 0. 1.85150901e-04
      1.85150901e-04 0. 0. 0. 0. 1.85150901e-04 9.25754488e-04
      1.85150901e-04 1.85150901e-04 7.40603602e-04 1.85150901e-04
      3.70301801e-04 3.70301801e-04 7.40603602e-04 1.85150901e-04
      1.85150901e-04 0. 1.85150901e-04 3.70301801e-04 0. 3.70301801e-04
      0. 1.85150901e-04 0. 0. 0. 1.66635809e-03 1.85150901e-04
      1.85150901e-04 0. 0. 3.70301801e-04 0. 0. 1.85150901e-04
      9.25754488e-04 0. 1.85150898e-03 3.70301801e-04 0. 2.22181086e-03
      1.85150901e-04 5.55452716e-04 3.51786707e-03 1.85150901e-04 0.
      1.85150901e-04 9.25754488e-04 1.85150901e-04 1.85150901e-04 0.
      5.55452716e-04 0. 3.88816884e-03 7.40603602e-04 5.55452716e-04 0.
      1.85150901e-04 1.29605632e-03 0. 3.70301801e-04 3.70301801e-04
      1.85150901e-04 0. 1.11090543e-03 2.77726352e-03 0. 1.85150901e-04
      1.29605632e-03 1.85150901e-04 9.25754488e-04 3.70301801e-04
      3.70301801e-04 7.40603602e-04 3.70301801e-04 1.85150901e-04
      1.29605632e-03 0. 0. 3.70301801e-04 0. 0. 0. 1.48120720e-03
      1.85150901e-04 3.70301801e-04 0. 0. 5.55452716e-04 0.
      9.25754488e-04 5.55452716e-04 1.85150901e-04 5.55452716e-04
      1.85150901e-04 0. 1.48120720e-03 0. 0. 3.70301801e-04
      7.40603602e-04 0. 0. 7.40603602e-04 1.85150901e-04 0.
      1.29605632e-03 5.55452716e-04 0. 1.85150901e-04 0. 3.70301801e-04
      3.70301801e-04 1.11090543e-03 1.29605632e-03 1.85150901e-04 0.
      3.70301801e-04 9.25754488e-04 0. 0. 7.40603602e-04 1.85150901e-04
      0. 0. 0. 1.29605632e-03 2.22181086e-03 1.29605632e-03
      1.85150901e-04 4.25847061e-03 1.85150901e-04 0. 1.85150901e-04
      1.85150901e-04 0. 3.14756529e-03 1.29605632e-03 1.85150901e-04
      1.85150901e-04 0. 1.85150901e-04 0. 0. 0. 2.03665998e-03
      9.25754488e-04 1.85150901e-04 0. 0. 0. 0. 2.03665998e-03
      5.55452716e-04 1.85150901e-04 1.85150901e-04 0. 0. 1.29605632e-03
      0. 9.25754488e-04 1.48120720e-03 1.85150901e-04 1.85150901e-04 0.
      5.55452716e-04 0. 0. 1.85150901e-04 0. 1.85150901e-04
      7.40603602e-04 3.70301801e-04 1.85150901e-04 0. 0. 1.85150901e-04
      9.25754488e-04 1.85150901e-04 0. 0. 5.55452716e-04 0.
      7.40603602e-04 1.48120720e-03 1.85150901e-04 0. 1.85150901e-04
      3.70301801e-04 0. 0. 1.85150901e-04 0. 1.85150898e-03
      3.70301801e-04 0. 1.11090543e-03 0. 1.85150901e-04 2.77726352e-03
      0. 1.66635809e-03 1.85150901e-04 0. 1.66635809e-03 1.85150901e-04
      2.22181086e-03 5.55452716e-04 0. 0. 0. 0. 1.85150901e-04
      7.40603602e-04 1.85150901e-04 0. 0. 1.85150898e-03 0. 0.
      3.70301801e-04 1.85150901e-04 0. 3.70301801e-04 0. 0.
      3.70301801e-04 1.11090543e-03 7.40603602e-04 7.40603602e-04
      1.85150901e-04 3.70301801e-04 1.85150901e-04 1.85150901e-04 0.
      1.29605632e-03 2.40696175e-03 7.40603602e-04 0. 1.85150898e-03
      5.55452716e-04 5.55452716e-04 7.40603602e-04 1.85150901e-04
      5.55452716e-04 1.85150901e-04 2.22181086e-03 0. 1.11090543e-03 0.
      7.40603602e-04 0. 1.85150901e-04 0. 0. 1.85150901e-04
      5.55452716e-04 1.85150901e-04 1.85150901e-04 7.40603602e-04
      1.85150901e-04 1.11090543e-03 3.70301801e-04 5.55452716e-04
      2.96241441e-03 3.70301801e-04 0. 1.29605632e-03 0. 1.85150901e-04
      2.22181086e-03 1.66635809e-03 1.11090543e-03 3.70301801e-04 0.
      7.40603602e-04 1.85150901e-04 1.85150901e-04 1.85150901e-04
      9.25754488e-04 5.55452716e-04 0. 0. 1.48120720e-03 0.
      9.25754488e-04 0. 0. 3.70301801e-04 1.85150901e-04 1.85150901e-04
      1.85150901e-04 1.85150901e-04 3.70301801e-04 1.85150901e-04
      1.85150901e-04 0. 7.40603602e-04 0. 0. 1.85150901e-04
      1.11090543e-03 0. 3.70301801e-04 1.29605632e-03 1.85150898e-03
      5.55452716e-04 1.48120720e-03 1.85150901e-04 1.48120720e-03
      3.70301801e-04 0. 0. 3.70301801e-04 0. 0. 0. 0. 1.29605632e-03
      2.22181086e-03 0. 2.77726352e-03 0. 3.70301801e-04 0. 0.
      3.70301801e-04 1.11090543e-03 1.85150901e-04 3.70301801e-04
      1.85150901e-04 1.85150898e-03 1.85150901e-04 2.59211264e-03 0.
      3.70301801e-04 0. 7.40603602e-04 2.03665998e-03 1.29605632e-03
      5.55452716e-04 1.29605632e-03 0. 1.85150901e-04 0. 1.85150901e-04
      3.70301801e-04 0. 0. 3.70301801e-04 1.29605632e-03 0. 0.
      3.70301801e-04 0. 0. 0. 3.70301801e-04 3.70301801e-04 0.
      1.85150901e-04 0. 1.48120720e-03 1.48120720e-03 1.85150901e-04
      4.81392350e-03 1.85150898e-03 3.70301801e-04 1.66635809e-03 0.
      5.55452716e-04 0. 1.85150901e-04 3.70301801e-04 0. 1.85150901e-04
      1.85150901e-04 0. 5.55452716e-04 1.85150901e-04 0. 7.40603602e-04
      2.03665998e-03 1.85150901e-04 0. 0. 0. 5.55452716e-04 0.
      7.40603602e-04 3.70301801e-04 1.85150901e-04 0. 0. 0. 0.
      1.85150901e-04 1.85150901e-04 1.85150901e-04 2.59211264e-03
      1.85150901e-04 0. 2.22181086e-03 2.40696175e-03 0. 0. 0.
      1.85150901e-04 1.85150901e-04 4.62877238e-03 1.85150901e-04
      3.70301801e-04 0. 1.85150898e-03 5.55452716e-04 1.85150901e-04 0.
      0. 5.55452716e-04 3.70301801e-04 0. 0. 0. 0. 5.55452716e-04
      5.55452716e-04 0. 1.85150901e-04 0. 1.85150901e-04 1.85150901e-04
      5.55452716e-04 5.55452716e-04 3.70301801e-04 1.29605632e-03 0.
      1.85150901e-04 0. 1.85150901e-04 7.40603602e-04 1.85150898e-03
      1.66635809e-03 0. 0. 1.48120720e-03 3.70301801e-04 2.59211264e-03
      1.29605632e-03 1.48120720e-03 0. 0. 0. 9.25754488e-04
      2.96241441e-03 3.70301801e-04 0. 3.70301801e-04 3.70301801e-04
      4.62877238e-03 3.70301801e-04 0. 1.85150901e-04 5.55452716e-04
      1.29605632e-03 0. 3.70301801e-04 1.85150901e-04 5.55452716e-04
      3.70301801e-04 4.99907415e-03 0. 0. 7.40603602e-04 3.70301801e-04
      0. 1.29605632e-03 0. 0. 3.70301801e-04 0. 0. 1.85150901e-04
      2.77726352e-03 0. 1.85150901e-04 1.85150901e-04 1.85150901e-04 0.
      0. 3.70301801e-04 5.55452716e-04 3.70301795e-03 0. 1.85150901e-04
      1.29605632e-03 1.48120720e-03 0. 0. 3.70301801e-04 3.70301801e-04
      1.48120720e-03 0. 0. 0. 3.70301801e-04 1.85150901e-04
      1.85150901e-04 7.40603602e-04 5.55452716e-04 1.85150901e-04
      1.85150901e-04 6.48028171e-03 1.85150901e-04 0. 0. 1.85150898e-03
      1.11090543e-03 1.11090543e-03 0. 9.25754488e-04 9.25754488e-04
      1.85150898e-03 7.40603602e-04 5.55452716e-04 1.85150901e-04 0. 0.
      9.25754488e-04 1.85150901e-04 0. 0. 5.55452716e-04 0.
      1.85150901e-04 1.85150901e-04 0. 0. 1.85150901e-04 0. 0.
      3.70301801e-04 5.55452716e-04 0. 1.85150901e-04 1.85150901e-04 0.
      0. 7.40603602e-04 0. 3.70301801e-04 0. 0. 5.55452716e-04 0. 0.
      3.70301801e-04 3.70301801e-04 3.70301801e-04 2.40696175e-03
      1.85150901e-04 0. 9.25754488e-04 3.70301801e-04 5.55452716e-04
      1.85150901e-04 0. 1.85150901e-04 3.51786707e-03 1.29605632e-03
      3.70301801e-04 0. 3.70301801e-04 1.48120720e-03 3.70301801e-04
      3.70301801e-04 7.40603602e-04 1.11090543e-03 1.85150901e-04 0.
      3.70301801e-04 0. 3.70301801e-04 0. 1.85150901e-04 3.70301801e-04
      2.40696175e-03 1.85150901e-04 1.66635809e-03 2.96241441e-03
      1.85150901e-04 0. 3.70301801e-04 0. 7.40603602e-04 0.
      7.40603602e-04 1.85150901e-04 0. 1.85150901e-04 5.55452716e-04
      9.25754488e-04 0. 1.85150901e-04 1.48120720e-03 0. 0.
      3.70301801e-04 1.48120720e-03 3.70301801e-04 1.85150901e-04
      9.25754488e-04 0. 7.40603602e-04 0. 1.85150901e-04 0. 0. 0.
      3.70301801e-04 3.70301801e-04 0. 3.70301801e-04 1.85150898e-03 0.
      3.70301801e-04 1.85150901e-04 2.03665998e-03 0. 3.70301801e-04 0.
      7.40603602e-04 3.70301801e-04 3.70301801e-04 0. 5.55452716e-04
      9.25754488e-04 1.66635809e-03 1.85150901e-04 2.59211264e-03
      1.85150898e-03 9.25754488e-04 1.85150901e-04 3.70301801e-04 0.
      9.25754488e-04 0. 0. 5.55452716e-04 3.70301801e-04 0. 0. 0. 0.
      1.85150901e-04 3.70301801e-04 0. 5.55452716e-04 3.70301801e-04
      1.11090543e-03 7.40603602e-04 1.85150901e-04 1.85150901e-04
      1.85150901e-04 1.11090543e-03 0. 3.70301801e-04 3.51786707e-03
      3.70301801e-04 3.70301801e-04 1.85150901e-04 0. 0. 0.
      1.85150898e-03 0. 2.03665998e-03 1.85150901e-04 7.40603602e-04 0.
      0. 0. 7.40603602e-04 1.11090543e-03 7.40603602e-04 0.
      1.85150898e-03 5.55452716e-04 0. 3.70301801e-04 0. 7.40603602e-04
      0. 0. 3.70301801e-04 0. 7.40603602e-04 1.85150901e-04
      1.85150901e-04 5.55452716e-04 0. 0. 7.40603602e-04 1.85150901e-04
      0. 0. 1.66635809e-03 1.85150901e-04 0. 0. 0. 0. 1.85150901e-04
      3.70301801e-04 5.55452716e-04 7.40603602e-04 0. 0. 1.85150901e-04
      1.85150901e-04 1.85150901e-04 0. 0. 0. 5.55452716e-04
      3.70301801e-04 0. 1.11090543e-03 0. 0. 0. 1.11090543e-03
      1.85150901e-04 3.70301801e-04 0. 1.85150901e-04 1.85150901e-04 0.
      1.85150901e-04 3.70301801e-04 1.66635809e-03 3.70301801e-04
      1.85150901e-04 9.25754488e-04 1.85150901e-04 3.70301801e-04
      3.70301801e-04 1.85150901e-04 0. 3.70301801e-04 7.40603602e-04
      1.85150901e-04 7.40603602e-04 0. 1.85150901e-04 0. 1.85150901e-04
      1.85150901e-04 0. 3.70301801e-04 0. 1.85150901e-04 3.70301801e-04
      3.70301801e-04 0. 5.55452716e-04 0. 0. 7.40603602e-04 0. 0. 0.
      9.25754488e-04 0. 2.03665998e-03 0. 9.25754488e-04 0.
      1.85150901e-04 1.85150901e-04 1.48120720e-03 3.70301801e-04
      1.85150901e-04 7.40603602e-04 1.11090543e-03 0. 3.70301801e-04
      5.55452716e-04 7.40603602e-04 7.40603602e-04 3.70301801e-04
      1.85150901e-04 7.40603602e-04 3.70301801e-04 7.40603602e-04
      1.85150901e-04 2.22181086e-03 5.55452716e-04 1.85150901e-04 0.
      3.70301801e-04 0. 0. 0. 0. 1.11090543e-03 2.40696175e-03
      3.70301801e-04 0. 1.85150901e-04 1.85150901e-04 1.11090543e-03 0.
      1.85150901e-04 7.40603602e-04 0. 1.85150901e-04 1.11090543e-03
      5.55452716e-04 3.70301801e-04 1.85150901e-04 3.70301801e-04
      1.85150901e-04 5.55452716e-04 1.85150901e-04 0. 5.55452716e-04
      3.70301801e-04 7.40603602e-04 0. 0. 1.85150901e-04 1.85150901e-04
      0. 1.85150901e-04 0. 7.40603602e-04 9.25754488e-04 0. 0. 0.
      3.70301801e-04 0. 1.85150901e-04 3.70301801e-04 0. 1.85150901e-04
      3.70301801e-04 2.03665998e-03 0. 7.40603602e-04 2.40696175e-03
      1.11090543e-03 1.85150901e-04 1.85150901e-04 0. 0. 5.55452716e-04
      1.66635809e-03 3.70301801e-04 0. 0. 0. 0. 3.70301801e-04
      4.07331996e-03 3.70301801e-04 0. 3.70301801e-04 3.70301801e-04 0.
      7.40603602e-04 1.85150901e-04 3.70301801e-04 0. 0. 9.25754488e-04
      0. 1.85150901e-04 0. 7.40603602e-04 3.70301801e-04 0. 0.
      5.55452716e-04 1.85150901e-04 2.59211264e-03 5.55452716e-04 0. 0.
      5.55452716e-04 0. 0. 7.40603602e-04 0. 3.70301801e-04
      1.85150901e-04 7.40603602e-04 0. 7.40603602e-04 1.85150901e-04
      1.85150901e-04 0. 1.85150901e-04 3.70301801e-04 0. 7.40603602e-04
      0. 1.85150901e-04 1.29605632e-03 1.85150901e-04 1.85150901e-04 0.
      1.85150901e-04 0. 0. 0. 3.70301801e-04 1.11090543e-03
      1.85150901e-04 3.70301801e-04 0. 0. 1.85150898e-03 0.
      3.70301801e-04 9.25754488e-04 0. 0. 1.29605632e-03 1.11090543e-03
      0. 1.85150901e-04 1.85150901e-04 1.29605632e-03 0. 1.66635809e-03
      3.70301801e-04 5.55452716e-04 0. 0. 1.85150901e-04 0.
      3.70301801e-04 1.85150901e-04 5.55452716e-04 1.85150901e-04
      1.85150901e-04 0. 2.03665998e-03 5.55452716e-04 0. 1.85150901e-04
      0. 3.70301801e-04 1.85150901e-04 1.29605632e-03 3.33271618e-03
      1.85150901e-04 1.85150901e-04 0. 1.85150901e-04 9.25754488e-04 0.
      0. 3.14756529e-03 1.85150901e-04 7.40603602e-04 0. 0.
      1.85150901e-04 1.85150901e-04 9.25754488e-04 0. 0. 1.85150898e-03
      1.85150901e-04 3.70301801e-04 1.85150901e-04 0. 0. 1.85150901e-04
      9.25754488e-04 0. 3.70301801e-04 1.29605632e-03 1.66635809e-03 0.
      0. 1.85150901e-04 3.70301801e-04 1.85150901e-04 2.03665998e-03
      9.25754488e-04 1.85150901e-04 3.70301801e-04 0. 0. 0. 0.
      1.85150901e-04 0. 1.85150901e-04 1.11090543e-03 2.03665998e-03
      1.11090543e-03 0. 5.55452716e-04 5.55452716e-04 1.85150901e-04 0.
      2.40696175e-03 0. 1.85150901e-04 1.85150901e-04 0. 0.
      4.07331996e-03 1.11090543e-03 2.40696175e-03 3.70301801e-04
      1.85150901e-04 0. 0. 1.85150901e-04 3.70301801e-04 3.70301801e-04
      0. 3.70301801e-04 3.70301801e-04 0. 1.85150901e-04 1.85150901e-04
      3.70301801e-04 5.55452716e-04 5.55452716e-04 0. 0. 3.70301801e-04
      3.70301801e-04 3.70301801e-04 1.85150901e-04 0. 0. 7.40603602e-04
      0. 0. 0. 0. 0. 0. 7.40603602e-04 0. 1.85150901e-04 3.70301801e-04
      7.40603602e-04 1.85150901e-04 0. 0. 0. 5.55452716e-04
      7.40603602e-04 1.85150901e-04 0. 3.14756529e-03 0. 3.70301801e-04
      1.11090543e-03 1.11090543e-03 1.85150901e-04 3.70301801e-04 0.
      5.55452716e-04 2.22181086e-03 0. 1.85150901e-04 0. 3.70301801e-04
      5.55452716e-04 1.85150901e-04 2.59211264e-03 0. 7.40603602e-04 0.
      1.85150901e-04 0. 1.85150901e-04 3.70301801e-04 0. 3.70301801e-04
      2.22181086e-03 1.85150901e-04 7.40603602e-04 0. 0. 7.40603602e-04
      1.29605632e-03 0. 1.85150901e-04 1.85150901e-04 7.40603602e-04
      1.85150901e-04 3.70301801e-04 1.85150901e-04 1.85150898e-03
      1.85150901e-04 3.70301801e-04 1.66635809e-03 1.85150901e-04
      1.85150901e-04 1.85150901e-04 0. 1.66635809e-03 3.14756529e-03 0.
      3.70301801e-04 0. 3.70301801e-04 7.40603602e-04 0. 0. 0.
      1.85150901e-04 9.25754488e-04 1.85150901e-04 1.85150901e-04
      3.70301801e-04 2.40696175e-03 1.85150898e-03 3.70301801e-04
      3.70301801e-04 0. 0. 0. 3.70301801e-04 1.85150901e-04 0.
      7.40603602e-04 0. 0. 0. 3.70301801e-04 0. 0. 0. 0. 0.
      3.70301801e-04 0. 0. 1.85150901e-04 1.85150901e-04 5.55452716e-04
      1.85150901e-04 0. 1.85150901e-04 5.55452716e-04 0. 5.55452716e-04
      5.55452716e-04 0. 9.25754488e-04 1.66635809e-03 7.40603602e-04 0.
      1.85150901e-04 1.66635809e-03 1.85150901e-04 3.70301801e-04
      5.55452716e-04 3.70301801e-04 5.55452716e-04 7.40603602e-04
      7.40603602e-04 7.40603602e-04 3.70301801e-04 1.85150901e-04
      3.70301801e-04 1.85150901e-04 9.25754488e-04 1.85150901e-04 0. 0.
      1.85150901e-04 9.25754488e-04 1.85150901e-04 3.33271618e-03 0.
      5.55452716e-04 3.70301801e-04 0. 0. 0. 1.11090543e-03
      1.85150901e-04 0. 3.70301801e-04 0. 9.25754488e-04 5.55452716e-04
      3.70301801e-04 0. 1.85150901e-04 0. 5.55452716e-04 1.85150901e-04
      1.85150898e-03 7.40603602e-04 1.85150901e-04 1.85150901e-04
      1.29605632e-03 1.66635809e-03</_>
    <_>
      2.89687130e-04 0. 1.15874852e-03 0. 1.73812278e-03 0.
      2.89687130e-04 1.15874852e-03 3.76593275e-03 5.79374260e-04
      1.73812278e-03 8.69061390e-04 8.69061390e-04 0. 2.89687130e-04
      1.15874852e-03 1.15874852e-03 5.79374260e-04 8.69061390e-04 0.
      5.79374260e-04 0. 0. 0. 0. 5.79374260e-04 0. 1.73812278e-03
      2.89687130e-04 0. 2.89687130e-04 5.79374260e-04 2.89687130e-04
      2.89687130e-04 5.50405541e-03 1.44843571e-03 2.89687130e-04
      5.79374260e-04 0. 0. 8.69061390e-04 5.79374260e-04 3.18655837e-03
      2.89687130e-04 2.89687130e-04 1.44843571e-03 5.21436846e-03
      2.60718423e-03 3.18655837e-03 0. 2.89687130e-04 2.89687130e-04
      5.50405541e-03 0. 5.79374260e-04 5.79374260e-04 8.69061390e-04
      4.63499408e-03 0. 2.89687130e-04 0. 0. 2.02780985e-03
      1.73812278e-03 0. 0. 0. 2.89687130e-04 8.69061390e-04
      5.79374260e-04 0. 0. 0. 8.69061390e-04 2.89687130e-04
      8.69061390e-04 5.79374260e-04 5.79374260e-04 2.89687130e-04
      5.79374260e-04 0. 8.69061390e-04 2.89687130e-04 2.89687130e-04 0.
      8.69061390e-04 1.15874852e-03 2.89687130e-04 5.79374260e-04
      8.69061390e-04 0. 0. 1.15874852e-03 1.15874852e-03 0. 0. 0.
      8.69061390e-04 2.89687130e-04 2.31749704e-03 5.79374260e-04 0.
      5.79374260e-04 0. 5.79374260e-04 1.44843571e-03 5.79374260e-04
      8.69061390e-04 5.79374260e-04 8.69061390e-04 8.69061390e-04
      1.44843571e-03 0. 2.89687130e-04 5.79374260e-04 1.15874852e-03
      8.69061390e-04 0. 1.15874852e-03 2.89687130e-04 8.69061390e-04
      2.89687130e-04 0. 0. 2.89687130e-04 0. 2.89687130e-04
      8.69061390e-04 0. 2.89687130e-04 5.79374260e-04 0. 5.79374260e-04
      0. 0. 1.44843571e-03 0. 1.44843571e-03 1.73812278e-03
      5.79374260e-04 5.79374260e-04 0. 8.69061390e-04 2.89687130e-04
      2.89687130e-04 0. 2.89687130e-04 0. 2.02780985e-03 2.89687130e-04
      2.89687130e-04 2.89687130e-04 0. 2.89687130e-04 0. 2.89687130e-04
      0. 0. 5.79374260e-04 5.79374260e-04 1.15874852e-03 5.79374260e-04
      1.15874852e-03 5.79374260e-04 1.15874852e-03 0. 2.89687130e-04 0.
      2.89687130e-04 2.60718423e-03 0. 0. 2.60718423e-03 1.44843571e-03
      0. 2.89687130e-04 8.69061390e-04 2.89687130e-04 0. 3.47624556e-03
      1.15874852e-03 2.89687130e-04 0. 2.89687130e-04 0. 0. 0.
      4.34530713e-03 0. 5.79374260e-04 0. 1.15874852e-03 0. 0.
      2.89687130e-04 2.89687130e-04 2.89687130e-04 0. 2.89687130e-04
      2.89687130e-04 0. 2.89687130e-04 5.79374260e-04 2.89687130e-04
      2.89687130e-04 1.15874852e-03 1.15874852e-03 0. 2.89687130e-04 0.
      1.44843571e-03 2.60718423e-03 5.79374260e-04 8.69061390e-04 0.
      5.79374260e-04 5.79374260e-04 2.89687130e-04 2.89687130e-04
      8.69061390e-04 1.15874852e-03 5.79374260e-04 2.89687130e-04
      2.89687130e-04 5.79374260e-04 0. 0. 0. 0. 5.79374260e-04 0.
      2.89687130e-04 5.79374260e-04 5.79374260e-04 0. 2.89687130e-04
      2.89687130e-04 1.44843571e-03 0. 2.89687130e-04 0. 2.89687130e-04
      2.89687130e-04 8.69061390e-04 0. 8.69061390e-04 0. 2.89687130e-04
      1.15874852e-03 8.69061390e-04 0. 0. 1.15874852e-03 5.79374260e-04
      0. 1.15874852e-03 5.79374260e-04 2.89687130e-04 1.73812278e-03 0.
      0. 0. 2.89687130e-04 5.79374260e-04 0. 5.79374260e-04
      8.69061390e-04 8.69061390e-04 8.69061390e-04 2.89687130e-04
      2.89687130e-04 2.89687130e-04 0. 5.79374260e-04 2.31749704e-03
      2.89687130e-04 5.79374260e-04 5.79374260e-04 0. 8.69061390e-04
      5.79374260e-04 0. 8.69061390e-04 0. 0. 2.89687130e-04
      2.89687130e-04 0. 0. 0. 0. 5.79374260e-04 2.89687130e-04
      5.79374260e-04 8.69061390e-04 0. 0. 1.15874852e-03 0.
      1.44843571e-03 2.89687130e-04 0. 0. 5.79374260e-04 1.44843571e-03
      2.89687130e-04 1.15874852e-03 1.21668596e-02 2.89687130e-04
      2.89687130e-04 0. 2.89687130e-04 2.89687130e-04 2.89687130e-04 0.
      5.79374260e-04 2.89687130e-04 8.69061390e-04 2.31749704e-03
      1.44843571e-03 0. 2.89687130e-04 0. 0. 0. 0. 2.89687130e-04
      1.15874852e-03 2.89687130e-04 0. 0. 0. 2.89687130e-04
      1.15874852e-03 0. 2.89687130e-04 2.89687130e-04 2.89687130e-04 0.
      0. 0. 1.15874852e-03 2.89687130e-04 0. 5.79374260e-04 0.
      2.89687130e-04 3.18655837e-03 2.89687130e-04 0. 0. 2.89687130e-04
      5.79374260e-04 8.69061390e-04 8.69061390e-04 3.76593275e-03
      8.69061390e-04 1.44843571e-03 5.79374260e-04 2.89687130e-04 0. 0.
      0. 2.89687130e-04 5.79374260e-04 0. 0. 2.89687130e-04
      2.89687130e-04 4.05561971e-03 2.89687130e-04 5.79374260e-04 0. 0.
      0. 0. 2.89687130e-04 1.73812278e-03 2.89687130e-04 1.44843571e-03
      0. 5.79374260e-04 2.89687130e-04 2.89687130e-04 0. 6.66280417e-03
      0. 5.79374260e-04 2.89687130e-04 2.89687130e-04 0. 8.69061390e-04
      0. 8.69061390e-04 2.89687130e-04 2.89687130e-04 0. 0. 0.
      8.69061390e-04 5.79374260e-04 2.89687142e-03 1.73812278e-03
      8.69061390e-04 0. 0. 2.89687130e-04 8.69061390e-04 1.44843571e-03
      0. 2.02780985e-03 0. 2.89687130e-04 8.69061390e-04 2.89687130e-04
      0. 0. 2.89687130e-04 1.15874852e-03 2.89687130e-04 2.89687130e-04
      8.69061390e-04 2.89687130e-04 0. 2.89687130e-04 5.79374260e-04
      2.89687130e-04 5.79374260e-04 0. 8.69061390e-04 0. 0.
      2.89687130e-04 5.79374260e-04 0. 0. 2.02780985e-03 2.89687130e-04
      1.15874852e-03 2.89687130e-04 0. 1.15874852e-03 0. 8.69061390e-04
      0. 8.69061390e-04 8.69061390e-04 2.89687130e-04 8.69061390e-04
      2.89687130e-04 0. 0. 1.44843571e-03 1.15874852e-03 2.89687130e-04
      0. 0. 2.89687130e-04 2.89687130e-04 0. 2.89687130e-04 0.
      2.89687130e-04 8.69061390e-04 0. 2.89687130e-04 3.47624556e-03
      2.89687130e-04 0. 0. 0. 1.15874852e-03 5.50405541e-03 0.
      2.89687130e-04 0. 1.15874852e-03 1.15874852e-03 2.89687130e-04 0.
      0. 5.79374260e-04 0. 2.89687130e-04 1.44843571e-03 2.89687130e-04
      0. 2.89687130e-04 0. 0. 2.89687130e-04 0. 0. 0. 0. 0.
      2.60718423e-03 2.89687130e-04 1.44843571e-03 5.79374260e-04
      2.89687130e-04 0. 0. 0. 5.79374260e-04 1.44843571e-03 0.
      2.89687130e-04 1.15874852e-03 5.79374260e-04 2.89687130e-04
      5.79374260e-04 8.69061390e-04 1.15874852e-03 0. 8.69061390e-04 0.
      0. 2.89687130e-04 0. 0. 0. 5.79374260e-04 2.89687130e-04
      5.79374260e-04 2.89687130e-04 2.89687130e-04 2.89687130e-04
      5.79374260e-04 0. 2.89687130e-04 0. 0. 0. 5.79374260e-04
      5.79374260e-04 2.89687130e-04 2.89687130e-04 8.69061390e-04
      2.89687130e-04 5.79374260e-04 3.76593275e-03 1.15874852e-03 0. 0.
      8.69061390e-04 0. 2.89687130e-04 0. 8.69061390e-04 8.69061390e-04
      5.79374260e-04 0. 2.89687130e-04 2.89687130e-04 5.79374260e-04 0.
      0. 4.92468104e-03 5.79374260e-04 0. 0. 3.47624556e-03 0.
      2.89687130e-04 5.79374260e-04 2.89687130e-04 1.15874852e-03
      2.89687130e-04 5.79374260e-04 5.79374260e-04 8.69061390e-04
      5.79374260e-04 8.69061390e-04 2.89687130e-04 5.79374260e-04 0.
      1.15874852e-03 0. 4.92468104e-03 5.79374260e-04 0. 0.
      5.79374260e-04 0. 0. 0. 2.89687130e-04 0. 0. 0. 5.79374260e-04 0.
      1.44843571e-03 0. 5.79374260e-04 1.73812278e-03 0. 2.89687130e-04
      5.79374260e-04 0. 0. 0. 0. 2.31749704e-03 0. 0. 2.89687130e-04 0.
      0. 5.79374260e-04 8.69061390e-04 2.89687130e-04 1.44843571e-03 0.
      0. 2.89687130e-04 5.79374260e-04 0. 2.89687130e-04 6.66280417e-03
      5.79374260e-04 0. 1.44843571e-03 2.89687130e-04 2.89687130e-04
      2.89687130e-04 2.89687130e-04 5.79374260e-04 0. 2.89687130e-04
      5.79374260e-04 1.44843571e-03 0. 2.89687130e-04 0. 0. 0. 0. 0.
      3.76593275e-03 5.79374260e-04 2.89687130e-04 5.79374260e-04
      5.79374260e-04 5.21436846e-03 5.79374260e-04 0. 2.89687130e-04 0.
      0. 0. 2.89687130e-04 0. 5.79374260e-04 0. 8.69061390e-04
      4.05561971e-03 0. 5.79374260e-04 0. 5.79374260e-04 0.
      1.44843571e-03 2.89687130e-04 5.79374260e-04 5.79374260e-04
      1.15874852e-03 8.69061390e-04 5.79374260e-04 2.89687130e-04
      5.79374260e-04 5.79374260e-04 5.79374260e-04 8.69061390e-04
      2.89687130e-04 0. 0. 5.79374260e-04 2.89687130e-04 2.89687130e-04
      2.89687130e-04 2.89687130e-04 8.69061390e-04 0. 0. 0. 0. 0.
      5.79374260e-04 0. 0. 2.89687130e-04 2.89687142e-03 8.69061390e-04
      2.89687130e-04 0. 5.79374260e-04 0. 5.79374260e-04 5.79374260e-04
      2.89687130e-04 0. 0. 0. 0. 2.89687130e-04 0. 8.69061390e-04
      8.69061390e-04 0. 2.89687130e-04 8.69061390e-04 2.89687130e-04 0.
      0. 5.79374260e-04 0. 2.89687130e-04 0. 2.89687130e-04
      2.89687130e-04 5.79374260e-04 0. 0. 2.89687130e-04 2.89687130e-04
      0. 1.44843571e-03 0. 0. 0. 0. 0. 5.79374260e-04 0. 0. 0. 0.
      1.73812278e-03 2.89687130e-04 0. 0. 0. 5.79374260e-04 0.
      4.05561971e-03 8.69061390e-04 2.89687130e-04 0. 0. 8.69061390e-04
      2.89687130e-04 1.15874852e-03 1.27462335e-02 0. 8.69061390e-04
      5.79374260e-04 1.15874852e-03 2.89687130e-04 2.89687130e-04
      2.89687130e-04 1.53534180e-02 1.15874852e-03 0. 2.89687130e-04 0.
      0. 0. 2.89687130e-04 0. 2.89687142e-03 0. 8.69061390e-04
      2.89687130e-04 5.79374260e-04 8.69061390e-04 2.89687130e-04
      5.79374260e-04 2.89687130e-04 2.89687130e-04 0. 1.15874852e-03 0.
      0. 2.89687130e-04 0. 2.89687130e-04 0. 5.79374260e-04
      8.69061390e-04 0. 0. 2.89687130e-04 0. 0. 2.89687130e-04
      2.89687130e-04 5.79374260e-04 0. 1.44843571e-03 5.79374260e-04
      2.89687130e-04 2.89687130e-04 0. 0. 0. 2.89687130e-04
      8.69061390e-04 1.15874852e-03 2.89687130e-04 2.89687130e-04
      5.79374260e-04 0. 2.89687130e-04 1.44843571e-03 2.89687130e-04
      2.89687130e-04 0. 2.89687130e-04 2.89687130e-04 0. 0. 0.
      2.89687130e-04 2.89687130e-04 0. 0. 8.69061390e-04 5.79374260e-04
      8.69061390e-04 0. 1.73812278e-03 2.89687130e-04 0. 1.44843571e-03
      0. 5.79374260e-04 2.89687130e-04 0. 1.44843571e-03 0. 0.
      1.15874852e-03 0. 2.89687130e-04 1.73812278e-03 8.69061390e-04 0.
      0. 5.79374260e-04 0. 0. 2.89687130e-04 0. 0. 0. 7.53186550e-03
      1.15874852e-03 1.15874852e-03 2.89687130e-04 0. 2.89687130e-04 0.
      5.79374260e-04 0. 5.79374260e-04 0. 2.89687130e-04 2.89687130e-04
      5.79374260e-04 0. 2.89687130e-04 2.89687130e-04 1.44843571e-03 0.
      5.79374260e-04 1.73812278e-03 2.89687130e-04 0. 1.15874852e-03 0.
      1.73812278e-03 0. 2.89687130e-04 2.89687130e-04 2.89687130e-04
      2.89687130e-04 1.15874852e-03 0. 0. 0. 8.69061390e-04 0.
      2.89687130e-04 2.89687130e-04 2.89687130e-04 0. 0. 2.89687130e-04
      0. 5.79374260e-04 2.89687130e-04 2.89687130e-04 5.79374260e-04 0.
      0. 0. 2.89687130e-04 0. 5.79374260e-04 8.69061390e-04
      8.69061390e-04 0. 0. 5.79374260e-04 2.89687130e-04 0.
      5.79374260e-04 3.18655837e-03 2.89687130e-04 0. 0. 0.
      5.79374260e-04 8.69061390e-04 5.79374260e-04 2.89687130e-04 0.
      1.15874852e-03 0. 0. 2.89687130e-04 0. 5.79374260e-04
      2.89687130e-04 2.89687130e-04 0. 8.69061390e-04 0. 0.
      8.98030121e-03 1.73812278e-03 0. 0. 2.89687130e-04 0.
      2.89687130e-04 0. 5.79374260e-04 0. 8.69061390e-04 2.89687130e-04
      0. 2.89687130e-04 0. 0. 0. 2.89687130e-04 2.89687130e-04
      2.89687130e-04 2.89687130e-04 0. 0. 2.89687130e-04 2.89687130e-04
      0. 0. 0. 0. 0. 2.89687130e-04 5.79374260e-04 0. 0. 8.69061390e-04
      0. 0. 0. 8.69061390e-04 2.89687130e-04 8.69061390e-04 0.
      8.69061390e-04 0. 2.89687130e-04 0. 0. 8.69061390e-04 0.
      3.18655837e-03 0. 5.79374260e-04 2.89687130e-04 2.89687130e-04
      4.05561971e-03 0. 2.89687130e-04 0. 0. 1.15874852e-03 0.
      2.89687130e-04 5.79374260e-04 1.15874852e-03 0. 1.15874852e-03
      2.89687130e-04 2.89687130e-04 2.89687130e-04 8.69061390e-04 0.
      2.89687130e-04 2.89687130e-04 0. 8.69061390e-04 5.79374260e-04
      5.79374260e-04 2.89687130e-04 0. 2.89687130e-04 1.15874852e-03
      5.79374260e-04 0. 5.79374260e-04 6.95249112e-03 5.79374260e-04
      2.89687130e-04 1.44843571e-03 0. 8.69061390e-04 8.69061390e-04 0.
      2.89687130e-04 0. 2.02780985e-03 5.79374260e-04 1.15874852e-03
      2.89687130e-04 0. 0. 0. 5.79374260e-04 0. 2.89687130e-04
      1.44843571e-03 0. 0. 8.69061390e-04 2.89687130e-04 2.89687130e-04
      8.69061390e-04 0. 0. 0. 8.69061390e-04 5.79374260e-04 0. 0.
      5.79374260e-04 2.89687130e-04 0. 5.79374260e-04 0. 2.89687130e-04
      2.89687130e-04 0. 8.69061390e-04 8.69061390e-04 2.31749704e-03 0.
      2.89687130e-04 5.79374260e-04 0. 5.79374260e-04 2.89687130e-04 0.
      2.89687130e-04 0. 2.89687130e-04 0. 2.89687130e-04 0.
      2.89687130e-04 2.02780985e-03 0. 0. 5.79374260e-04 0.
      5.79374260e-04 2.89687130e-04 2.89687130e-04 5.79374260e-04
      8.69061390e-04 0. 2.89687130e-04 1.73812278e-03 0. 0.
      2.89687130e-04 0. 8.69061390e-04 0. 0. 8.69061390e-04 0. 0. 0.
      2.89687130e-04 2.89687130e-04 0. 0. 8.69061390e-04 2.89687130e-04
      2.89687130e-04 2.89687130e-04 5.79374260e-04 0. 5.79374260e-04
      2.89687130e-04 0. 8.69061390e-04 1.18771726e-02 5.79374260e-04 0.
      0. 0. 3.47624556e-03 5.79374260e-04 2.89687130e-04 0. 0.
      2.89687130e-04 2.89687130e-04 2.89687130e-04 0. 2.89687130e-04 0.
      5.79374260e-04 0. 0. 0. 2.89687130e-04 0. 0. 5.79374260e-04
      5.79374260e-04 5.79374260e-04 2.89687130e-04 8.69061390e-04 0. 0.
      0. 2.89687130e-04 3.47624556e-03 2.89687130e-04 2.89687130e-04 0.
      0. 0. 0. 5.79374260e-04 0. 2.89687130e-04 0. 0. 0. 8.69061390e-04
      5.79374260e-04 0. 2.89687130e-04 0. 2.89687130e-04 0. 0. 0. 0. 0.
      8.69061390e-04 2.89687130e-04 2.89687130e-04 5.79374260e-04
      2.89687130e-04 2.89687130e-04 0. 5.79374260e-04 5.79374260e-04 0.
      0. 0. 0. 5.79374260e-04 8.69061390e-04 2.89687130e-04
      2.89687130e-04 5.79374260e-04 2.89687130e-04 0. 1.44843571e-03
      5.79374260e-04 5.79374260e-04 0. 5.79374260e-04 2.89687130e-04
      8.69061390e-04 2.89687130e-04 2.89687130e-04 0. 0. 0.
      2.89687130e-04 0. 2.89687130e-04 2.89687130e-04 5.79374260e-04 0.
      0. 0. 8.69061390e-04 0. 5.79374260e-04 0. 0. 0. 0. 2.89687130e-04
      2.89687130e-04 2.89687130e-04 5.79374260e-04 2.89687130e-04
      5.79374260e-04 0. 0. 0. 0. 1.15874852e-03 0. 2.89687130e-04
      8.69061390e-04 0. 0. 5.79374260e-04 0. 2.89687130e-04
      2.89687130e-04 5.79374260e-04 2.89687130e-04 2.89687130e-04
      2.89687130e-04 2.89687130e-04 5.79374260e-04 2.89687130e-04
      8.69061390e-04 2.89687130e-04 5.79374260e-04 1.73812278e-03
      6.66280417e-03 5.79374260e-04 0. 0. 0. 1.44843571e-03
      5.79374260e-04 0. 2.89687130e-04 8.69061390e-04 5.79374260e-04 0.
      0. 8.69061390e-04 0. 3.47624556e-03 0. 2.89687130e-04 0.
      2.89687130e-04 0. 0. 0. 1.73812278e-03 3.18655837e-03 0.
      5.79374260e-04 2.89687130e-04 2.89687130e-04 0. 2.89687130e-04 0.
      2.89687130e-04 2.02780985e-03 0. 0. 2.89687130e-04 2.89687130e-04
      2.89687130e-04 2.02780985e-03 2.89687130e-04 2.89687130e-04
      2.89687130e-04 2.89687130e-04 1.01390500e-02 0. 2.89687130e-04
      2.89687130e-04 0. 0. 0. 5.79374260e-04 0. 2.89687130e-04
      2.89687130e-04 8.69061390e-04 8.69061390e-04 0. 0. 2.89687130e-04
      0. 0. 0. 0. 0. 0. 8.69061390e-04 2.89687130e-04 0. 5.79374260e-04
      2.89687130e-04 0. 0. 5.79374260e-04 2.89687130e-04 1.15874852e-03
      8.69061390e-04 2.89687130e-04 0. 0. 0. 5.79374260e-04
      5.79374260e-04 5.79374260e-04 8.69061390e-04 0. 0. 0. 0.
      2.89687130e-04 5.79374260e-04 0. 0. 0. 8.69061390e-04
      2.89687130e-04 5.79374260e-04 2.89687130e-04 8.69061390e-04
      1.15874852e-03 5.79374260e-04 5.79374260e-04 5.79374260e-04 0.
      2.89687130e-04 5.79374260e-04 0. 2.89687130e-04 3.18655837e-03
      2.89687130e-04 2.89687130e-04 0. 5.79374260e-04 2.89687130e-04 0.
      0. 0. 0. 5.50405541e-03 8.69061390e-04 1.44843571e-03
      8.69061390e-04 0. 2.89687130e-04 2.89687130e-04 5.79374260e-04
      2.89687130e-04 0. 0. 4.63499408e-03 8.69061390e-04 0. 0. 0.
      8.69061390e-04 0. 0. 0. 2.89687130e-04 2.89687130e-04 0. 0. 0.
      1.44843571e-03 0. 5.79374260e-04 0. 0. 2.89687130e-04
      5.79374260e-04 8.69061390e-04 1.15874852e-03 0. 0. 2.89687130e-04
      0. 0. 5.79374260e-04 2.89687130e-04 5.21436846e-03 0. 0. 0.
      2.89687130e-04 1.73812278e-03 2.89687130e-04 0. 5.79374260e-04
      2.89687130e-04 5.79374260e-04 0. 8.69061390e-04 0. 2.89687130e-04
      0. 8.69061390e-04 2.89687130e-04 5.79374260e-04 2.89687130e-04 0.
      0. 8.69061390e-04 8.69061390e-04 5.79374260e-04 0. 5.79374260e-04
      0. 2.89687130e-04 0. 8.69061390e-04 0. 0. 2.89687130e-04 0.
      2.89687130e-04 2.89687130e-04 2.89687130e-04 2.89687130e-04
      2.89687130e-04 6.95249112e-03 0. 8.69061390e-04 0. 5.79374260e-04
      0. 5.79374260e-04 0. 0. 1.15874852e-03 0. 0. 5.79374260e-04 0. 0.
      5.79374260e-04 5.79374260e-04 0. 0. 0. 2.89687130e-04 0.
      5.79374260e-04 0. 0. 0. 2.89687130e-04 0. 0. 0. 2.89687130e-04
      5.79374260e-04 8.69061390e-04 5.79374260e-04 5.79374260e-04 0.
      2.89687130e-04 0. 5.79374260e-04 2.89687130e-04 5.79374260e-04
      2.89687130e-04 2.89687130e-04 2.89687130e-04 2.89687130e-04
      5.79374260e-04 0. 0. 8.69061390e-04 2.89687130e-04 0. 0.
      8.69061390e-04 0. 2.89687130e-04 2.89687130e-04 0. 2.89687130e-04
      0. 2.89687130e-04 5.79374260e-04 0. 2.89687130e-04 0.
      2.89687130e-04 2.89687130e-04 2.89687130e-04 0. 0. 2.89687130e-04
      0. 0. 2.89687130e-04 0. 2.89687130e-04 5.79374260e-04 0. 0.
      8.69061390e-04 2.02780985e-03 5.79374260e-04 0. 0. 0.
      2.89687130e-04 8.69061390e-04 0. 0. 0. 0. 2.60718423e-03 0.
      8.69061390e-04 0. 5.79374260e-04 2.89687130e-04 0. 0. 0.
      2.89687130e-04 0. 2.89687130e-04 2.89687130e-04 0. 0. 0. 0.
      5.79374260e-04 0. 0. 0. 0. 1.15874852e-03 2.89687130e-04 0. 0. 0.
      5.79374260e-04 0. 2.89687130e-04 0. 0. 5.79374260e-04
      2.89687130e-04 0. 0. 2.89687130e-04 0. 2.89687130e-04
      4.63499408e-03 5.79374260e-04 0. 2.89687130e-04 2.89687130e-04 0.
      2.89687130e-04 0. 5.79374260e-04 0. 2.89687130e-04 2.89687130e-04
      0. 5.79374260e-04 2.89687130e-04 5.79374260e-04 0. 2.89687130e-04
      0. 0. 0. 0. 2.60718423e-03 0. 5.79374260e-04 0. 2.89687130e-04
      5.79374260e-04 0. 2.89687130e-04 0. 5.79374260e-04 8.69061390e-04
      0. 1.15874852e-03 0. 0. 5.79374260e-04 0. 0. 2.02780985e-03
