<?xml version="1.0"?>
<opencv_storage>
<opencv_ml_svm>
  <format>3</format>
  <svmType>C_SVC</svmType>
  <kernel>
    <type>RBF</type>
    <gamma>5.0625000000000009e-01</gamma></kernel>
  <C>3.1250000000000000e+02</C>
  <term_criteria><epsilon>1.1920928955078125e-07</epsilon>
    <iterations>1000</iterations></term_criteria>
  <var_count>264</var_count>
  <class_count>12</class_count>
  <class_labels type_id="opencv-matrix">
    <rows>12</rows>
    <cols>1</cols>
    <dt>i</dt>
    <data>
      1 2 3 4 5 6 7 8 9 10 11 12</data></class_labels>
  <sv_total>200</sv_total>
  <support_vectors>
    <_>
      3.26323416e-03 1.84916593e-02 1.01522841e-02 3.62581573e-04
      4.71356045e-03 3.62581573e-04 6.88904990e-03 0. 3.62581573e-04
      1.08774472e-03 7.25163147e-04 0. 2.17548944e-03 1.52284261e-02
      5.87382168e-02 3.62581573e-03 1.81290787e-03 0. 3.26323416e-03
      2.13923119e-02 7.25163147e-04 6.16388675e-03 7.61421304e-03
      1.08774472e-03 0. 7.25163147e-04 2.17548944e-03 2.53807101e-03
      2.39303838e-02 7.61421304e-03 7.25163147e-04 0. 1.45032629e-03
      3.62581573e-04 4.35097888e-03 7.25163147e-04 7.25163147e-04
      5.80130517e-03 5.43872360e-03 9.42712091e-03 2.53807101e-03
      2.17548944e-03 6.16388675e-03 2.90065259e-03 3.98839731e-03
      1.81290787e-03 3.62581573e-03 3.62581573e-04 8.33937619e-03
      3.62581573e-04 3.62581573e-03 1.45032629e-03 5.07614203e-03
      1.81290787e-03 0. 7.25163147e-04 4.35097888e-03 7.25163147e-04
      7.86802024e-02 1.08774472e-03 0. 3.26323416e-03 1.08774472e-03
      1.45032629e-02 3.98839731e-03 1.81290787e-03 7.25163147e-04
      3.26323416e-03 1.34155182e-02 2.90065259e-03 3.62581573e-03
      3.62581573e-03 2.53807101e-03 1.37780998e-02 1.45032629e-03
      5.80130517e-03 3.98839731e-03 1.81290787e-03 9.06453934e-03 0.
      1.55910077e-02 4.35097888e-03 0. 3.98839731e-03 0. 7.25163147e-04
      4.35097888e-03 3.26323416e-03 4.35097888e-03 3.26323416e-03
      6.52646832e-03 8.33937619e-03 6.52646832e-03 4.35097888e-03
      2.17548944e-03 4.35097888e-03 1.45032629e-03 0. 1.08774472e-03
      3.26323416e-03 4.71356045e-03 3.26323416e-03 1.81290787e-03 0.
      1.16026103e-02 2.17548944e-03 1.01522841e-02 1.81290787e-03
      2.90065259e-03 2.17548944e-03 0. 1.81290787e-03 1.08774472e-03
      8.70195776e-03 2.17548944e-03 3.98839731e-03 3.62581573e-03
      2.17548944e-03 7.25163147e-04 4.35097888e-03 0. 0. 3.98839731e-03
      0. 0. 1.81290787e-03 1.08774472e-03 1.45032629e-03 3.62581573e-04
      5.43872360e-03 7.61421304e-03 2.17548944e-03 5.80130517e-03
      1.45032629e-03 3.62581573e-04 6.88904990e-03 2.97316890e-02
      6.52646832e-03 1.08774472e-03 2.17548944e-03 2.53807101e-03
      2.17548944e-03 7.25163147e-03 4.35097888e-03 2.17548944e-03
      4.35097888e-03 2.17548944e-03 2.53807101e-03 5.07614203e-03 0.
      3.98839731e-03 4.35097888e-03 7.25163147e-04 7.25163147e-04
      3.62581573e-04 3.62581573e-04 1.81290787e-03 3.62581573e-03
      3.98839731e-03 0. 3.26323416e-03 0. 7.61421304e-03 1.45032629e-03
      2.53807101e-03 3.26323416e-03 3.62581573e-03 0. 0. 7.25163147e-04
      3.62581573e-04 2.53807101e-03 0. 7.25163147e-04 3.62581573e-04
      3.98839731e-03 5.07614203e-03 1.45032629e-03 4.35097888e-03
      7.25163147e-04 3.62581573e-04 0. 1.08774472e-03 3.62581573e-04
      1.81290787e-03 1.08774472e-03 0. 1.45032629e-03 4.35097888e-03
      5.07614203e-03 2.17548944e-03 1.45032629e-03 3.26323416e-03
      3.62581573e-03 2.90065259e-03 2.28426382e-02 7.25163147e-04
      1.08774472e-03 5.07614203e-03 3.62581573e-04 9.78970248e-03
      1.81290787e-03 7.25163147e-04 7.25163147e-04 5.80130517e-03
      1.08774472e-03 0. 5.43872360e-03 3.98839731e-03 1.45032629e-03 0.
      4.71356045e-03 1.08774472e-03 0. 3.98839731e-03 2.53807101e-03
      6.16388675e-03 6.88904990e-03 7.25163147e-04 3.62581573e-04
      3.62581573e-04 3.62581573e-04 3.62581573e-04 2.90065259e-03 0.
      3.62581573e-04 1.08774472e-02 0. 0. 1.08774472e-03 1.81290787e-03
      4.71356045e-03 1.81290787e-03 1.08774472e-03 8.70195776e-03
      3.98839731e-03 3.98839731e-03 1.81290787e-03 2.90065259e-03
      2.53807101e-03 4.71356045e-03 2.90065259e-03 1.08774472e-03
      1.81290787e-03 3.26323416e-03 3.62581573e-03 1.81290787e-03
      2.53807101e-03 1.08774472e-03 1.08774472e-03 2.53807101e-03
      1.45032629e-03 7.25163147e-04 3.62581573e-04 1.08774472e-03
      3.62581573e-03 3.98839731e-03 0. 1.19651919e-02 3.26323416e-03
      1.45032629e-03 2.17548944e-03 2.17548944e-03 7.25163147e-04</_>
    <_>
      0. 5.62023278e-03 5.21878758e-03 3.61300679e-03 4.01445199e-03
      2.00722599e-03 7.62745878e-03 2.81011639e-03 8.02890398e-04
      3.61300679e-03 4.01445199e-04 1.20433560e-03 4.01445199e-03
      3.21156159e-03 8.02890398e-03 1.20433560e-03 8.02890398e-04
      1.32476911e-02 4.01445199e-03 7.62745878e-03 0. 1.12404656e-02
      1.04375752e-02 2.00722599e-03 1.20433560e-03 1.20433560e-03
      6.82456838e-03 8.02890398e-04 2.60939375e-02 2.81011639e-03
      1.20433560e-02 8.02890398e-04 6.02167798e-03 3.61300679e-03
      8.02890398e-04 8.02890398e-03 8.02890398e-04 6.82456838e-03
      8.02890398e-04 3.61300679e-03 2.40867119e-03 6.42312318e-03
      2.00722599e-03 4.41589719e-03 2.00722599e-03 2.81011639e-03
      3.61300679e-03 4.01445199e-04 0. 4.01445199e-03 5.62023278e-03
      2.81011639e-03 2.81011639e-03 1.60578080e-03 8.02890398e-04
      4.01445199e-04 4.01445199e-03 3.61300679e-03 1.64592527e-02
      4.01445199e-04 8.02890398e-04 3.21156159e-03 0. 5.62023278e-03
      5.62023278e-03 4.01445199e-03 2.40867119e-03 2.81011639e-03
      1.28462464e-02 4.41589719e-03 4.41589719e-03 3.21156159e-03
      2.40867119e-03 3.21156159e-03 2.81011639e-03 4.01445199e-04
      2.40867119e-03 4.41589719e-03 3.61300679e-03 0. 1.16419103e-02
      3.21156159e-03 5.21878758e-03 2.81011639e-03 0. 1.60578080e-03
      4.01445199e-03 2.40867119e-03 1.04375752e-02 2.81011639e-03
      4.01445199e-03 1.00361295e-02 8.83179437e-03 5.21878758e-03
      3.21156159e-03 2.81011639e-03 2.40867119e-03 2.81011639e-03
      8.02890398e-04 2.81011639e-03 6.42312318e-03 8.43034871e-03
      2.81011639e-03 0. 4.81734239e-03 4.81734239e-03 1.20433560e-03
      2.00722599e-03 4.01445199e-04 3.61300679e-03 5.21878758e-03
      3.21156159e-03 1.20433560e-03 4.41589719e-03 3.21156159e-03
      3.61300679e-03 3.61300679e-03 2.40867119e-03 8.02890398e-04
      2.40867119e-03 2.40867119e-03 0. 4.01445199e-03 1.20433560e-03
      3.21156159e-03 7.22601358e-03 4.81734239e-03 3.61300679e-03
      1.60578080e-03 3.61300679e-03 2.00722599e-03 1.60578080e-03
      8.43034871e-03 1.92693695e-02 4.01445199e-04 3.61300679e-03
      1.92693695e-02 6.02167798e-03 1.60578080e-03 8.02890398e-04
      3.61300679e-03 3.21156159e-03 9.63468477e-03 2.81011639e-03
      4.01445199e-04 9.63468477e-03 4.41589719e-03 1.60578080e-03 0. 0.
      4.81734239e-03 6.82456838e-03 2.81011639e-03 8.02890398e-04
      4.01445199e-04 0. 4.01445199e-04 3.61300679e-03 8.02890398e-04 0.
      0. 8.02890398e-04 9.23324004e-03 5.62023278e-03 2.00722599e-03
      1.20433560e-03 4.41589719e-03 1.60578080e-03 2.40867119e-03
      1.20433560e-03 4.01445199e-04 4.81734239e-03 8.02890398e-04
      2.81011639e-03 7.22601358e-03 1.60578080e-03 6.42312318e-03
      8.02890398e-04 2.00722599e-03 1.60578080e-03 8.02890398e-04 0.
      8.02890398e-04 0. 8.43034871e-03 4.01445199e-04 0. 2.81011639e-03
      4.81734239e-03 1.04375752e-02 1.20433560e-03 5.62023278e-03
      5.21878758e-03 3.21156159e-03 2.81011639e-03 1.40505824e-02
      4.01445199e-03 3.61300679e-03 5.62023278e-03 2.81011639e-03
      9.23324004e-03 4.01445199e-04 4.01445199e-04 2.00722599e-03
      4.01445199e-03 1.40505824e-02 1.20433560e-03 1.20433560e-03
      2.81011639e-03 1.20433560e-03 0. 8.02890398e-04 8.02890398e-04
      4.01445199e-04 6.42312318e-03 1.60578080e-03 2.40867119e-03
      3.61300679e-03 5.62023278e-03 4.01445199e-04 2.81011639e-03
      4.01445199e-04 2.40867119e-03 4.01445199e-03 0. 8.02890398e-04
      1.24448016e-02 1.60578080e-03 8.02890398e-04 6.02167798e-03
      4.01445199e-04 4.81734239e-03 6.02167798e-03 2.81011639e-03
      2.40867119e-03 4.41589719e-03 4.41589719e-03 2.00722599e-03
      4.81734239e-03 5.62023278e-03 4.01445199e-03 4.41589719e-03
      5.62023278e-03 1.28462464e-02 4.81734239e-03 7.22601358e-03
      2.00722599e-03 5.21878758e-03 5.62023278e-03 3.21156159e-03
      8.02890398e-04 2.00722599e-03 8.02890398e-04 6.02167798e-03
      4.01445199e-03 2.40867119e-03 9.23324004e-03 1.56563632e-02
      7.22601358e-03 1.20433560e-03 2.81011639e-03 2.00722599e-03
      5.21878758e-03 1.60578080e-03</_>
    <_>
      4.04721778e-03 1.61888711e-02 4.72175376e-03 0. 3.03541333e-03 0.
      7.08263088e-03 0. 0. 2.02360889e-03 1.01180444e-03 1.34907255e-03
      6.74536265e-03 1.04553122e-02 3.10286693e-02 0. 1.34907255e-03
      1.01180444e-03 4.72175376e-03 5.39629022e-03 1.01180444e-03
      1.14671169e-02 1.04553122e-02 1.34907255e-03 4.04721778e-03
      1.34907255e-03 6.74536277e-04 2.36087688e-03 5.16020246e-02
      1.38279935e-02 6.74536277e-04 3.37268139e-04 2.69814511e-03
      6.74536277e-04 2.02360889e-03 3.37268139e-04 5.05902199e-03
      5.73355844e-03 4.04721778e-03 5.05902199e-03 2.02360889e-03
      2.69814511e-03 3.03541333e-03 3.70994955e-03 3.37268133e-03
      3.70994955e-03 2.02360889e-03 2.02360889e-03 3.70994955e-03
      3.37268133e-03 1.34907255e-03 3.03541333e-03 6.74536277e-04
      3.37268133e-03 0. 4.38448600e-03 8.09443556e-03 5.05902199e-03
      3.64249572e-02 1.68634066e-03 3.37268139e-04 8.09443556e-03
      1.68634066e-03 5.39629022e-03 2.36087688e-03 1.34907255e-03 0.
      7.08263088e-03 9.44350753e-03 3.37268133e-03 2.69814511e-03
      3.70994955e-03 3.37268133e-03 5.39629022e-03 1.01180444e-03
      2.36087688e-03 6.07082667e-03 4.04721778e-03 8.43170378e-03 0.
      7.41989911e-03 2.36087688e-03 3.37268139e-04 2.69814511e-03 0.
      3.03541333e-03 2.02360889e-03 4.72175376e-03 3.37268139e-04
      1.34907255e-03 6.40809443e-03 1.01180440e-02 9.44350753e-03
      1.68634066e-03 4.72175376e-03 4.38448600e-03 3.03541333e-03 0.
      2.36087688e-03 2.02360889e-03 4.38448600e-03 7.08263088e-03
      1.34907255e-03 0. 1.18043851e-02 2.36087688e-03 7.75716733e-03
      2.02360889e-03 3.03541333e-03 3.03541333e-03 3.37268139e-04
      1.68634066e-03 3.37268133e-03 4.38448600e-03 2.02360889e-03
      2.02360889e-03 4.38448600e-03 5.73355844e-03 6.74536277e-04
      5.39629022e-03 0. 2.36087688e-03 2.36087688e-03 3.37268139e-04 0.
      2.69814511e-03 1.34907255e-03 1.34907255e-03 6.74536277e-04
      7.41989911e-03 4.72175376e-03 1.34907255e-03 8.09443556e-03
      2.02360889e-03 3.37268139e-04 7.75716733e-03 2.19224282e-02
      5.05902199e-03 3.37268139e-04 1.01180444e-03 3.37268139e-04
      1.34907255e-03 6.74536265e-03 3.37268133e-03 6.74536277e-04
      6.40809443e-03 3.03541333e-03 1.01180444e-03 4.38448600e-03 0.
      4.38448600e-03 7.41989911e-03 1.01180444e-03 1.34907255e-03
      3.37268139e-04 0. 1.68634066e-03 7.41989911e-03 4.38448600e-03 0.
      6.74536277e-04 0. 1.04553122e-02 7.08263088e-03 2.69814511e-03
      2.69814511e-03 6.40809443e-03 0. 6.74536277e-04 1.01180444e-03
      3.03541333e-03 4.72175376e-03 0. 6.74536277e-04 6.74536277e-04
      5.73355844e-03 3.03541333e-03 0. 7.41989911e-03 1.01180444e-03 0.
      0. 6.74536277e-04 2.36087688e-03 6.74536277e-04 6.74536277e-04
      3.70994955e-03 5.39629022e-03 5.73355844e-03 1.04553122e-02
      3.37268133e-03 1.68634066e-03 3.03541333e-03 4.04721778e-03
      6.40809443e-03 1.75379440e-02 6.07082667e-03 2.02360889e-03
      4.38448600e-03 5.05902199e-03 7.75716733e-03 4.72175376e-03 0.
      2.69814511e-03 5.39629022e-03 1.34907255e-03 6.74536277e-04
      2.02360889e-03 6.74536277e-04 1.01180444e-03 3.37268139e-04
      4.04721778e-03 6.74536277e-04 0. 7.08263088e-03 2.69814511e-03
      1.07925804e-02 3.03541333e-03 4.38448600e-03 6.74536277e-04 0.
      1.01180444e-03 1.01180444e-03 6.07082667e-03 3.37268133e-03
      1.34907255e-03 1.88870151e-02 3.37268139e-04 1.01180444e-03
      1.34907255e-03 3.37268139e-04 6.40809443e-03 0. 2.02360889e-03
      4.38448600e-03 2.36087688e-03 2.36087688e-03 2.02360889e-03
      2.36087688e-03 2.69814511e-03 5.05902199e-03 2.69814511e-03
      4.38448600e-03 2.36087688e-03 4.04721778e-03 6.07082667e-03
      3.37268139e-04 5.39629022e-03 6.07082667e-03 4.72175376e-03
      3.37268139e-04 3.37268133e-03 0. 0. 1.34907255e-03 6.74536265e-03
      4.38448600e-03 1.01180444e-03 8.43170378e-03 2.02360889e-03
      3.37268139e-04 6.74536277e-04 4.04721778e-03 2.69814511e-03</_>
    <_>
      2.28426396e-03 1.92893408e-02 4.82233521e-03 1.52284268e-03
      2.03045690e-03 1.01522845e-03 1.14213200e-02 1.26903551e-03
      1.01522845e-03 3.04568536e-03 3.04568536e-03 2.53807101e-03
      4.56852792e-03 1.04060918e-02 2.69035548e-02 2.79187830e-03
      7.86802080e-03 3.04568536e-03 3.04568536e-03 5.32994932e-03
      2.53807113e-04 9.64467041e-03 7.86802080e-03 5.07614226e-04
      2.53807101e-03 3.04568536e-03 3.04568536e-03 2.53807113e-04
      4.21319790e-02 3.04568536e-03 1.52284268e-03 7.61421339e-04
      4.56852792e-03 2.28426396e-03 2.03045690e-03 5.07614226e-04 0.
      3.29949241e-03 1.39593910e-02 7.61421339e-04 7.61421339e-04
      7.10659940e-03 1.26903551e-03 4.06091381e-03 7.36040622e-03
      1.52284268e-03 7.61421339e-04 2.53807113e-04 1.52284268e-03
      1.26903551e-03 1.77664985e-03 7.61421339e-04 8.88324901e-03
      3.80710675e-03 5.07614226e-04 7.61421339e-04 3.29949241e-03
      6.09137071e-03 4.39086296e-02 1.26903551e-03 0. 2.79187830e-03
      3.04568536e-03 4.82233521e-03 5.07614226e-04 1.01522845e-03
      5.07614203e-03 6.34517800e-03 1.21827414e-02 5.32994932e-03
      2.79187830e-03 4.31472110e-03 5.83756343e-03 4.82233521e-03
      1.80203058e-02 3.80710675e-03 1.77664985e-03 1.01522845e-03
      7.10659940e-03 0. 4.06091381e-03 3.80710675e-03 1.26903551e-03
      3.55329970e-03 2.53807113e-04 5.07614226e-04 2.03045690e-03
      2.53807101e-03 3.04568536e-03 1.01522845e-03 6.59898482e-03
      7.86802080e-03 1.52284268e-03 5.83756343e-03 1.01522845e-03
      2.28426396e-03 1.01522845e-03 2.79187830e-03 0. 2.28426396e-03
      4.56852792e-03 5.58375660e-03 2.53807101e-03 0. 6.09137071e-03
      1.52284268e-03 3.04568536e-03 1.52284268e-03 1.52284268e-03
      2.03045690e-03 1.01522845e-03 8.37563444e-03 2.03045690e-03
      5.07614203e-03 2.79187830e-03 2.03045690e-03 5.32994932e-03
      5.07614226e-04 1.77664985e-03 8.12182762e-03 2.28426396e-03 0.
      2.79187830e-03 7.61421339e-04 1.01522845e-03 2.79187830e-03
      2.79187830e-03 6.34517800e-03 2.53807101e-03 5.07614203e-03
      5.58375660e-03 2.53807101e-03 1.19289346e-02 6.34517800e-03
      1.26903551e-03 5.07614203e-03 1.16751269e-02 8.37563444e-03
      3.55329970e-03 2.79187830e-03 2.03045690e-03 3.80710675e-03
      1.06598986e-02 3.55329970e-03 2.03045690e-03 5.32994932e-03
      2.79187830e-03 1.77664985e-03 3.04568536e-03 2.53807113e-04
      1.52284268e-03 6.34517800e-03 3.55329970e-03 1.01522845e-03
      5.07614226e-04 5.07614226e-04 2.53807113e-04 4.06091381e-03
      7.36040622e-03 0. 5.07614226e-04 0. 1.26903560e-02 2.53807101e-03
      3.80710675e-03 5.07614226e-04 3.55329970e-03 2.53807113e-04
      2.28426396e-03 4.82233521e-03 3.80710675e-03 2.33502537e-02
      1.01522845e-03 1.01522845e-03 3.55329970e-03 2.53807101e-03
      7.36040622e-03 5.07614226e-04 2.28426396e-03 1.26903551e-03
      1.26903551e-03 1.52284268e-03 1.77664985e-03 4.56852792e-03
      5.58375660e-03 1.01522845e-03 2.03045690e-03 3.29949241e-03
      6.09137071e-03 7.36040622e-03 2.79187830e-03 1.77664985e-03
      6.09137071e-03 1.77664985e-03 4.06091381e-03 1.24365482e-02
      3.04568536e-03 1.77664985e-03 4.56852792e-03 1.06598986e-02
      4.82233521e-03 5.07614226e-04 1.26903551e-03 1.26903551e-03
      3.80710675e-03 2.28426396e-03 5.07614226e-04 2.79187830e-03
      2.79187830e-03 2.03045690e-03 2.53807113e-04 1.52284268e-03
      1.01522845e-03 5.07614226e-04 3.55329970e-03 2.28426396e-03
      1.26903551e-03 7.61421339e-04 6.85279211e-03 7.61421339e-04
      2.53807113e-04 1.01522845e-03 2.53807101e-03 3.55329970e-03
      1.01522845e-03 5.07614226e-04 9.64467041e-03 5.07614226e-04
      1.26903551e-03 2.03045690e-03 3.29949241e-03 5.32994932e-03
      1.01522845e-03 2.03045690e-03 4.06091381e-03 3.29949241e-03
      1.01522845e-03 2.28426396e-03 2.03045690e-03 2.28426396e-03
      4.31472110e-03 3.55329970e-03 4.06091381e-03 3.80710675e-03
      4.06091381e-03 6.34517800e-03 2.79187830e-03 3.80710675e-03
      3.80710675e-03 1.52284268e-03 3.29949241e-03 3.80710675e-03
      1.26903551e-03 2.28426396e-03 4.06091381e-03 1.77664985e-03
      2.03045690e-03 5.32994932e-03 4.06091381e-03 7.61421339e-04
      2.28426396e-03 2.79187830e-03 3.55329970e-03 2.03045690e-03</_>
    <_>
      9.10332252e-04 1.38825672e-02 7.05507491e-03 2.95857992e-03
      6.82749203e-04 4.55166126e-04 1.52480649e-02 1.06964037e-02
      5.91715984e-03 5.46199363e-03 3.86891211e-03 1.59308140e-03
      3.41374590e-03 6.37232559e-03 7.96540733e-03 2.50341371e-03
      3.86891211e-03 1.20619023e-02 1.36549841e-03 2.50341371e-03
      9.10332252e-04 1.75238959e-02 6.14474248e-03 1.82066450e-03
      3.64132901e-03 9.10332252e-04 3.18616279e-03 2.27583063e-04
      1.82066450e-03 3.86891211e-03 3.18616279e-03 2.73099681e-03
      3.86891211e-03 5.91715984e-03 1.82066450e-03 6.14474248e-03
      9.10332252e-04 2.04824749e-03 6.14474248e-03 4.32407809e-03
      4.55166120e-03 4.55166120e-03 2.50341371e-03 4.09649499e-03
      9.55848861e-03 4.55166126e-04 1.59308140e-03 1.59308140e-03
      6.14474248e-03 2.50341371e-03 2.27583060e-03 3.18616279e-03
      3.11788805e-02 4.77924431e-03 1.36549841e-03 3.18616279e-03
      6.82749203e-04 7.73782423e-03 1.66135635e-02 3.18616279e-03
      4.55166126e-04 9.10332252e-04 2.27583060e-03 6.59990869e-03
      9.10332252e-04 3.18616279e-03 1.02412375e-02 1.13791530e-03
      9.33090597e-03 2.50341371e-03 2.95857992e-03 4.32407809e-03
      5.00682741e-03 5.23441052e-03 1.61583982e-02 1.82066450e-03
      3.41374590e-03 2.73099681e-03 2.50341371e-03 2.27583063e-04
      4.77924431e-03 7.96540733e-03 1.00136548e-02 5.68957673e-03
      1.59308140e-03 2.04824749e-03 3.64132901e-03 3.18616279e-03
      3.18616279e-03 3.86891211e-03 3.64132901e-03 4.32407809e-03
      3.41374590e-03 1.31998174e-02 2.27583060e-03 9.10332252e-04
      2.50341371e-03 8.42057355e-03 2.27583060e-03 1.59308140e-03
      2.27583060e-03 5.23441052e-03 3.41374590e-03 2.27583063e-04
      4.09649499e-03 2.27583063e-04 3.64132901e-03 6.82749203e-04
      2.73099681e-03 1.59308140e-03 4.32407809e-03 7.51024112e-03
      1.82066450e-03 3.18616279e-03 2.04824749e-03 4.09649499e-03
      3.86891211e-03 6.82749203e-04 5.68957673e-03 3.41374590e-03
      2.50341371e-03 1.13791530e-03 2.50341371e-03 2.50341371e-03
      2.73099681e-03 2.73099681e-03 5.00682741e-03 6.59990869e-03
      5.46199363e-03 4.09649499e-03 1.59308140e-03 1.82066450e-03
      4.77924431e-03 8.87573976e-03 9.10332252e-04 3.41374590e-03
      6.37232559e-03 1.11515699e-02 3.64132901e-03 1.36549841e-03
      1.36549841e-03 2.50341371e-03 5.23441052e-03 2.73099681e-03
      9.10332252e-04 3.18616279e-03 3.86891211e-03 2.50341371e-03
      2.27583060e-03 4.55166126e-04 2.95857992e-03 2.95857992e-03
      6.82749180e-03 9.10332252e-04 2.27583060e-03 0. 4.55166126e-04
      3.64132901e-03 6.14474248e-03 0. 1.59308140e-03 4.55166126e-04
      1.09239873e-02 1.13791530e-03 4.32407809e-03 1.59308140e-03
      7.05507491e-03 2.27583063e-04 9.10332252e-04 4.09649499e-03
      2.04824749e-03 3.18616279e-03 9.10332252e-04 7.51024112e-03
      6.37232559e-03 4.32407809e-03 3.18616279e-03 1.82066450e-03
      1.36549841e-03 3.41374590e-03 2.73099681e-03 1.82066450e-03
      5.00682741e-03 1.13791530e-03 3.41374590e-03 2.27583063e-04
      2.50341371e-03 4.77924431e-03 2.27583060e-03 5.23441052e-03
      1.59308140e-03 1.59308140e-03 2.50341371e-03 6.82749203e-04
      2.27583060e-03 5.68957673e-03 2.50341371e-03 6.82749203e-04
      5.68957673e-03 7.05507491e-03 6.82749180e-03 4.55166126e-04
      2.04824749e-03 2.95857992e-03 1.82066450e-03 2.73099681e-03
      1.13791530e-03 1.82066450e-03 2.95857992e-03 0. 1.13791530e-03
      1.59308140e-03 2.27583060e-03 2.27583063e-04 6.59990869e-03
      6.59990869e-03 4.55166126e-04 3.41374590e-03 5.00682741e-03
      1.36549841e-03 6.37232559e-03 6.82749203e-04 5.91715984e-03
      2.95857992e-03 1.82066450e-03 1.13791530e-03 5.46199363e-03
      6.82749203e-04 1.13791530e-03 1.13791530e-03 1.59308147e-02
      3.18616279e-03 1.59308140e-03 2.27583060e-03 8.19298998e-03
      1.36549841e-03 1.59308140e-03 6.59990869e-03 1.59308140e-03
      2.73099681e-03 3.64132901e-03 5.00682741e-03 2.04824749e-03
      2.04824749e-03 7.73782423e-03 1.36549841e-03 3.41374590e-03
      5.00682741e-03 6.37232559e-03 4.32407809e-03 2.27583060e-03
      9.10332252e-04 5.46199363e-03 6.14474248e-03 1.13791530e-03
      1.59308140e-03 3.64132901e-03 5.68957673e-03 5.23441052e-03
      2.27583060e-03 6.82749203e-04 6.82749180e-03 3.41374590e-03
      4.77924431e-03</_>
    <_>
      2.49563251e-03 2.09633131e-02 3.74344876e-03 4.24257526e-03
      1.99650601e-03 9.98253003e-04 1.07312202e-02 9.48340353e-03
      3.74344876e-03 2.24606926e-03 1.24781625e-03 7.48689752e-04
      2.99475901e-03 7.48689752e-03 2.42076349e-02 9.98253003e-04
      4.99126501e-03 1.17294732e-02 3.99301201e-03 4.74170176e-03
      4.99126501e-04 6.98777102e-03 5.98951802e-03 1.24781625e-03
      2.74519576e-03 7.48689752e-04 6.48864452e-03 7.48689752e-04
      3.49388570e-02 1.49737950e-03 6.48864452e-03 4.99126501e-04
      2.49563251e-03 4.74170176e-03 1.74694275e-03 4.99126501e-03
      2.49563251e-04 3.49388551e-03 8.48515052e-03 1.24781625e-03
      1.99650601e-03 2.74519576e-03 3.24432226e-03 4.24257526e-03
      5.98951802e-03 7.48689752e-04 9.98253003e-04 0. 2.49563251e-03
      2.49563251e-04 1.24781625e-03 2.74519576e-03 2.52058879e-02
      2.49563251e-03 7.48689752e-04 2.99475901e-03 9.98253003e-04
      1.74694275e-03 3.64362337e-02 3.74344876e-03 1.99650601e-03
      2.74519576e-03 2.99475901e-03 5.73995477e-03 1.74694275e-03
      2.74519576e-03 4.99126501e-03 3.24432226e-03 9.23383981e-03
      2.74519576e-03 4.99126501e-04 4.74170176e-03 1.04816565e-02
      6.98777102e-03 2.74519576e-03 1.24781625e-03 1.99650601e-03
      4.99126501e-04 4.24257526e-03 0. 7.23733427e-03 3.49388551e-03
      7.73646077e-03 4.49213851e-03 4.49213851e-03 1.99650601e-03
      2.99475901e-03 2.49563251e-03 9.98253003e-04 2.99475901e-03
      3.24432226e-03 6.73820777e-03 4.49213851e-03 8.73471424e-03
      1.24781625e-03 2.74519576e-03 9.98253003e-04 5.24082826e-03
      9.98253003e-04 3.99301201e-03 3.99301201e-03 3.49388551e-03
      2.99475901e-03 0. 5.49039152e-03 1.24781625e-03 2.49563251e-03
      7.48689752e-04 1.49737950e-03 1.74694275e-03 5.49039152e-03
      9.23383981e-03 3.74344876e-03 2.74519576e-03 2.74519576e-03
      5.24082826e-03 4.24257526e-03 7.48689752e-04 2.49563251e-03
      6.48864452e-03 1.99650601e-03 4.99126501e-04 2.74519576e-03
      2.24606926e-03 1.49737950e-03 1.49737950e-03 5.73995477e-03
      6.98777102e-03 4.99126501e-03 3.24432226e-03 5.24082826e-03
      1.24781625e-03 3.49388551e-03 1.07312202e-02 4.99126501e-04
      3.49388551e-03 2.02146228e-02 6.48864452e-03 1.24781625e-03
      1.99650601e-03 1.24781625e-03 1.74694275e-03 3.24432226e-03
      2.24606926e-03 1.24781625e-03 3.24432226e-03 3.74344876e-03
      1.24781625e-03 2.49563251e-03 1.49737950e-03 4.74170176e-03
      5.73995477e-03 3.24432226e-03 2.49563251e-04 1.49737950e-03 0.
      1.49737950e-03 5.49039152e-03 2.99475901e-03 2.49563251e-04
      1.24781625e-03 7.48689752e-04 8.98427702e-03 1.74694275e-03
      2.99475901e-03 7.48689752e-04 4.24257526e-03 9.98253003e-04
      7.48689752e-04 4.74170176e-03 3.49388551e-03 3.99301201e-03
      4.99126501e-04 2.49563251e-03 3.49388551e-03 6.73820777e-03
      9.23383981e-03 1.99650601e-03 3.74344876e-03 1.49737950e-03
      1.74694275e-03 4.49213851e-03 5.24082826e-03 0. 3.24432226e-03
      2.49563251e-04 1.99650601e-03 2.74519576e-03 3.49388551e-03
      6.23908127e-03 1.74694275e-03 2.24606926e-03 5.24082826e-03
      3.74344876e-03 1.49737950e-03 1.02320928e-02 1.24781625e-03
      1.49737950e-03 2.49563251e-03 3.24432226e-03 3.24432226e-03
      2.49563251e-04 1.24781625e-03 2.49563251e-03 2.74519576e-03
      4.24257526e-03 7.48689752e-04 1.49737950e-03 2.99475901e-03 0. 0.
      2.74519576e-03 2.49563251e-03 0. 4.49213851e-03 3.74344876e-03
      2.74519576e-03 8.98427702e-03 3.49388551e-03 0. 4.24257526e-03
      2.49563251e-04 3.99301201e-03 2.74519576e-03 2.49563251e-04
      2.49563251e-03 7.48689752e-03 7.48689752e-04 2.99475901e-03
      1.49737950e-03 1.37259793e-02 2.24606926e-03 4.74170176e-03
      7.48689752e-04 7.23733427e-03 3.74344876e-03 2.49563251e-03
      1.99650601e-03 2.49563251e-03 3.49388551e-03 3.74344876e-03
      2.49563251e-03 1.74694275e-03 4.24257526e-03 9.73296724e-03
      5.24082826e-03 2.74519576e-03 2.99475901e-03 6.48864452e-03
      3.49388551e-03 2.49563251e-03 4.74170176e-03 9.73296724e-03
      3.49388551e-03 1.74694275e-03 9.98253003e-04 4.49213851e-03
      1.99650601e-03 2.49563251e-03 1.49737950e-03 0. 1.24781625e-03
      2.49563251e-03 3.99301201e-03</_>
    <_>
      6.33914431e-04 1.93343908e-02 6.33914443e-03 3.16957216e-04
      2.53565772e-03 1.26782886e-03 1.20443739e-02 1.58478611e-03 0.
      4.12044395e-03 2.21870048e-03 1.58478611e-03 5.38827246e-03
      1.45800319e-02 2.34548338e-02 3.16957221e-03 7.29001593e-03 0.
      2.85261497e-03 6.02218695e-03 3.16957216e-04 6.97305892e-03
      6.02218695e-03 9.50871618e-04 4.75435844e-03 4.12044395e-03
      1.58478611e-03 0. 4.97622825e-02 1.26782886e-03 1.90174324e-03 0.
      1.58478611e-03 1.26782886e-03 1.58478611e-03 1.90174324e-03
      3.16957216e-04 2.85261497e-03 9.50871687e-03 2.21870048e-03
      2.21870048e-03 5.70522994e-03 1.26782886e-03 3.16957221e-03
      6.33914443e-03 1.90174324e-03 6.33914431e-04 0. 4.43740096e-03
      6.33914431e-04 2.85261497e-03 9.50871618e-04 7.29001593e-03
      5.38827246e-03 2.53565772e-03 0. 2.21870048e-03 3.16957221e-03
      4.27892245e-02 9.50871618e-04 6.33914431e-04 4.12044395e-03
      1.58478611e-03 1.90174324e-03 1.26782886e-03 3.48652946e-03
      3.16957216e-04 5.38827246e-03 1.10935029e-02 2.85261497e-03
      1.90174324e-03 6.33914443e-03 6.02218695e-03 6.33914443e-03
      1.26782886e-03 4.43740096e-03 5.07131545e-03 2.85261497e-03
      7.92392995e-03 0. 9.82567389e-03 8.55784491e-03 2.21870048e-03
      3.48652946e-03 9.50871618e-04 9.50871618e-04 1.58478611e-03
      3.48652946e-03 9.50871618e-04 1.58478611e-03 5.70522994e-03
      8.55784491e-03 5.70522994e-03 1.71156898e-02 2.53565772e-03
      2.21870048e-03 3.16957216e-04 2.21870048e-03 1.26782886e-03
      3.80348647e-03 5.07131545e-03 7.29001593e-03 1.26782886e-03 0.
      7.92392995e-03 1.26782886e-03 2.85261497e-03 1.26782886e-03
      2.21870048e-03 4.43740096e-03 1.26782886e-03 8.24088790e-03
      1.90174324e-03 6.02218695e-03 3.16957221e-03 4.43740096e-03
      5.38827246e-03 6.33914431e-04 1.26782886e-03 6.33914443e-03
      3.16957216e-04 0. 2.21870048e-03 9.50871618e-04 6.33914431e-04
      2.85261497e-03 2.85261497e-03 1.04595879e-02 9.50871618e-04
      8.87480192e-03 6.33914443e-03 2.21870048e-03 7.60697294e-03
      1.58478611e-03 3.16957216e-04 4.75435844e-03 3.13787647e-02
      1.20443739e-02 1.58478611e-03 6.33914443e-03 9.50871618e-04
      1.58478611e-03 1.10935029e-02 6.33914431e-04 1.90174324e-03
      4.12044395e-03 2.85261497e-03 9.50871618e-04 2.85261497e-03 0.
      1.90174324e-03 7.60697294e-03 1.26782886e-03 1.26782886e-03
      1.90174324e-03 6.33914431e-04 6.33914431e-04 4.43740096e-03
      4.43740096e-03 0. 1.26782886e-03 3.16957216e-04 8.87480192e-03
      3.80348647e-03 1.90174324e-03 6.33914431e-04 3.16957221e-03 0.
      1.58478611e-03 2.21870048e-03 3.80348647e-03 3.16957221e-03
      6.33914431e-04 9.50871618e-04 9.50871618e-04 1.58478611e-03
      3.48652946e-03 9.50871618e-04 4.43740096e-03 9.50871618e-04 0.
      9.50871618e-04 1.26782886e-03 4.12044395e-03 4.75435844e-03
      9.50871618e-04 1.90174324e-03 2.85261497e-03 8.55784491e-03
      8.87480192e-03 4.12044395e-03 3.48652946e-03 4.12044395e-03
      3.16957216e-04 1.58478611e-03 1.48969889e-02 1.58478611e-03
      4.43740096e-03 1.58478611e-03 5.38827246e-03 7.29001593e-03
      3.16957216e-04 1.90174324e-03 5.70522994e-03 4.75435844e-03
      3.80348647e-03 1.58478611e-03 1.58478611e-03 1.58478611e-03
      3.16957216e-04 0. 1.90174324e-03 1.58478611e-03 6.33914431e-04
      4.75435844e-03 6.33914431e-04 2.53565772e-03 3.80348647e-03
      9.82567389e-03 9.50871618e-04 6.33914431e-04 6.33914431e-04
      2.53565772e-03 3.16957221e-03 0. 9.50871618e-04 1.01426309e-02
      3.16957216e-04 6.33914431e-04 1.58478611e-03 2.53565772e-03
      4.43740096e-03 6.33914431e-04 3.16957216e-04 3.48652946e-03
      5.07131545e-03 2.21870048e-03 1.58478611e-03 4.12044395e-03
      3.16957221e-03 4.43740096e-03 5.07131545e-03 1.58478611e-03
      2.85261497e-03 5.70522994e-03 6.02218695e-03 5.38827246e-03
      4.75435844e-03 7.29001593e-03 9.50871618e-04 5.07131545e-03
      1.90174324e-03 6.33914431e-04 6.33914431e-04 3.80348647e-03
      2.53565772e-03 3.16957221e-03 3.80348647e-03 4.43740096e-03
      2.21870048e-03 9.50871618e-04 3.16957221e-03 4.43740096e-03
      1.58478611e-03</_>
    <_>
      1.35869556e-03 1.44021735e-02 6.24999963e-03 1.63043477e-03
      2.98913033e-03 1.35869556e-03 1.84782594e-02 2.71739112e-03
      1.90217386e-03 2.44565215e-03 8.15217383e-04 1.35869556e-03
      3.80434771e-03 9.51086916e-03 1.11413039e-02 3.80434771e-03
      6.24999963e-03 2.98913033e-03 1.35869556e-03 3.26086953e-03
      1.08695647e-03 1.82065200e-02 8.96739122e-03 1.90217386e-03
      6.52173907e-03 1.63043477e-03 2.98913033e-03 2.71739118e-04
      2.44565215e-03 3.53260851e-03 1.90217386e-03 5.43478236e-04
      2.98913033e-03 5.16304327e-03 1.08695647e-03 2.44565215e-03
      2.71739118e-04 3.80434771e-03 1.16847819e-02 8.15217383e-04
      3.26086953e-03 8.15217383e-03 1.90217386e-03 3.80434771e-03
      7.33695598e-03 2.17391294e-03 2.44565215e-03 5.43478236e-04
      7.06521701e-03 1.90217386e-03 2.98913033e-03 1.35869556e-03
      1.27717387e-02 7.33695598e-03 1.35869556e-03 4.07608692e-03
      5.43478236e-04 1.16847819e-02 3.12499981e-02 1.35869556e-03
      8.15217383e-04 0. 2.71739112e-03 5.16304327e-03 1.08695647e-03
      2.44565215e-03 3.53260851e-03 2.17391294e-03 1.22282607e-02
      5.16304327e-03 1.90217386e-03 8.42391234e-03 4.34782589e-03
      2.17391294e-03 2.96195634e-02 2.44565215e-03 2.98913033e-03
      8.15217383e-04 2.98913033e-03 0. 2.98913033e-03 8.15217383e-03
      1.90217386e-03 2.98913033e-03 2.44565215e-03 1.35869556e-03
      2.44565215e-03 1.63043477e-03 3.80434771e-03 3.26086953e-03
      5.43478224e-03 8.42391234e-03 8.42391234e-03 1.46739120e-02
      2.17391294e-03 2.98913033e-03 8.15217383e-04 4.89130430e-03
      1.63043477e-03 1.63043477e-03 3.53260851e-03 5.43478224e-03
      3.53260851e-03 0. 5.16304327e-03 1.35869556e-03 4.89130430e-03
      1.63043477e-03 3.80434771e-03 1.08695647e-03 1.90217386e-03
      8.15217383e-03 1.35869556e-03 3.26086953e-03 2.44565215e-03
      4.61956486e-03 4.89130430e-03 2.71739118e-04 4.07608692e-03
      9.23912972e-03 1.90217386e-03 0. 2.44565215e-03 1.63043477e-03
      2.44565215e-03 4.07608692e-03 2.44565215e-03 6.24999963e-03
      5.43478224e-03 3.26086953e-03 2.71739112e-03 2.71739112e-03
      3.53260851e-03 3.26086953e-03 2.71739118e-04 4.34782589e-03
      5.43478224e-03 1.33152166e-02 4.07608692e-03 2.71739112e-03
      8.15217383e-04 3.26086953e-03 1.38586946e-02 3.26086953e-03
      8.15217383e-04 2.98913033e-03 2.44565215e-03 3.53260851e-03
      4.89130430e-03 2.71739118e-04 1.90217386e-03 7.60869542e-03
      3.80434771e-03 1.08695647e-03 1.08695647e-03 0. 8.15217383e-04
      3.53260851e-03 4.89130430e-03 0. 1.08695647e-03 5.43478236e-04
      1.08695645e-02 1.08695647e-03 2.98913033e-03 8.15217383e-04
      5.70652168e-03 0. 8.15217383e-04 2.98913033e-03 2.44565215e-03
      1.54891293e-02 2.71739118e-04 3.53260851e-03 3.80434771e-03
      1.63043477e-03 2.44565215e-03 8.15217383e-04 2.17391294e-03
      5.16304327e-03 1.90217386e-03 2.17391294e-03 2.44565215e-03
      2.71739112e-03 2.71739112e-03 1.08695647e-03 1.63043477e-03
      3.53260851e-03 4.07608692e-03 8.96739122e-03 3.26086953e-03
      2.44565215e-03 4.61956486e-03 1.08695647e-03 3.26086953e-03
      3.80434771e-03 5.43478236e-04 1.63043477e-03 6.79347804e-03
      6.24999963e-03 7.06521701e-03 0. 6.52173907e-03 1.63043477e-03
      2.98913033e-03 1.35869556e-03 5.43478236e-04 8.15217383e-04
      2.71739112e-03 8.15217383e-04 2.71739118e-04 2.17391294e-03
      1.63043477e-03 0. 5.70652168e-03 6.24999963e-03 3.80434771e-03
      4.07608692e-03 9.51086916e-03 5.43478236e-04 3.26086953e-03
      1.08695647e-03 6.52173907e-03 2.17391294e-03 5.43478236e-04
      1.08695647e-03 8.42391234e-03 5.43478236e-04 1.08695647e-03
      5.43478236e-04 4.61956486e-03 5.16304327e-03 1.63043477e-03
      1.08695647e-03 7.88043439e-03 3.26086953e-03 1.90217386e-03
      4.07608692e-03 1.90217386e-03 3.53260851e-03 4.34782589e-03
      4.34782589e-03 1.63043477e-03 4.07608692e-03 6.79347804e-03
      6.52173907e-03 4.89130430e-03 3.80434771e-03 7.88043439e-03
      4.07608692e-03 3.53260851e-03 1.08695647e-03 2.71739118e-04
      8.15217383e-04 2.17391294e-03 2.71739112e-03 2.98913033e-03
      3.26086953e-03 5.43478224e-03 1.35869556e-03 8.15217383e-04
      6.24999963e-03 4.07608692e-03 2.17391294e-03</_>
    <_>
      5.48998069e-04 1.75679382e-02 2.33324175e-03 1.78424374e-03
      1.78424374e-03 2.74499040e-03 7.68597284e-03 8.37222021e-03
      1.23524563e-02 8.09772126e-03 2.47049122e-03 1.09799614e-03
      1.64699415e-03 3.70573695e-03 2.08619274e-02 1.23524561e-03
      2.33324175e-03 7.41147390e-03 1.23524561e-03 3.01948935e-03
      9.60746605e-04 2.19599227e-03 1.64699415e-03 1.60581935e-02
      1.50974467e-03 2.05874280e-03 8.23497074e-04 2.74499034e-04
      2.51166616e-02 1.92149321e-03 3.56848747e-03 2.88223987e-03
      2.47049122e-03 1.09799616e-02 1.23524561e-03 5.21548185e-03
      6.86247600e-04 2.88223987e-03 1.01564638e-02 3.43123800e-03
      4.94098244e-03 3.70573695e-03 2.47049122e-03 1.50974467e-03
      3.56848747e-03 3.70573695e-03 6.86247600e-04 0. 1.09799614e-03
      1.15289595e-02 1.50974467e-03 8.23497074e-04 7.54872337e-03
      1.09799614e-03 9.60746605e-04 1.37249520e-03 1.37249520e-03
      2.47049122e-03 1.99011806e-02 1.18034584e-02 6.86247600e-04
      6.86247600e-04 5.48998069e-04 7.41147390e-03 9.60746605e-04
      2.88223987e-03 1.33132031e-02 6.86247600e-04 5.07823192e-03
      1.23524561e-03 1.50974467e-03 2.05874280e-03 1.09799614e-03
      2.19599227e-03 6.86247600e-04 1.64699415e-03 9.60746605e-04
      6.86247600e-04 3.01948935e-03 9.60746605e-04 2.47049122e-03
      6.72522653e-03 6.72522653e-03 7.54872337e-03 1.64699415e-03
      1.64699415e-03 1.78424374e-03 1.92149321e-03 2.60774093e-03
      1.23524563e-02 3.56848747e-03 1.64699415e-03 2.05874280e-03
      6.17622817e-03 3.29398829e-03 2.33324175e-03 1.78424374e-03
      1.88031830e-02 1.64699415e-03 1.23524561e-03 1.23524561e-03
      1.92149321e-03 1.37249520e-03 1.37249517e-04 2.74499040e-03
      6.86247600e-04 2.05874280e-03 9.60746605e-04 5.48998069e-04
      1.64699415e-03 6.17622817e-03 1.64699415e-03 8.23497074e-04
      1.37249520e-03 1.78424374e-03 6.72522653e-03 1.64699415e-03
      5.48998069e-04 9.60746605e-04 5.48998080e-03 2.31951680e-02
      4.11748537e-04 5.48998069e-04 4.39198455e-03 3.15673882e-03
      9.60746605e-04 5.90172922e-03 1.92149321e-03 1.34504531e-02
      4.52923402e-03 1.64699415e-03 1.09799614e-03 4.80373297e-03
      1.02937138e-02 1.37249520e-03 2.47049122e-03 1.61954425e-02
      4.66648350e-03 1.50974467e-03 4.66648350e-03 1.09799614e-03
      8.23497120e-03 2.88223987e-03 1.37249520e-03 1.37249520e-03
      1.19407084e-02 2.88223987e-03 9.60746605e-04 2.60774093e-03
      2.74499040e-03 2.33324175e-03 2.33324175e-03 1.37249520e-03
      6.86247600e-04 2.74499034e-04 5.48998069e-04 5.48998069e-04
      1.37249520e-03 3.43123800e-03 0. 4.94098244e-03 2.74499034e-04
      3.98023613e-03 1.50974467e-03 1.50974467e-02 9.60746605e-04
      4.66648350e-03 1.50974467e-03 5.48998069e-04 4.80373297e-03
      1.37249520e-03 1.09799614e-03 1.37249517e-04 2.27834191e-02
      2.71754041e-02 2.88223987e-03 5.21548185e-03 1.09799614e-03
      2.88223987e-03 5.76447975e-03 1.41367000e-02 9.60746605e-04
      1.50974467e-02 9.60746605e-04 1.78424374e-03 6.86247600e-04
      8.23497074e-04 3.01948935e-03 2.05874280e-03 2.88223987e-03
      8.23497074e-04 1.37249520e-03 3.29398829e-03 2.33324175e-03
      1.09799614e-03 7.68597284e-03 8.23497074e-04 2.05874280e-03
      1.37249520e-03 2.74499040e-03 2.47049122e-03 6.86247600e-04
      1.23524561e-03 1.64699415e-03 1.92149321e-03 2.47049122e-03
      6.86247600e-04 2.74499034e-04 1.37249520e-03 0. 1.37249517e-04
      9.60746605e-04 8.23497074e-04 5.48998069e-04 1.78424374e-03
      4.80373297e-03 3.70573695e-03 1.50974467e-03 2.74499040e-03
      2.47049122e-03 1.38622010e-02 4.11748537e-04 1.53719457e-02
      1.78424374e-03 6.86247600e-04 2.60774093e-03 3.56848747e-03
      5.48998069e-04 2.19599227e-03 1.64699415e-03 1.42739499e-02
      1.23524561e-03 8.23497074e-04 1.37249517e-04 2.33324175e-03
      1.64699415e-03 2.05874280e-03 1.09799614e-03 1.23524561e-03
      1.00192148e-02 1.64699415e-03 2.60774093e-03 7.82322232e-03
      2.60774093e-03 1.92149321e-03 3.56848747e-03 3.15673882e-03
      1.00192148e-02 3.56848747e-03 1.09799614e-03 8.23497074e-04
      3.01948935e-03 1.26269553e-02 7.41147390e-03 2.33324175e-03
      2.19599227e-03 3.29398829e-03 1.08427117e-02 5.07823192e-03
      1.09799614e-03 6.86247600e-04 4.11748537e-04 2.05874280e-03
      6.17622817e-03</_>
    <_>
      9.43173771e-04 3.32468748e-02 4.71586874e-03 1.65055413e-03
      7.07380357e-04 4.71586885e-04 1.29686389e-02 3.53690167e-03
      3.77269508e-03 3.06531484e-03 2.35793437e-03 7.07380357e-04
      3.30110826e-03 6.83800969e-03 2.59372778e-02 2.35793443e-04
      2.35793437e-03 3.30110826e-03 2.82952143e-03 2.82952143e-03
      2.82952143e-03 6.36642287e-03 4.95166238e-03 2.35793437e-03
      5.65904286e-03 3.53690167e-03 2.12214096e-03 7.07380357e-04
      4.55081351e-02 3.30110826e-03 1.41476071e-03 1.41476071e-03
      3.53690167e-03 2.82952143e-03 1.17896718e-03 1.88634754e-03
      2.35793443e-04 3.53690167e-03 1.34402262e-02 2.59372778e-03
      3.53690167e-03 1.88634754e-03 4.24428191e-03 2.35793437e-03
      4.95166238e-03 1.88634754e-03 2.12214096e-03 4.71586885e-04
      3.53690167e-03 4.00848873e-03 1.41476071e-03 9.43173771e-04
      4.52723429e-02 2.12214096e-03 2.12214096e-03 2.35793437e-03
      1.88634754e-03 7.07380357e-04 4.48007546e-02 1.41476071e-03
      1.17896718e-03 2.35793437e-03 1.88634754e-03 1.01391179e-02
      4.00848873e-03 3.30110826e-03 3.06531484e-03 2.82952143e-03
      9.43173748e-03 2.82952143e-03 4.71586885e-04 4.95166238e-03
      2.59372778e-03 5.89483604e-03 1.41476071e-03 1.17896718e-03
      2.59372778e-03 1.41476071e-03 6.60221651e-03 4.71586885e-04
      7.30959652e-03 3.30110826e-03 3.77269508e-03 4.00848873e-03
      9.43173771e-04 4.71586885e-04 2.59372778e-03 2.82952143e-03
      3.06531484e-03 3.30110826e-03 4.95166238e-03 4.95166238e-03
      2.12214096e-03 8.96015111e-03 1.88634754e-03 3.06531484e-03
      7.07380357e-04 5.65904286e-03 2.35793437e-03 2.59372778e-03
      5.18745556e-03 4.00848873e-03 1.65055413e-03 2.35793443e-04
      7.30959652e-03 1.17896718e-03 6.36642287e-03 7.07380357e-04
      1.41476071e-03 4.48007556e-03 2.12214096e-03 2.12214096e-03
      1.17896718e-03 3.30110826e-03 1.65055413e-03 1.65055413e-03
      2.59372778e-03 1.41476071e-03 1.17896718e-03 1.10822916e-02
      7.78118381e-03 2.35793443e-04 1.65055413e-03 2.59372778e-03
      2.59372778e-03 2.59372778e-03 3.53690167e-03 2.59372778e-03
      2.59372778e-03 6.60221651e-03 4.24428191e-03 9.43173771e-04
      2.35793437e-03 2.35793437e-03 4.71586885e-04 4.24428191e-03
      1.88634750e-02 8.01697746e-03 7.07380357e-04 2.59372778e-03
      2.12214096e-03 3.77269508e-03 5.18745556e-03 9.43173771e-04
      7.07380357e-04 4.00848873e-03 3.30110826e-03 1.65055413e-03
      4.24428191e-03 9.43173771e-04 4.48007556e-03 4.48007556e-03
      9.43173771e-04 4.71586885e-04 0. 0. 2.12214096e-03 4.71586874e-03
      3.30110826e-03 1.41476071e-03 6.13062968e-03 2.35793443e-04
      8.48856382e-03 2.59372778e-03 3.53690167e-03 1.88634754e-03
      5.65904286e-03 4.71586885e-04 1.88634754e-03 2.12214096e-03
      4.71586874e-03 3.77269508e-03 4.71586885e-04 6.13062968e-03
      4.24428191e-03 6.13062968e-03 4.48007556e-03 4.71586885e-04
      2.59372778e-03 1.41476071e-03 6.13062968e-03 1.17896718e-03
      4.00848873e-03 2.35793443e-04 1.41476071e-03 1.17896718e-03
      9.43173771e-04 1.65055413e-03 4.24428191e-03 4.95166238e-03
      4.71586885e-04 2.82952143e-03 3.77269508e-03 1.88634754e-03
      1.88634754e-03 1.20254653e-02 1.41476071e-03 1.17896718e-03
      9.43173771e-04 4.24428191e-03 2.12214096e-03 1.41476071e-03
      2.12214096e-03 1.17896718e-03 2.59372778e-03 2.12214096e-03
      4.71586885e-04 2.12214096e-03 2.59372778e-03 0. 0. 2.35793437e-03
      1.65055413e-03 2.35793443e-04 4.48007556e-03 6.83800969e-03
      2.35793437e-03 2.82952143e-03 4.00848873e-03 2.12214096e-03
      3.53690167e-03 0. 3.77269508e-03 7.07380357e-04 0. 1.88634754e-03
      5.65904286e-03 9.43173771e-04 2.35793437e-03 1.65055413e-03
      2.05140300e-02 4.24428191e-03 9.43173771e-04 1.17896718e-03
      7.78118381e-03 3.30110826e-03 1.17896718e-03 4.71586885e-04
      2.59372778e-03 3.06531484e-03 2.59372778e-03 5.89483604e-03
      3.53690167e-03 2.12214096e-03 4.95166238e-03 4.71586874e-03
      1.65055413e-03 6.36642287e-03 4.71586874e-03 1.88634754e-03
      2.59372778e-03 4.71586874e-03 1.32044330e-02 2.12214096e-03
      1.17896718e-03 2.59372778e-03 2.12214096e-03 2.82952143e-03
      4.24428191e-03 1.65055413e-03 9.43173771e-04 2.82952143e-03
      3.30110826e-03 1.88634754e-03</_>
    <_>
      1.32555678e-03 5.19618280e-02 6.36267290e-03 1.06044544e-03
      1.85577956e-03 2.65111361e-04 1.29904570e-02 7.95334112e-04
      1.32555678e-03 1.85577956e-03 3.44644766e-03 7.95334112e-04
      2.91622500e-03 1.00742318e-02 1.64369047e-02 2.12089089e-03
      3.71155911e-03 2.38600234e-03 3.18133645e-03 1.19300112e-02
      1.59066822e-03 2.38600234e-03 5.83245000e-03 7.95334112e-04
      4.50689299e-03 3.18133645e-03 7.95334112e-04 1.59066822e-03
      5.30222710e-03 4.50689299e-03 1.85577956e-03 1.06044544e-03
      2.65111355e-03 2.38600234e-03 7.95334112e-04 1.59066822e-03
      2.65111361e-04 4.77200467e-03 1.53764589e-02 3.97667056e-03
      1.59066822e-03 1.85577956e-03 5.03711589e-03 2.38600234e-03
      6.09756121e-03 3.18133645e-03 3.18133645e-03 2.65111361e-04
      6.09756121e-03 2.91622500e-03 3.18133645e-03 1.06044544e-03
      4.90456000e-02 2.12089089e-03 2.12089089e-03 3.18133645e-03
      4.77200467e-03 1.06044544e-03 5.75291663e-02 1.59066822e-03
      1.06044544e-03 2.65111355e-03 2.12089089e-03 9.27889720e-03
      2.65111355e-03 3.18133645e-03 1.59066822e-03 3.18133645e-03
      1.08695654e-02 3.97667056e-03 4.24178177e-03 4.77200467e-03
      3.18133645e-03 3.18133645e-03 1.32555678e-03 1.32555678e-03
      3.44644766e-03 1.59066822e-03 4.24178177e-03 2.65111361e-04
      1.08695654e-02 2.38600234e-03 1.85577956e-03 4.24178177e-03
      2.65111361e-04 2.65111361e-04 3.97667056e-03 1.85577956e-03
      5.83245000e-03 1.32555678e-03 4.50689299e-03 5.30222710e-03
      2.12089089e-03 1.32555682e-02 2.12089089e-03 3.18133645e-03
      5.30222722e-04 2.65111355e-03 2.65111355e-03 3.18133645e-03
      2.12089089e-03 4.24178177e-03 2.12089089e-03 0. 6.62778411e-03
      5.30222722e-04 6.36267290e-03 7.95334112e-04 1.85577956e-03
      2.12089089e-03 5.30222722e-04 2.91622500e-03 7.95334112e-04
      5.03711589e-03 1.85577956e-03 7.95334112e-04 2.91622500e-03
      5.30222722e-04 1.06044544e-03 1.40509019e-02 5.30222710e-03 0.
      2.38600234e-03 1.32555678e-03 7.95334112e-04 1.32555678e-03
      2.91622500e-03 2.91622500e-03 2.65111355e-03 9.54400934e-03
      4.50689299e-03 1.06044544e-03 4.77200467e-03 1.59066822e-03
      1.06044544e-03 4.50689299e-03 9.27889720e-03 7.95334112e-03
      1.06044544e-03 1.59066822e-03 1.59066822e-03 2.12089089e-03
      5.03711589e-03 1.32555678e-03 1.32555678e-03 5.56733878e-03
      2.65111355e-03 1.59066822e-03 3.44644766e-03 1.32555678e-03
      6.36267290e-03 4.24178177e-03 1.85577956e-03 2.65111361e-04
      2.65111361e-04 0. 1.85577956e-03 2.91622500e-03 2.91622500e-03
      1.32555678e-03 6.36267290e-03 2.65111361e-04 6.62778411e-03
      1.85577956e-03 3.44644766e-03 1.06044544e-03 3.97667056e-03
      2.65111361e-04 7.95334112e-04 2.12089089e-03 3.18133645e-03
      5.56733878e-03 2.65111355e-03 6.09756121e-03 3.44644766e-03
      6.62778411e-03 1.85577956e-03 0. 2.91622500e-03 2.65111361e-04
      3.44644766e-03 2.65111361e-04 3.18133645e-03 2.65111361e-04
      5.30222722e-04 1.59066822e-03 0. 2.12089089e-03 4.77200467e-03
      5.03711589e-03 1.32555678e-03 2.65111355e-03 5.30222710e-03
      7.95334112e-04 1.06044544e-03 1.51113477e-02 7.95334112e-04
      1.85577956e-03 2.38600234e-03 3.18133645e-03 6.89289533e-03
      5.30222722e-04 7.95334112e-04 7.95334112e-04 2.38600234e-03
      1.59066822e-03 2.65111361e-04 2.91622500e-03 2.38600234e-03
      2.65111361e-04 7.95334112e-04 3.18133645e-03 7.95334112e-04
      2.65111361e-04 3.44644766e-03 9.01378598e-03 2.12089089e-03
      3.71155911e-03 2.91622500e-03 1.32555678e-03 2.38600234e-03
      5.30222722e-04 5.30222722e-04 1.85577956e-03 2.65111361e-04
      2.38600234e-03 7.15800654e-03 5.30222722e-04 3.44644766e-03
      5.30222722e-04 3.07529178e-02 4.24178177e-03 1.32555678e-03
      1.06044544e-03 1.11346776e-02 5.83245000e-03 3.44644766e-03
      7.95334112e-04 4.24178177e-03 4.77200467e-03 3.71155911e-03
      4.24178177e-03 1.85577956e-03 3.44644766e-03 7.15800654e-03
      2.38600234e-03 4.77200467e-03 3.71155911e-03 2.38600234e-03
      1.06044544e-03 1.85577956e-03 5.56733878e-03 1.03393430e-02
      1.85577956e-03 2.65111361e-04 4.24178177e-03 1.85577956e-03
      1.32555678e-03 8.48356355e-03 1.32555678e-03 7.95334112e-04
      2.65111355e-03 2.65111355e-03 7.95334112e-04</_>
    <_>
      2.90390709e-03 2.58711725e-02 7.12777209e-03 5.27983124e-04
      7.91974715e-04 1.05596625e-03 6.86378079e-03 1.58394943e-03
      3.69588193e-03 4.75184806e-03 2.63991556e-03 5.27983124e-04
      2.90390709e-03 5.54382289e-03 5.80781419e-03 2.37592403e-03
      7.91974715e-04 2.11193250e-03 3.69588193e-03 3.69588193e-03
      2.37592403e-03 1.90073922e-02 5.01583982e-03 1.31995778e-03
      5.80781419e-03 2.11193250e-03 2.37592403e-03 5.27983124e-04
      7.91974715e-04 3.69588193e-03 1.58394943e-03 1.31995778e-03
      2.37592403e-03 2.11193250e-03 1.05596625e-03 1.58394943e-03
      5.27983124e-04 2.90390709e-03 8.97571351e-03 2.11193250e-03
      3.95987323e-03 1.31995778e-03 1.84794096e-03 4.48785676e-03
      6.86378079e-03 2.90390709e-03 2.90390709e-03 1.05596625e-03
      6.59978902e-03 5.01583982e-03 2.63991556e-03 2.37592403e-03
      4.51425575e-02 1.84794096e-03 1.84794096e-03 2.37592403e-03
      2.63991556e-03 1.58394943e-03 3.40549126e-02 2.90390709e-03
      7.91974715e-04 7.91974715e-04 2.37592403e-03 1.00316796e-02
      4.22386499e-03 2.37592403e-03 4.48785676e-03 7.91974715e-04
      1.02956705e-02 2.90390709e-03 1.84794096e-03 6.07180595e-03
      1.31995778e-03 2.63991556e-03 3.43189039e-03 1.31995778e-03
      4.22386499e-03 1.05596625e-03 5.27983112e-03 1.31995778e-03
      5.54382289e-03 1.84794096e-03 3.16789886e-03 4.22386499e-03
      1.58394943e-03 1.58394943e-03 2.11193250e-03 3.16789886e-03
      4.48785676e-03 4.22386499e-03 5.27983112e-03 6.33579772e-03
      3.69588193e-03 9.76768788e-03 3.16789886e-03 2.11193250e-03
      7.91974715e-04 8.18373822e-03 3.95987323e-03 1.84794096e-03
      5.80781419e-03 5.27983112e-03 2.63991556e-03 7.91974715e-04
      5.27983112e-03 5.27983124e-04 7.91974645e-03 1.58394943e-03
      3.43189039e-03 2.63991556e-03 2.11193250e-03 3.95987323e-03
      1.05596625e-03 3.43189039e-03 2.11193250e-03 1.58394943e-03
      5.27983112e-03 1.84794096e-03 3.95987323e-03 7.39176385e-03
      1.00316796e-02 5.27983124e-04 1.58394943e-03 2.11193250e-03
      3.16789886e-03 2.63991556e-03 3.16789886e-03 3.16789886e-03
      3.95987323e-03 8.97571351e-03 2.90390709e-03 5.27983124e-04
      2.11193250e-03 5.27983112e-03 5.27983124e-04 4.48785676e-03
      2.63991556e-03 8.71172175e-03 3.69588193e-03 1.58394943e-03
      2.63991556e-03 4.22386499e-03 6.07180595e-03 3.95987323e-03
      5.27983124e-04 4.75184806e-03 3.16789886e-03 1.58394943e-03
      5.01583982e-03 1.31995778e-03 3.43189039e-03 3.69588193e-03
      2.63991556e-03 1.31995778e-03 1.05596625e-03 0. 1.31995778e-03
      2.63991556e-03 5.27983112e-03 2.63991562e-04 5.27983112e-03
      2.63991562e-04 1.16156284e-02 7.91974715e-04 4.48785676e-03
      1.31995778e-03 9.76768788e-03 1.31995778e-03 1.05596625e-03
      3.16789886e-03 5.01583982e-03 1.58394943e-03 1.58394943e-03
      7.39176385e-03 6.86378079e-03 5.27983112e-03 2.90390709e-03
      5.27983124e-04 2.37592403e-03 1.31995778e-03 6.86378079e-03
      2.11193250e-03 5.01583982e-03 1.31995778e-03 1.58394943e-03
      7.91974715e-04 1.58394943e-03 3.16789886e-03 3.43189039e-03
      5.01583982e-03 1.31995778e-03 2.90390709e-03 8.44772998e-03
      1.84794096e-03 1.84794096e-03 6.07180595e-03 7.91974715e-04
      1.05596625e-03 3.43189039e-03 2.90390709e-03 6.07180595e-03
      3.16789886e-03 1.58394943e-03 3.16789886e-03 3.69588193e-03
      1.58394943e-03 1.05596625e-03 2.63991562e-04 2.90390709e-03 0.
      7.91974715e-04 4.48785676e-03 2.37592403e-03 5.27983124e-04
      8.44772998e-03 5.27983112e-03 5.80781419e-03 5.27983124e-04
      5.27983112e-03 1.84794096e-03 4.22386499e-03 0. 6.33579772e-03
      7.91974715e-04 0. 3.69588193e-03 6.59978902e-03 7.91974715e-04
      1.58394943e-03 2.37592403e-03 2.95670554e-02 3.69588193e-03
      7.91974715e-04 2.37592403e-03 7.65575515e-03 1.58394943e-03
      1.84794096e-03 7.91974715e-04 1.58394943e-03 4.75184806e-03
      4.48785676e-03 7.91974645e-03 3.95987323e-03 2.11193250e-03
      3.69588193e-03 4.22386499e-03 2.90390709e-03 8.18373822e-03
      6.33579772e-03 4.48785676e-03 3.69588193e-03 3.95987323e-03
      1.29355863e-02 1.84794096e-03 1.31995778e-03 2.37592403e-03
      2.63991556e-03 2.11193250e-03 5.01583982e-03 2.37592403e-03
      1.58394943e-03 3.43189039e-03 3.43189039e-03 2.37592403e-03</_>
    <_>
      3.81024962e-04 9.14459862e-03 3.81024973e-03 4.38178703e-03
      2.09563738e-03 2.85768718e-03 9.33511183e-03 9.90664866e-03
      6.28691167e-03 6.85844943e-03 2.47666216e-03 0. 1.33358734e-03
      5.71537437e-03 8.38254951e-03 3.23871220e-03 1.71461236e-03
      1.69556104e-02 1.52409985e-03 5.90588711e-03 9.52562434e-04
      1.71461236e-03 3.42922471e-03 5.90588711e-03 5.90588711e-03
      9.52562434e-04 2.85768718e-03 5.71537414e-04 5.71537414e-04
      1.33358734e-03 6.47742441e-03 8.95408634e-03 1.25738233e-02
      1.23833111e-02 2.28614965e-03 8.38254951e-03 3.81024962e-04
      4.95332433e-03 5.14383707e-03 4.57229931e-03 4.19127475e-03
      1.90512487e-03 1.90512487e-03 1.33358734e-03 2.66717467e-03
      3.61973722e-03 1.14307483e-03 9.52562434e-04 9.52562434e-04
      8.95408634e-03 4.76281205e-03 2.28614965e-03 1.44789489e-02
      3.81024973e-03 5.71537414e-04 1.71461236e-03 1.33358734e-03
      6.28691167e-03 1.14307487e-02 8.38254951e-03 3.81024962e-04
      1.33358734e-03 1.90512481e-04 8.57306179e-03 1.90512487e-03
      2.85768718e-03 7.23947445e-03 1.33358734e-03 8.38254951e-03
      5.71537414e-04 2.09563738e-03 2.09563738e-03 1.33358734e-03
      6.66793669e-03 3.42922471e-03 1.14307483e-03 3.81024973e-03 0.
      2.47666216e-03 1.90512481e-04 4.19127475e-03 1.33358734e-03
      1.08592110e-02 8.95408634e-03 9.52562434e-04 2.85768718e-03
      2.28614965e-03 9.52562434e-04 7.42998673e-03 1.18117742e-02
      3.81024973e-03 3.23871220e-03 3.04819969e-03 8.95408634e-03
      3.61973722e-03 2.85768718e-03 1.33358734e-03 8.57306179e-03
      5.71537414e-04 1.71461236e-03 2.28614965e-03 2.47666216e-03
      3.81024973e-03 0. 2.85768718e-03 7.62049924e-04 1.33358734e-03
      7.62049924e-04 3.81024962e-04 2.28614965e-03 7.62049947e-03
      2.66717467e-03 3.42922471e-03 2.28614965e-03 1.90512487e-03
      2.28614965e-03 1.90512487e-03 3.81024962e-04 3.81024962e-04
      4.38178703e-03 1.58125367e-02 0. 4.00076201e-03 7.42998673e-03
      5.14383707e-03 3.81024962e-04 6.66793669e-03 2.28614965e-03
      5.90588711e-03 9.90664866e-03 2.09563738e-03 7.62049924e-04
      1.52409985e-03 1.46694612e-02 1.90512487e-03 1.52409985e-03
      5.14383707e-03 4.95332433e-03 1.33358734e-03 1.14307483e-03
      2.28614965e-03 8.00152402e-03 4.00076201e-03 1.71461236e-03
      1.52409985e-03 9.14459862e-03 2.28614965e-03 1.71461236e-03
      1.90512487e-03 2.66717467e-03 1.14307483e-03 3.04819969e-03
      4.19127475e-03 1.90512487e-03 9.52562434e-04 9.52562434e-04
      7.62049924e-04 7.62049924e-04 3.04819969e-03 1.90512481e-04
      3.42922471e-03 1.14307483e-03 5.52486209e-03 1.33358734e-03
      1.04781864e-02 1.90512487e-03 4.76281205e-03 2.47666216e-03
      1.33358734e-03 2.28614965e-03 9.52562434e-04 2.85768718e-03
      9.52562434e-04 1.79081727e-02 2.11468861e-02 1.14307483e-03
      5.71537437e-03 1.71461236e-03 3.81024973e-03 6.47742441e-03
      6.47742441e-03 5.71537414e-04 9.71613638e-03 3.04819969e-03
      5.71537414e-04 9.52562434e-04 9.52562434e-04 4.19127475e-03
      2.66717467e-03 4.19127475e-03 2.47666216e-03 2.66717467e-03
      1.90512487e-03 2.47666216e-03 9.52562434e-04 5.71537437e-03
      1.52409985e-03 1.90512487e-03 6.09639939e-03 3.61973722e-03
      4.00076201e-03 7.62049924e-04 3.81024962e-04 2.09563738e-03
      2.47666216e-03 3.23871220e-03 9.52562434e-04 2.85768718e-03
      1.52409985e-03 1.90512481e-04 1.52409985e-03 1.52409985e-03
      1.14307483e-03 9.52562434e-04 3.81024962e-04 4.38178703e-03
      2.85768718e-03 9.52562434e-04 1.14307483e-03 4.57229931e-03
      8.38254951e-03 9.52562434e-04 8.19203630e-03 3.81024973e-03
      3.81024962e-04 3.81024962e-04 5.71537437e-03 5.71537414e-04
      9.52562434e-04 4.95332433e-03 8.95408634e-03 4.38178703e-03
      5.71537414e-04 2.28614965e-03 4.38178703e-03 3.23871220e-03
      3.23871220e-03 6.66793669e-03 2.47666216e-03 1.31453611e-02
      1.90512487e-03 2.28614965e-03 1.31453611e-02 6.85844943e-03
      2.85768718e-03 1.52409985e-03 3.23871220e-03 6.47742441e-03
      2.09563738e-03 2.09563738e-03 9.52562434e-04 3.81024973e-03
      1.75271481e-02 9.33511183e-03 3.04819969e-03 2.66717467e-03
      1.33358734e-03 1.77176613e-02 3.23871220e-03 7.62049924e-04
      3.81024962e-04 9.52562434e-04 1.90512487e-03 2.66717467e-03</_>
    <_>
      1.52044999e-03 6.84202509e-03 4.10521496e-03 4.71339514e-03
      4.56135022e-04 1.36840506e-03 5.62566519e-03 4.56135022e-03
      7.14611495e-03 1.52045004e-02 2.73681013e-03 9.12270043e-04
      1.06431497e-03 3.04089999e-03 6.53793523e-03 1.97658502e-03
      1.36840506e-03 3.64908017e-03 3.34499008e-03 1.97658502e-03
      3.49703501e-03 7.75429513e-03 4.10521496e-03 3.80112510e-03
      3.49703501e-03 1.82454009e-03 2.73681013e-03 6.08180009e-04
      6.08180009e-04 1.82454009e-03 3.95317003e-03 3.64908017e-03
      9.12270043e-03 1.17074652e-02 1.06431497e-03 4.86544007e-03
      3.04090005e-04 2.73681013e-03 2.28067511e-03 2.73681013e-03
      3.80112510e-03 1.36840506e-03 2.12862995e-03 3.19294515e-03
      3.95317003e-03 3.04089999e-03 1.52044999e-03 7.60224997e-04
      3.04089999e-03 1.38360951e-02 1.67249504e-03 3.80112510e-03
      1.18595101e-02 3.34499008e-03 6.08180009e-04 9.12270043e-04
      1.97658502e-03 4.25725989e-03 1.55085903e-02 4.40930529e-03
      9.12270043e-04 3.04090005e-04 6.08180009e-04 6.53793523e-03
      2.43272004e-03 5.01748500e-03 1.07951956e-02 7.60224997e-04
      2.58476497e-03 7.60224997e-04 7.60224997e-04 3.34499008e-03
      1.82454009e-03 6.08179998e-03 2.12862995e-03 9.12270043e-04
      1.67249504e-03 1.21636002e-03 2.58476497e-03 1.52045002e-04
      2.43272004e-03 2.12862995e-03 4.56135022e-03 6.23384491e-03
      9.12270043e-04 3.49703501e-03 6.08180009e-04 1.97658502e-03
      3.49703501e-03 1.32279154e-02 4.40930529e-03 2.88885506e-03
      2.28067511e-03 4.25725989e-03 6.99407002e-03 1.52044999e-03
      1.36840506e-03 1.33799603e-02 1.52044999e-03 1.36840506e-03
      2.88885506e-03 3.34499008e-03 5.32157486e-03 0. 3.49703501e-03
      6.08180009e-04 2.43272004e-03 1.36840506e-03 1.52044999e-03
      1.97658502e-03 3.95317003e-03 1.97658502e-03 2.43272004e-03
      1.06431497e-03 2.73681013e-03 2.73681013e-03 2.58476497e-03
      2.73681013e-03 1.06431497e-03 1.21636002e-03 2.40231100e-02 0.
      2.12862995e-03 9.73088015e-03 2.43272004e-03 1.06431497e-03
      5.77771012e-03 1.82454009e-03 8.51451978e-03 4.71339514e-03
      2.12862995e-03 1.36840506e-03 1.67249504e-03 6.84202509e-03
      9.12270043e-04 1.36840506e-03 2.73681013e-03 5.01748500e-03
      4.86544007e-03 2.12862995e-03 9.12270043e-04 1.00349700e-02
      2.73681013e-03 3.95317003e-03 4.56135022e-04 1.90056246e-02
      3.19294515e-03 1.06431497e-03 2.58476497e-03 6.68998016e-03
      1.82454009e-03 3.19294515e-03 4.25725989e-03 1.21636002e-03
      6.08180009e-04 9.12270043e-04 1.36840506e-03 3.49703501e-03
      1.97658502e-03 4.56135022e-04 7.60224997e-04 1.21636002e-03
      7.90634006e-03 1.67249504e-03 1.59647260e-02 7.60224997e-04
      5.47362026e-03 3.04089999e-03 9.12270043e-04 3.19294515e-03
      2.12862995e-03 7.60224997e-04 1.21636002e-03 2.25026608e-02
      3.51223946e-02 1.82454009e-03 8.21042992e-03 3.34499008e-03
      1.82454009e-03 1.10992854e-02 1.07951956e-02 1.21636002e-03
      1.42922299e-02 2.28067511e-03 2.43272004e-03 1.06431497e-03
      2.28067511e-03 3.80112510e-03 2.12862995e-03 3.49703501e-03
      1.06431497e-03 1.36840506e-03 3.19294515e-03 1.67249504e-03
      1.36840506e-03 2.73681013e-03 2.43272004e-03 2.43272004e-03
      3.64908017e-03 2.12862995e-03 4.25725989e-03 1.82454009e-03
      1.36840506e-03 7.60224997e-04 2.43272004e-03 3.19294515e-03
      1.21636002e-03 6.08180009e-04 2.43272004e-03 3.04090005e-04
      2.43272004e-03 1.97658502e-03 2.88885506e-03 7.60224997e-04
      3.64908017e-03 9.27474536e-03 2.88885506e-03 1.06431497e-03
      3.95317003e-03 4.10521496e-03 8.05838499e-03 1.21636002e-03
      1.04911048e-02 1.97658502e-03 3.04090005e-04 1.21636002e-03
      3.95317003e-03 4.56135022e-04 1.82454009e-03 2.28067511e-03
      4.10521496e-03 2.73681013e-03 1.36840506e-03 3.04089999e-03
      4.10521496e-03 1.67249504e-03 1.82454009e-03 5.47362026e-03
      1.36840506e-03 1.62688158e-02 1.67249504e-03 6.08179998e-03
      1.21636000e-02 5.16952993e-03 1.97658502e-03 4.10521496e-03
      2.73681013e-03 1.29238255e-02 3.49703501e-03 2.58476497e-03
      1.06431497e-03 2.43272004e-03 1.01870149e-02 7.14611495e-03
      2.43272004e-03 9.12270043e-04 4.71339514e-03 1.41401850e-02
      5.01748500e-03 1.36840506e-03 4.56135022e-04 2.28067511e-03
      1.36840506e-03 2.73681013e-03</_>
    <_>
      2.19178083e-03 3.45205478e-02 6.30136998e-03 5.47945208e-04
      1.64383557e-03 2.73972604e-04 1.86301377e-02 1.09589042e-03
      5.47945208e-04 2.19178083e-03 1.36986305e-03 1.09589042e-03
      5.47945220e-03 9.86301340e-03 1.47945210e-02 8.21917783e-04
      2.19178083e-03 8.21917783e-04 2.73972610e-03 6.57534227e-03
      1.64383557e-03 6.84931502e-03 6.84931502e-03 1.09589042e-03
      4.65753442e-03 1.64383557e-03 2.19178083e-03 1.36986305e-03
      3.83561663e-02 3.28767113e-03 1.36986305e-03 2.46575335e-03
      1.09589042e-03 2.46575335e-03 1.91780820e-03 1.09589042e-03
      1.09589042e-03 4.93150670e-03 8.49315058e-03 8.21917783e-04
      1.36986305e-03 2.46575335e-03 3.28767113e-03 2.19178083e-03
      6.02739723e-03 2.73972610e-03 3.28767113e-03 8.21917783e-04
      2.19178083e-03 1.91780820e-03 5.47945208e-04 1.91780820e-03
      1.17808217e-02 2.46575335e-03 2.46575335e-03 8.49315058e-03
      3.28767113e-03 3.01369862e-03 3.39726023e-02 1.09589042e-03
      8.21917783e-04 3.28767113e-03 4.65753442e-03 5.20547945e-03
      3.28767113e-03 9.04109608e-03 1.64383557e-03 4.65753442e-03
      9.04109608e-03 3.01369862e-03 1.64383557e-03 3.83561640e-03
      1.91780820e-03 3.28767113e-03 4.93150670e-03 5.47945208e-04
      4.10958892e-03 1.09589042e-03 5.47945220e-03 2.73972604e-04
      4.38356167e-03 3.28767113e-03 1.91780820e-03 2.73972610e-03
      2.73972604e-04 5.47945208e-04 4.10958892e-03 4.38356167e-03
      4.93150670e-03 3.01369862e-03 5.20547945e-03 6.57534227e-03
      4.93150670e-03 1.06849317e-02 2.73972610e-03 2.46575335e-03
      1.09589042e-03 1.91780820e-03 2.46575335e-03 2.46575335e-03
      4.38356167e-03 7.12328777e-03 2.19178083e-03 2.73972604e-04
      7.67123280e-03 1.91780820e-03 4.38356167e-03 1.64383557e-03
      1.91780820e-03 5.75342448e-03 8.21917783e-04 3.28767113e-03
      1.36986305e-03 3.01369862e-03 3.28767113e-03 4.38356167e-03
      3.56164388e-03 1.09589042e-03 2.73972604e-04 8.49315058e-03
      1.36986305e-03 2.73972604e-04 4.38356167e-03 1.91780820e-03
      2.19178083e-03 2.19178083e-03 2.46575335e-03 2.73972610e-03
      8.21917783e-04 6.30136998e-03 7.39726052e-03 2.19178083e-03
      6.02739723e-03 1.36986305e-03 0. 4.65753442e-03 1.28767127e-02
      7.39726052e-03 1.64383557e-03 1.91780820e-03 1.91780820e-03
      2.19178083e-03 3.83561640e-03 6.84931502e-03 1.09589042e-03
      4.38356167e-03 3.28767113e-03 2.19178083e-03 2.73972610e-03
      5.20547945e-03 5.47945220e-03 4.93150670e-03 1.36986305e-03
      1.91780820e-03 5.47945208e-04 1.09589042e-03 2.73972604e-04
      6.02739723e-03 5.47945220e-03 0. 8.21917783e-04 8.21917783e-04
      9.58904158e-03 4.65753442e-03 5.75342448e-03 1.91780820e-03
      9.04109608e-03 4.10958892e-03 1.36986305e-03 2.73972610e-03
      5.75342448e-03 5.20547945e-03 5.47945208e-04 2.19178083e-03
      2.19178083e-03 3.83561640e-03 9.31506883e-03 1.09589042e-03
      5.20547945e-03 3.01369862e-03 1.09589042e-03 8.21917783e-04
      5.47945220e-03 8.21917783e-04 3.01369862e-03 1.64383557e-03
      1.36986305e-03 4.65753442e-03 4.93150670e-03 7.39726052e-03
      1.91780820e-03 2.73972610e-03 6.57534227e-03 1.36986305e-03
      2.73972610e-03 1.23287672e-02 1.09589042e-03 1.64383557e-03
      1.64383557e-03 4.10958892e-03 4.65753442e-03 1.09589042e-03
      1.09589042e-03 1.36986305e-03 7.39726052e-03 4.38356167e-03
      8.21917783e-04 5.47945208e-04 5.47945220e-03 0. 1.64383557e-03
      3.01369862e-03 1.36986305e-03 0. 3.28767113e-03 8.76712333e-03
      3.28767113e-03 3.28767113e-03 3.01369862e-03 1.64383557e-03
      1.36986305e-03 1.09589042e-03 1.09589042e-03 8.21917783e-04 0.
      1.91780820e-03 7.67123280e-03 5.47945208e-04 5.47945208e-04
      2.19178083e-03 7.67123280e-03 7.67123280e-03 2.73972604e-04
      2.73972610e-03 3.28767113e-03 2.19178083e-03 7.39726052e-03
      2.73972610e-03 3.28767113e-03 5.47945220e-03 3.83561640e-03
      1.20547945e-02 7.39726052e-03 6.30136998e-03 5.20547945e-03
      3.28767113e-03 3.01369862e-03 4.38356167e-03 4.65753442e-03
      5.20547945e-03 1.36986305e-03 5.47945220e-03 2.73972610e-03
      3.83561640e-03 1.36986305e-03 2.73972610e-03 2.73972610e-03
      3.01369862e-03 5.20547945e-03 1.91780820e-03 1.09589042e-03
      1.36986305e-03 4.93150670e-03 1.64383557e-03</_>
    <_>
      0. 0. 0. 6.75675692e-03 0. 0. 0. 0. 0. 6.75675692e-03
      6.75675692e-03 0. 0. 0. 0. 0. 5.40540554e-02 6.75675692e-03 0. 0.
      1.35135138e-02 0. 0. 6.75675692e-03 0. 0. 3.37837860e-02 0. 0. 0.
      6.75675692e-03 6.75675692e-03 6.75675692e-03 0. 0. 0.
      2.70270277e-02 0. 0. 0. 0. 2.70270277e-02 0. 4.05405425e-02 0. 0.
      6.75675692e-03 1.35135138e-02 0. 6.75675692e-03 0. 0.
      2.70270277e-02 0. 0. 0. 0. 0. 2.70270277e-02 0. 0. 0. 0.
      6.75675692e-03 0. 6.75675692e-03 0. 0. 0. 0. 6.75675692e-03 0. 0.
      6.75675692e-03 0. 0. 0. 6.75675692e-03 0. 0. 0. 1.82432443e-01 0.
      0. 0. 0. 0. 6.75675692e-03 0. 6.75675692e-03 0. 0. 0. 0.
      1.35135138e-02 0. 6.75675692e-03 0. 0. 0. 0. 0. 0. 0. 0. 0. 0. 0.
      0. 0. 0. 2.02702712e-02 6.75675692e-03 0. 0. 4.05405425e-02 0. 0.
      0. 0. 0. 6.75675692e-03 0. 0. 0. 0. 0. 6.75675692e-03 0. 0. 0. 0.
      3.37837860e-02 6.75675692e-03 0. 0. 3.37837860e-02 0. 0.
      6.75675692e-03 0. 0. 0. 0. 0. 0. 0. 0. 2.02702712e-02 0. 0. 0. 0.
      0. 0. 0. 0. 0. 6.08108118e-02 0. 6.75675692e-03 0. 0. 0. 0.
      6.75675692e-03 0. 0. 0. 6.75675692e-03 0. 0. 0. 0. 0. 0. 0. 0. 0.
      0. 0. 0. 0. 0. 4.05405425e-02 6.75675692e-03 0. 0. 0. 0. 0.
      2.02702712e-02 0. 0. 0. 0. 0. 0. 0. 0. 0. 6.75675692e-03 0. 0.
      1.35135138e-02 6.75675692e-03 0. 0. 0. 0. 0. 0. 0. 0. 0. 0. 0. 0.
      0. 0. 0. 0. 0. 0. 0. 0. 0. 0. 0. 0. 0. 0. 0. 1.35135138e-02 0. 0.
      0. 0. 0. 0. 0. 0. 0. 0. 6.75675692e-03 0. 0. 0. 0. 0. 0. 0.
      2.02702712e-02 0. 0. 1.35135138e-02 0. 0. 0. 0. 0. 6.75675692e-03
      0. 0.</_>
    <_>
      1.33511354e-03 0. 6.67556748e-03 2.67022708e-03 1.33511354e-03
      6.67556748e-03 1.33511354e-03 4.00534086e-03 1.33511354e-03 0.
      8.01068172e-03 1.20160216e-02 1.33511354e-03 1.33511354e-03
      1.33511354e-03 5.34045417e-03 3.47129516e-02 1.33511354e-03 0. 0.
      1.33511354e-03 0. 0. 0. 0. 0. 4.00534086e-03 4.00534086e-03
      4.13885191e-02 0. 9.34579503e-03 1.33511354e-03 5.34045417e-03
      1.33511354e-03 0. 2.67022708e-03 5.34045417e-03 0. 1.73564758e-02
      8.01068172e-03 0. 3.20427269e-02 0. 1.06809083e-02 5.34045417e-03
      0. 4.00534086e-03 1.33511354e-03 0. 4.00534086e-03 0. 0.
      1.20160216e-02 4.00534086e-03 0. 0. 0. 2.67022708e-03
      9.34579503e-03 0. 2.67022708e-03 0. 0. 8.01068172e-03
      2.67022708e-03 1.33511354e-03 0. 2.67022708e-03 0. 0.
      5.34045417e-03 0. 6.67556748e-03 9.34579503e-03 0. 0.
      4.00534086e-03 4.00534086e-03 0. 0. 0. 9.47930589e-02
      1.33511354e-03 0. 0. 0. 0. 4.00534086e-03 0. 1.33511354e-03 0.
      1.33511354e-03 4.00534086e-03 0. 1.33511354e-03 0. 1.46862492e-02
      1.33511354e-03 0. 0. 1.33511354e-03 0. 0. 0. 0. 1.33511354e-03 0.
      0. 2.67022708e-03 0. 2.67022708e-03 8.01068172e-03 5.34045417e-03
      0. 1.33511354e-03 2.13618167e-02 5.34045417e-03 1.33511354e-03 0.
      2.67022699e-02 0. 1.06809083e-02 4.00534086e-03 0. 0. 0.
      5.34045417e-03 8.01068172e-03 1.33511354e-03 0. 0. 2.67022708e-03
      2.00267024e-02 6.67556748e-03 6.67556748e-03 1.33511354e-03
      7.87716955e-02 1.33511354e-03 2.67022708e-03 4.00534086e-03
      4.00534086e-03 0. 6.67556748e-03 8.01068172e-03 8.01068172e-03 0.
      1.33511354e-03 0. 2.67022708e-03 0. 6.67556748e-03 0.
      1.33511354e-03 1.33511354e-03 4.00534049e-02 0. 0. 0.
      5.34045417e-03 0. 8.01068172e-03 1.33511354e-03 4.00534086e-03
      1.33511354e-03 1.33511354e-03 2.67022708e-03 0. 0. 2.67022708e-03
      1.33511354e-03 0. 0. 1.33511354e-03 0. 0. 8.01068172e-03 0.
      2.67022708e-03 0. 0. 0. 2.67022708e-03 0. 1.33511354e-03
      3.47129516e-02 0. 0. 0. 0. 0. 1.33511354e-03 2.67022708e-03 0.
      1.33511354e-03 0. 0. 9.34579503e-03 5.34045417e-03 0.
      2.67022708e-03 0. 4.00534086e-03 2.67022708e-03 1.33511354e-03 0.
      0. 8.01068172e-03 1.33511354e-03 4.00534086e-03 4.00534086e-03
      4.00534086e-03 0. 2.67022708e-03 5.34045417e-03 1.33511354e-03 0.
      0. 0. 0. 8.01068172e-03 1.33511354e-03 1.33511354e-03 0.
      4.00534086e-03 0. 1.33511354e-03 0. 6.67556748e-03 1.33511350e-02
      1.33511354e-03 6.67556748e-03 0. 6.67556748e-03 2.67022708e-03
      2.67022708e-03 0. 2.67022708e-03 0. 0. 1.33511354e-03 0. 0. 0.
      4.00534086e-03 1.33511354e-03 0. 2.67022708e-03 0. 0. 0.
      8.01068172e-03 0. 8.01068172e-03 2.67022708e-03 0. 4.00534086e-03
      1.33511354e-03 0. 0. 0. 4.00534086e-03 0. 0. 4.00534086e-03</_>
    <_>
      0. 0. 0. 3.89105058e-03 0. 0. 0. 0. 3.89105058e-03 0. 0.
      3.89105058e-03 0. 0. 0. 3.89105058e-03 1.16731515e-02 0. 0. 0. 0.
      0. 0. 0. 0. 0. 1.16731515e-02 7.78210117e-03 1.36186764e-01 0. 0.
      3.89105058e-03 0. 3.89105058e-03 3.89105058e-03 3.89105058e-03
      1.16731515e-02 0. 2.33463030e-02 3.89105058e-03 0. 5.05836569e-02
      0. 1.55642023e-02 0. 0. 3.89105058e-03 3.89105058e-03 0. 0. 0. 0.
      1.16731515e-02 0. 0. 0. 0. 0. 2.33463030e-02 0. 3.89105058e-03 0.
      3.89105058e-03 3.11284047e-02 0. 3.89105058e-03 0. 0. 0. 0. 0. 0.
      1.16731515e-02 1.55642023e-02 0. 0. 3.89105058e-03 0. 0. 0. 0.
      1.32295713e-01 0. 0. 0. 0. 0. 1.16731515e-02 7.78210117e-03 0. 0.
      0. 0. 0. 0. 0. 0. 0. 3.89105058e-03 0. 3.89105058e-03 0. 0. 0. 0.
      0. 0. 0. 0. 0. 0. 1.94552522e-02 3.89105058e-03 0. 0.
      3.50194536e-02 0. 3.89105058e-03 0. 3.89105058e-03 0. 0. 0. 0. 0.
      0. 0. 7.78210117e-03 0. 0. 0. 1.94552522e-02 0. 3.89105058e-03 0.
      0. 5.83657585e-02 0. 3.89105058e-03 0. 0. 0. 0. 2.33463030e-02 0.
      0. 0. 0. 1.16731515e-02 3.89105058e-03 3.89105058e-03 0. 0.
      3.89105058e-03 2.33463030e-02 0. 0. 0. 1.94552522e-02 0.
      3.89105058e-03 0. 0. 0. 0. 0. 0. 0. 0. 0. 0. 0. 1.16731515e-02 0.
      0. 0. 3.89105058e-03 0. 0. 0. 0. 0. 0. 0. 5.83657585e-02 0. 0. 0.
      0. 0. 0. 0. 0. 0. 0. 0. 3.89105058e-03 3.89105058e-03 0. 0. 0.
      1.55642023e-02 0. 0. 0. 0. 0. 0. 0. 0. 0. 0. 0. 7.78210117e-03 0.
      0. 0. 0. 0. 7.78210117e-03 3.89105058e-03 0. 0. 0. 0. 0. 0. 0. 0.
      0. 3.89105058e-03 0. 3.89105058e-03 1.94552522e-02 3.89105058e-03
      0. 0. 0. 0. 0. 0. 0. 0. 7.78210117e-03 3.89105058e-03 0. 0. 0. 0.
      0. 0. 3.89105058e-03 0. 0. 0. 0. 3.89105058e-03 0. 0. 0. 0. 0. 0.
      0.</_>
    <_>
      0. 0. 6.57894742e-03 1.64473685e-03 0. 1.64473685e-03
      1.64473685e-03 0. 0. 0. 6.57894742e-03 1.15131577e-02
      4.93421033e-03 3.28947371e-03 0. 1.64473685e-03 6.41447380e-02
      1.64473685e-03 0. 0. 0. 0. 1.64473685e-03 1.64473685e-03 0. 0.
      9.86842066e-03 1.97368413e-02 1.31578948e-02 0. 6.57894742e-03 0.
      0. 1.64473685e-03 0. 3.28947371e-03 1.64473685e-03 0.
      6.57894742e-03 6.57894742e-03 3.28947371e-03 2.13815793e-02 0.
      1.31578948e-02 4.93421033e-03 0. 6.57894742e-03 6.57894742e-03
      1.64473685e-03 0. 0. 0. 1.48026319e-02 0. 0. 1.64473685e-03
      1.64473685e-03 1.64473685e-03 0. 0. 0. 1.64473685e-03 0.
      3.28947371e-03 6.57894742e-03 6.57894742e-03 0. 1.64473685e-03 0.
      0. 6.57894742e-03 0. 3.28947371e-03 1.15131577e-02 0. 0.
      1.64473685e-03 1.64473685e-03 0. 0. 0. 1.06907897e-01
      3.28947371e-03 0. 4.93421033e-03 0. 0. 1.64473685e-03
      4.93421033e-03 0. 0. 0. 6.57894742e-03 0. 0. 0. 1.97368413e-02 0.
      1.64473685e-03 1.64473685e-03 0. 0. 0. 0. 0. 1.64473685e-03 0. 0.
      1.64473685e-03 4.93421033e-03 6.57894742e-03 9.86842066e-03
      9.86842066e-03 0. 0. 2.96052638e-02 0. 0. 0. 1.80921052e-02 0.
      9.86842066e-03 3.28947371e-03 0. 0. 0. 8.22368450e-03
      1.15131577e-02 0. 0. 1.64473685e-03 4.93421033e-03 2.96052638e-02
      1.31578948e-02 0. 0. 8.05921033e-02 3.28947371e-03 1.64473685e-03
      3.28947371e-03 1.64473685e-03 0. 1.64473685e-03 8.22368450e-03
      8.22368450e-03 0. 0. 0. 0. 0. 6.57894742e-03 0. 3.28947371e-03
      1.64473685e-03 3.45394723e-02 0. 1.64473685e-03 0. 4.93421033e-03
      1.64473685e-03 3.28947371e-03 1.64473685e-03 1.64473685e-03
      6.57894742e-03 0. 3.28947371e-03 0. 0. 1.64473685e-03 0.
      1.64473685e-03 0. 1.64473685e-03 0. 0. 4.93421033e-03
      1.64473685e-03 1.64473685e-03 0. 0. 0. 4.93421033e-03 0. 0.
      2.63157897e-02 0. 0. 4.93421033e-03 0. 0. 0. 3.28947371e-03 0.
      3.28947371e-03 0. 0. 1.15131577e-02 4.93421033e-03 0.
      4.93421033e-03 0. 3.28947371e-03 1.64473685e-03 3.28947371e-03 0.
      0. 3.28947371e-03 0. 9.86842066e-03 3.28947371e-03 0. 0. 0.
      8.22368450e-03 0. 0. 0. 0. 0. 4.93421033e-03 0. 4.93421033e-03 0.
      0. 0. 3.28947371e-03 0. 1.31578948e-02 1.15131577e-02
      1.64473685e-03 6.57894742e-03 0. 8.22368450e-03 8.22368450e-03
      3.28947371e-03 0. 1.64473685e-03 0. 0. 0. 0. 0. 0. 1.64473685e-03
      1.64473685e-03 0. 4.93421033e-03 0. 0. 0. 4.93421033e-03
      1.64473685e-03 3.28947371e-03 0. 3.28947371e-03 0. 1.64473685e-03
      0. 0. 0. 3.28947371e-03 0. 0. 1.64473685e-03</_>
    <_>
      0. 0. 1.57728710e-03 0. 1.57728710e-03 3.15457419e-03 0.
      3.15457419e-03 0. 0. 0. 1.41955838e-02 0. 3.15457419e-03
      6.30914839e-03 2.36593056e-02 2.52365936e-02 1.57728710e-03 0. 0.
      0. 0. 1.57728710e-03 6.30914839e-03 0. 1.57728710e-03
      1.10410098e-02 6.30914839e-03 2.68138815e-02 0. 3.15457419e-03
      1.57728710e-03 3.15457419e-03 0. 1.57728710e-03 4.73186141e-03
      1.57728710e-03 0. 4.73186141e-03 1.57728710e-03 0. 1.41955838e-02
      0. 1.26182968e-02 9.46372282e-03 0. 1.73501577e-02 3.15457419e-03
      0. 4.73186141e-03 0. 1.57728710e-03 2.52365936e-02 6.30914839e-03
      0. 1.57728710e-03 1.57728710e-03 0. 1.41955838e-02 1.57728710e-03
      0. 0. 0. 1.57728710e-03 1.57728710e-03 0. 1.57728710e-03 0. 0. 0.
      2.20820196e-02 0. 1.57728710e-03 4.73186141e-03 6.30914839e-03
      4.73186141e-03 0. 0. 0. 0. 0. 6.15141951e-02 0. 1.57728710e-03 0.
      0. 0. 4.73186141e-03 6.30914839e-03 1.57728710e-03 0. 0. 0. 0.
      1.57728710e-03 0. 7.88643584e-03 1.57728710e-03 0. 0.
      3.15457419e-03 0. 1.57728710e-03 0. 0. 0. 0. 0. 3.15457419e-03 0.
      3.15457419e-03 6.30914839e-03 1.57728710e-03 0. 0. 5.04731871e-02
      1.57728710e-03 3.15457419e-03 0. 1.10410098e-02 1.57728710e-03
      9.46372282e-03 9.46372282e-03 1.57728710e-03 7.88643584e-03 0.
      1.57728710e-03 1.57728710e-03 0. 1.57728710e-03 0. 0.
      3.47003154e-02 6.30914839e-03 3.15457419e-03 1.57728710e-03
      5.99369109e-02 1.57728710e-03 7.88643584e-03 1.26182968e-02 0.
      1.57728710e-03 1.57728710e-03 3.15457419e-03 0. 0. 0. 0.
      3.15457419e-03 0. 0. 0. 1.57728710e-03 6.30914839e-03
      1.57728717e-02 1.57728710e-03 0. 0. 6.30914839e-03 0.
      9.46372282e-03 4.73186141e-03 1.57728710e-03 0. 0. 4.73186141e-03
      0. 0. 1.57728710e-03 7.88643584e-03 4.73186141e-03 1.57728710e-03
      4.73186141e-03 1.57728710e-03 1.57728710e-03 3.15457419e-03
      3.15457419e-03 0. 0. 3.15457419e-03 3.15457419e-03 3.15457419e-03
      0. 0. 3.78548913e-02 0. 0. 0. 0. 0. 0. 7.88643584e-03 0.
      1.57728710e-03 1.57728710e-03 0. 4.73186141e-03 7.88643584e-03
      1.57728710e-03 1.57728717e-02 0. 1.57728710e-03 3.15457419e-03
      1.57728710e-03 0. 6.30914839e-03 0. 0. 1.57728710e-03
      1.57728710e-03 0. 0. 3.15457419e-03 1.57728710e-03 1.57728710e-03
      0. 0. 0. 0. 7.88643584e-03 3.15457419e-03 4.73186141e-03
      1.57728710e-03 4.73186141e-03 0. 0. 0. 1.57728710e-03 0.
      3.15457419e-03 4.73186141e-03 1.57728710e-03 7.88643584e-03
      1.26182968e-02 1.26182968e-02 0. 3.15457419e-03 6.30914839e-03 0.
      1.57728710e-03 0. 0. 1.57728710e-03 4.73186141e-03 1.57728710e-03
      0. 2.05047317e-02 0. 0. 0. 1.57728710e-03 0. 1.73501577e-02
      1.57728710e-03 1.57728710e-03 0. 7.88643584e-03 9.46372282e-03 0.
      0. 1.57728710e-03 0. 0. 0.</_>
    <_>
      0. 1.72117038e-03 8.60585179e-03 6.88468153e-03 1.72117038e-03
      5.16351126e-03 5.16351126e-03 0. 0. 0. 3.44234076e-03
      2.58175563e-02 0. 5.16351126e-03 0. 3.78657468e-02 2.23752148e-02
      0. 0. 0. 0. 0. 0. 1.72117038e-03 0. 3.44234076e-03 6.88468153e-03
      6.88468153e-03 2.40963846e-02 0. 1.72117038e-03 0. 8.60585179e-03
      0. 1.72117038e-03 3.44234076e-03 0. 0. 3.44234076e-03 0. 0.
      4.13080901e-02 0. 6.88468153e-03 1.89328734e-02 0. 8.60585179e-03
      5.16351126e-03 0. 1.72117038e-03 0. 0. 8.60585179e-03
      1.03270225e-02 0. 0. 1.72117038e-03 3.44234076e-03 1.72117038e-03
      0. 1.72117038e-03 1.72117038e-03 0. 3.44234076e-03 1.72117038e-03
      0. 1.72117038e-03 5.16351126e-03 0. 0. 1.54905338e-02 0.
      3.44234076e-03 6.88468153e-03 0. 1.72117038e-03 0. 0. 0.
      1.72117038e-03 0. 7.91738406e-02 3.44234076e-03 0. 0. 0. 0.
      3.44234076e-03 1.20481923e-02 0. 0. 0. 1.72117038e-03 0.
      1.72117038e-03 0. 0. 0. 0. 1.72117038e-03 1.03270225e-02 0. 0. 0.
      0. 1.72117038e-03 0. 0. 0. 0. 0. 1.03270225e-02 0. 0. 0.
      5.33562824e-02 0. 5.16351126e-03 0. 1.54905338e-02 0.
      5.16351126e-03 1.72117038e-03 1.72117038e-03 1.20481923e-02 0.
      3.44234076e-03 6.88468153e-03 0. 0. 0. 5.16351126e-03
      4.64715995e-02 3.44234076e-03 0. 0. 2.75387261e-02 1.03270225e-02
      0. 1.37693631e-02 0. 0. 3.44234076e-03 3.44234076e-03
      1.72117038e-03 0. 0. 0. 0. 0. 0. 0. 0. 1.72117038e-03
      2.06540450e-02 1.72117038e-03 0. 0. 3.44234076e-03 0.
      8.60585179e-03 3.44234076e-03 0. 1.72117038e-03 0. 0. 0. 0.
      1.72117038e-03 5.16351126e-03 0. 1.72117038e-03 8.60585179e-03 0.
      0. 0. 1.54905338e-02 0. 0. 1.72117038e-03 0. 3.44234076e-03
      1.72117038e-03 1.72117038e-03 4.47504297e-02 0. 0. 0.
      3.44234076e-03 0. 0. 6.88468153e-03 0. 3.44234076e-03 0. 0.
      5.16351126e-03 3.44234076e-03 0. 3.27022374e-02 0. 1.72117038e-03
      3.44234076e-03 0. 0. 1.72117038e-03 0. 0. 0. 0. 0. 0. 0.
      1.72117038e-03 0. 0. 0. 0. 0. 0. 3.44234076e-03 0. 0.
      8.60585179e-03 0. 0. 0. 1.72117038e-03 1.72117038e-03
      5.16351126e-03 1.72117036e-02 0. 0. 6.88468153e-03 5.16351126e-03
      0. 0. 1.72117038e-03 0. 1.72117038e-03 0. 0. 0. 6.88468153e-03
      6.88468153e-03 0. 2.92598959e-02 0. 0. 0. 0. 0. 5.16351126e-03 0.
      1.72117038e-03 0. 1.89328734e-02 1.72117038e-03 0. 0. 0. 0. 0. 0.</_>
    <_>
      0. 0. 0. 6.80272095e-03 0. 4.53514745e-03 0. 2.26757373e-03 0. 0.
      0. 1.81405898e-02 0. 2.26757373e-03 6.80272095e-03 1.58730168e-02
      3.40136066e-02 2.26757373e-03 0. 0. 2.26757373e-03 0.
      2.26757373e-03 6.80272095e-03 0. 4.53514745e-03 9.07029491e-03 0.
      2.04081628e-02 0. 2.26757373e-03 2.26757373e-03 2.26757373e-03
      2.26757373e-03 0. 2.26757373e-03 4.53514745e-03 0. 4.53514745e-03
      0. 0. 4.53514755e-02 2.26757373e-03 1.81405898e-02 6.80272095e-03
      0. 4.53514745e-03 4.53514745e-03 0. 2.26757373e-03 0. 0.
      6.80272095e-03 2.26757373e-03 0. 2.26757373e-03 0. 0.
      1.13378689e-02 0. 0. 2.26757373e-03 0. 4.53514745e-03 0.
      2.26757373e-03 2.26757373e-03 2.26757373e-03 0. 0. 9.07029491e-03
      2.26757373e-03 4.53514745e-03 4.53514745e-03 6.80272095e-03
      2.26757373e-03 2.26757373e-03 4.53514745e-03 0. 0. 0.
      1.02040820e-01 0. 2.26757373e-03 0. 0. 0. 0. 2.26757373e-03
      2.26757373e-03 0. 0. 0. 0. 0. 2.26757373e-03 9.07029491e-03
      4.53514745e-03 0. 0. 2.26757373e-03 0. 2.26757373e-03 0. 0.
      2.26757373e-03 0. 0. 0. 0. 4.53514745e-03 4.53514745e-03
      2.26757373e-03 0. 0. 4.98866215e-02 0. 0. 0. 2.04081628e-02 0.
      6.80272095e-03 2.26757373e-03 0. 2.26757373e-03 0. 0.
      2.26757373e-03 2.26757373e-03 0. 0. 2.26757373e-03 5.89569174e-02
      9.07029491e-03 2.26757373e-03 0. 1.36054419e-02 0. 0.
      2.26757377e-02 0. 2.26757373e-03 1.13378689e-02 0. 0. 0. 0. 0. 0.
      0. 2.26757373e-03 0. 2.26757373e-03 1.13378689e-02 2.94784587e-02
      2.26757373e-03 0. 0. 4.53514745e-03 0. 4.53514745e-03 0.
      2.26757373e-03 0. 0. 2.26757373e-03 0. 0. 0. 6.80272095e-03
      2.26757373e-03 2.26757373e-03 4.53514745e-03 2.26757373e-03
      2.26757373e-03 0. 2.26757373e-03 2.26757373e-03 0. 6.80272095e-03
      4.53514745e-03 0. 0. 0. 4.98866215e-02 0. 0. 0. 2.26757373e-03 0.
      0. 4.53514745e-03 0. 4.53514745e-03 2.26757373e-03 0.
      6.80272095e-03 6.80272095e-03 0. 2.26757373e-03 0. 4.53514745e-03
      0. 2.26757373e-03 0. 4.53514745e-03 2.26757373e-03 0.
      2.26757373e-03 0. 4.53514745e-03 0. 0. 4.53514745e-03 0. 0. 0. 0.
      0. 0. 4.53514745e-03 2.26757373e-03 0. 4.53514745e-03
      2.26757373e-03 2.26757373e-03 0. 0. 2.26757373e-03 0.
      2.26757373e-03 0. 0. 2.04081628e-02 4.53514745e-03 0.
      2.26757373e-03 1.13378689e-02 0. 2.26757373e-03 0. 0. 0.
      2.26757373e-03 0. 0. 2.04081628e-02 0. 0. 0. 1.13378689e-02 0.
      1.36054419e-02 2.26757373e-03 2.26757373e-03 2.26757373e-03 0.
      1.36054419e-02 0. 0. 2.26757373e-03 0. 0. 0.</_>
    <_>
      0. 0. 3.84615385e-03 3.84615385e-03 0. 0. 0. 0. 0. 7.69230770e-03
      1.92307699e-02 0. 0. 3.84615385e-03 0. 1.15384618e-02
      4.23076935e-02 3.84615385e-03 0. 0. 7.69230770e-03 0. 0. 0. 0. 0.
      1.15384618e-02 0. 3.46153863e-02 0. 7.69230770e-03 7.69230770e-03
      3.84615385e-03 0. 0. 0. 7.69230770e-03 0. 0. 0. 0. 1.92307699e-02
      0. 3.46153863e-02 3.84615385e-03 0. 3.84615385e-03 1.53846154e-02
      0. 0. 0. 7.69230770e-03 3.84615399e-02 0. 0. 0. 0. 0.
      7.69230770e-03 0. 0. 0. 0. 1.92307699e-02 0. 7.69230770e-03 0. 0.
      0. 0. 1.53846154e-02 0. 1.92307699e-02 1.15384618e-02 0. 0.
      3.84615385e-03 3.84615385e-03 0. 3.84615385e-03 0. 1.50000006e-01
      0. 0. 0. 0. 0. 0. 0. 0. 0. 1.15384618e-02 0. 0. 3.84615385e-03 0.
      0. 0. 0. 0. 0. 0. 0. 0. 0. 0. 0. 0. 0. 0. 7.69230770e-03
      1.15384618e-02 3.84615385e-03 0. 0. 7.30769262e-02 0. 0. 0.
      7.69230770e-03 0. 0. 0. 0. 0. 0. 0. 2.30769236e-02 0.
      3.84615385e-03 0. 0. 3.07692308e-02 0. 0. 0. 3.07692308e-02 0. 0.
      0. 0. 0. 7.69230770e-03 3.84615385e-03 0. 3.84615385e-03 0. 0.
      7.69230770e-03 0. 0. 0. 0. 0. 1.15384618e-02 0. 0. 0.
      2.69230772e-02 0. 1.15384618e-02 0. 3.84615385e-03 0. 0.
      7.69230770e-03 0. 0. 0. 0. 0. 0. 7.69230770e-03 3.84615385e-03 0.
      0. 0. 0. 0. 0. 0. 0. 0. 7.69230770e-03 5.38461544e-02 0. 0. 0. 0.
      0. 0. 0. 0. 0. 3.84615385e-03 0. 3.84615385e-03 3.84615385e-03
      3.84615385e-03 7.69230770e-03 0. 3.84615385e-03 0. 0. 0. 0. 0. 0.
      0. 0. 0. 0. 0. 0. 0. 0. 0. 0. 0. 3.84615385e-03 0. 0. 0.
      3.84615385e-03 0. 0. 0. 0. 0. 0. 0. 0. 7.69230770e-03
      1.15384618e-02 3.84615385e-03 0. 1.15384618e-02 0. 0. 0. 0. 0.
      3.84615385e-03 0. 0. 0. 1.15384618e-02 0. 0. 0. 0. 0.
      3.84615385e-03 3.84615385e-03 0. 0. 0. 0. 0. 0. 0. 0. 0. 0.</_>
    <_>
      0. 0. 0. 0. 0. 0. 0. 0. 0. 0. 1.34529155e-02 1.34529155e-02 0.
      4.48430516e-03 0. 2.24215258e-02 3.58744413e-02 0. 0. 0. 0. 0. 0.
      0. 0. 0. 8.96861032e-03 8.96861032e-03 4.93273586e-02 0.
      2.24215258e-02 8.96861032e-03 0. 0. 0. 0. 1.34529155e-02 0. 0. 0.
      0. 4.03587446e-02 0. 1.34529155e-02 4.48430516e-03 0. 0.
      1.79372206e-02 0. 0. 0. 0. 2.69058309e-02 0. 0. 0. 0. 0.
      2.69058309e-02 0. 0. 0. 0. 8.96861032e-03 0. 4.48430516e-03 0. 0.
      0. 0. 0. 0. 1.79372206e-02 0. 0. 0. 8.96861032e-03 1.34529155e-02
      0. 0. 0. 1.83856517e-01 0. 0. 0. 0. 0. 8.96861032e-03 0. 0. 0.
      8.96861032e-03 0. 0. 0. 0. 8.96861032e-03 0. 0. 0. 0. 0. 0. 0. 0.
      0. 0. 0. 0. 0. 4.48430516e-03 4.48430516e-03 4.48430516e-03 0. 0.
      4.03587446e-02 0. 0. 0. 0. 0. 4.48430516e-03 0. 0. 8.96861032e-03
      0. 4.48430516e-03 8.96861032e-03 0. 0. 0. 0. 1.34529155e-02 0. 0.
      0. 4.03587446e-02 0. 4.48430516e-03 4.48430516e-03 0. 0.
      4.48430516e-03 0. 0. 0. 0. 0. 4.48430516e-03 0. 0. 0. 0.
      8.96861032e-03 1.34529155e-02 0. 0. 0. 1.34529155e-02 0. 0. 0. 0.
      0. 0. 1.34529155e-02 0. 0. 0. 0. 0. 0. 0. 0. 0. 0. 0. 0. 0. 0. 0.
      0. 0. 0. 6.27802759e-02 0. 0. 0. 0. 8.96861032e-03 0. 0. 0.
      4.48430516e-03 4.48430516e-03 0. 4.48430516e-03 0. 4.48430516e-03
      4.48430516e-03 0. 1.79372206e-02 0. 0. 4.48430516e-03 0.
      4.48430516e-03 0. 8.96861032e-03 0. 0. 0. 0. 0. 0. 0. 0. 0. 0.
      4.48430516e-03 0. 4.48430516e-03 0. 4.48430516e-03 0. 0. 0. 0. 0.
      0. 0. 0. 0. 1.34529155e-02 8.96861032e-03 0. 4.48430516e-03 0. 0.
      0. 0. 4.48430516e-03 0. 4.48430516e-03 0. 0. 1.34529155e-02 0. 0.
      0. 0. 0. 0. 4.48430516e-03 0. 4.48430516e-03 0. 0. 0. 0. 0. 0. 0.
      0.</_>
    <_>
      0. 0. 0. 7.33137829e-03 0. 8.79765395e-03 2.93255132e-03 0.
      1.46627566e-03 2.93255132e-03 4.39882698e-03 2.93255132e-03 0.
      1.46627566e-03 0. 4.54545468e-02 1.90615840e-02 5.86510263e-03
      1.46627566e-03 1.46627566e-03 0. 0. 0. 1.02639291e-02 0.
      1.46627566e-03 4.39882698e-03 1.17302053e-02 4.98533733e-02 0.
      4.39882698e-03 1.46627566e-03 0. 0. 1.46627566e-03 5.86510263e-03
      1.46627566e-03 0. 7.33137829e-03 4.39882698e-03 4.39882698e-03
      8.79765395e-03 0. 2.93255132e-03 1.02639291e-02 1.46627566e-03
      1.31964814e-02 7.33137829e-03 0. 2.93255132e-03 0. 1.46627566e-03
      2.49266867e-02 2.93255132e-03 0. 0. 2.93255132e-03 2.93255132e-03
      8.79765395e-03 0. 5.86510263e-03 0. 0. 1.31964814e-02
      1.46627566e-03 2.93255132e-03 1.46627566e-03 0. 0. 0. 0. 0.
      8.79765395e-03 2.19941344e-02 1.46627566e-03 1.46627566e-03
      4.39882698e-03 2.93255132e-03 0. 1.46627566e-03 0. 7.62463361e-02
      0. 2.93255132e-03 4.39882698e-03 0. 0. 4.39882698e-03
      5.86510263e-03 1.46627566e-03 0. 5.86510263e-03 0. 0.
      2.93255132e-03 0. 1.46627566e-03 0. 1.46627566e-03 0. 0. 0.
      1.46627566e-03 0. 0. 4.39882698e-03 0. 0. 0. 1.46627566e-03
      4.39882698e-03 1.17302053e-02 2.93255132e-03 0. 0. 3.22580636e-02
      0. 1.46627566e-03 0. 2.93255132e-03 0. 2.34604105e-02
      2.93255132e-03 1.46627566e-03 4.39882698e-03 0. 1.46627566e-03
      8.79765395e-03 0. 0. 0. 2.93255132e-03 2.05278583e-02
      4.39882698e-03 1.46627566e-03 0. 5.86510263e-02 7.33137829e-03
      1.46627566e-03 2.93255132e-03 0. 1.46627566e-03 5.86510263e-03
      1.46627566e-03 5.86510263e-03 0. 0. 1.46627566e-03 4.39882698e-03
      0. 0. 0. 2.93255132e-03 4.39882698e-03 1.61290318e-02 0.
      1.46627566e-03 0. 1.02639291e-02 1.46627566e-03 1.46627566e-02 0.
      0. 1.46627566e-03 1.46627566e-03 0. 0. 0. 4.39882698e-03
      2.93255132e-03 2.93255132e-03 7.33137829e-03 4.39882698e-03
      2.93255132e-03 1.46627566e-03 0. 5.86510263e-03 1.46627566e-03 0.
      0. 0. 2.93255132e-03 0. 0. 1.31964814e-02 0. 0. 0. 0. 0. 0.
      5.86510263e-03 0. 1.46627566e-03 2.93255132e-03 0. 5.86510263e-03
      1.17302053e-02 0. 4.39882698e-03 0. 8.79765395e-03 2.93255132e-03
      2.93255132e-03 0. 7.33137829e-03 4.39882698e-03 0. 2.93255132e-03
      1.46627566e-03 1.46627566e-03 0. 1.46627566e-03 4.39882698e-03 0.
      1.46627566e-03 0. 0. 0. 4.39882698e-03 0. 0. 1.46627566e-03
      1.17302053e-02 0. 0. 0. 2.93255132e-03 1.46627566e-03
      1.46627566e-03 5.86510263e-03 0. 5.86510263e-03 1.46627566e-03
      1.46627566e-02 0. 0. 0. 0. 0. 0. 0. 0. 1.46627566e-03
      1.46627566e-03 0. 1.02639291e-02 0. 0. 0. 1.46627566e-03
      1.46627566e-03 2.19941344e-02 1.46627566e-03 1.17302053e-02
      1.46627566e-03 1.02639291e-02 0. 0. 0. 1.46627566e-03
      1.46627566e-03 1.46627566e-03 0.</_>
    <_>
      0. 0. 2.02429155e-03 1.01214573e-02 0. 0. 1.61943324e-02 0. 0. 0.
      2.02429155e-03 6.07287465e-03 6.07287465e-03 4.04858310e-03
      4.04858310e-03 3.23886648e-02 2.42914986e-02 2.02429155e-03
      4.04858310e-03 6.07287465e-03 0. 0. 0. 1.21457493e-02
      2.02429155e-03 4.04858310e-03 2.22672075e-02 2.02429155e-03
      4.65587042e-02 0. 8.09716620e-03 0. 6.07287465e-03 0. 0.
      1.21457493e-02 6.07287465e-03 0. 8.09716620e-03 2.02429155e-03 0.
      1.41700413e-02 0. 1.01214573e-02 1.61943324e-02 0. 4.04858310e-03
      1.21457493e-02 0. 0. 0. 0. 6.07287465e-03 1.01214573e-02 0. 0. 0.
      2.02429155e-03 0. 0. 4.04858310e-03 0. 0. 2.02429155e-03
      2.02429155e-03 0. 0. 0. 0. 0. 2.02429155e-03 0. 6.07287465e-03
      2.42914986e-02 2.02429155e-03 4.04858310e-03 2.02429155e-03
      2.02429155e-03 0. 0. 0. 3.23886648e-02 2.02429155e-03
      2.02429155e-03 0. 0. 0. 4.04858310e-03 1.21457493e-02
      6.07287465e-03 0. 0. 0. 0. 2.02429155e-03 0. 4.04858310e-03
      2.02429155e-03 0. 0. 1.01214573e-02 0. 2.02429155e-03 0. 0.
      2.02429155e-03 0. 2.02429155e-03 2.02429155e-03 2.02429155e-03 0.
      1.41700413e-02 8.09716620e-03 0. 0. 4.04858291e-02 0. 0.
      2.02429155e-03 8.09716620e-03 0. 1.41700413e-02 1.01214573e-02
      2.02429155e-03 6.07287465e-03 0. 4.04858310e-03 8.09716620e-03
      4.04858310e-03 0. 0. 8.09716620e-03 2.02429146e-02 6.07287465e-03
      4.04858310e-03 0. 7.08502010e-02 4.04858310e-03 0. 2.02429155e-03
      4.04858310e-03 4.04858310e-03 0. 2.02429155e-03 6.07287465e-03
      2.02429155e-03 0. 0. 2.02429155e-03 0. 0. 0. 0. 4.04858310e-03
      2.63157897e-02 2.02429155e-03 0. 0. 8.09716620e-03 0.
      1.41700413e-02 0. 2.02429155e-03 0. 0. 0. 0. 0. 4.04858310e-03 0.
      4.04858310e-03 6.07287465e-03 6.07287465e-03 0. 0. 0. 0.
      4.04858310e-03 0. 0. 2.02429155e-03 0. 0. 2.02429155e-03
      2.02429146e-02 0. 0. 0. 0. 0. 0. 6.07287465e-03 2.02429155e-03
      4.04858310e-03 2.02429155e-03 0. 2.02429155e-03 6.07287465e-03 0.
      2.02429146e-02 0. 0. 2.02429155e-03 0. 0. 6.07287465e-03
      2.02429155e-03 0. 4.04858310e-03 0. 0. 0. 0. 8.09716620e-03 0.
      2.02429155e-03 0. 0. 0. 0. 0. 0. 0. 4.04858310e-03 0. 0. 0.
      4.04858310e-03 4.04858310e-03 6.07287465e-03 0. 0. 1.01214573e-02
      6.07287465e-03 1.01214573e-02 0. 2.02429155e-03 0. 0.
      2.02429155e-03 0. 0. 0. 8.09716620e-03 8.09716620e-03 0.
      1.21457493e-02 0. 0. 0. 2.02429155e-03 2.02429155e-03
      1.01214573e-02 4.04858310e-03 2.02429155e-03 0. 8.09716620e-03 0.
      0. 0. 0. 2.02429155e-03 0. 0.</_>
    <_>
      2.28832942e-03 0. 0. 2.28832942e-03 0. 2.28832942e-03
      2.28832942e-03 0. 6.86498825e-03 0. 0. 6.86498825e-03 0. 0.
      2.28832942e-03 0. 9.15331766e-03 6.86498825e-03 9.15331766e-03 0.
      0. 0. 0. 1.37299765e-02 0. 0. 9.15331766e-03 1.60183050e-02
      7.09382147e-02 0. 9.15331766e-03 4.57665883e-03 0. 0.
      4.57665883e-03 4.57665883e-03 1.37299765e-02 0. 4.57665883e-03
      4.57665883e-03 0. 1.14416471e-02 0. 1.83066353e-02 0.
      2.28832942e-03 4.57665883e-03 0. 0. 2.28832942e-03 0.
      6.86498825e-03 9.15331766e-03 6.86498825e-03 0. 0. 1.14416471e-02
      0. 2.28832942e-03 0. 0. 4.57665883e-03 0. 0. 2.28832942e-03
      2.28832942e-03 0. 0. 0. 0. 0. 0. 0. 6.86498825e-03 0. 0. 0.
      6.86498825e-03 0. 0. 0. 1.18993133e-01 6.86498825e-03
      4.57665883e-03 9.15331766e-03 0. 0. 2.28832942e-03 2.28832942e-03
      4.57665883e-03 0. 4.57665883e-03 0. 0. 6.86498825e-03 0. 0. 0.
      2.28832942e-03 0. 2.28832942e-03 0. 9.15331766e-03 0. 0.
      2.28832942e-03 0. 0. 0. 6.86498825e-03 2.28832942e-02 0.
      9.15331766e-03 0. 0. 3.43249403e-02 0. 0. 2.28832942e-03
      4.57665883e-03 0. 0. 1.37299765e-02 2.28832942e-03 2.28832942e-03
      0. 6.86498825e-03 9.15331766e-03 2.28832942e-03 0. 0.
      4.57665883e-03 9.15331766e-03 9.15331766e-03 2.28832942e-03 0.
      1.83066353e-02 0. 0. 0. 4.57665883e-03 4.57665883e-03 0. 0.
      6.86498825e-03 0. 4.57665883e-03 0. 2.28832942e-03 0. 0. 0.
      2.28832942e-03 4.57665883e-03 4.11899313e-02 0. 0. 0.
      1.14416471e-02 0. 4.57665883e-03 2.28832942e-03 0. 0. 0.
      4.57665883e-03 0. 0. 6.86498825e-03 0. 2.28832942e-03 0.
      4.57665883e-03 0. 2.28832942e-03 2.28832942e-03 2.28832942e-03 0.
      0. 0. 0. 2.28832942e-03 0. 4.57665883e-03 3.43249403e-02 0. 0.
      2.28832942e-03 0. 2.28832942e-03 0. 0. 0. 1.60183050e-02
      2.28832942e-03 0. 2.28832942e-03 6.86498825e-03 0. 0. 0.
      4.57665883e-03 2.28832942e-03 4.57665883e-03 0. 0. 4.57665883e-03
      0. 4.57665883e-03 2.28832942e-03 2.28832942e-03 0. 0.
      1.14416471e-02 0. 0. 0. 0. 0. 0. 2.28832942e-03 2.28832942e-03 0.
      9.15331766e-03 0. 0. 0. 1.60183050e-02 6.86498825e-03
      4.57665883e-03 2.28832942e-03 0. 2.28832942e-03 4.57665883e-03
      2.28832942e-03 0. 2.28832942e-03 2.28832942e-03 0. 0. 0. 0.
      2.28832942e-03 0. 1.14416471e-02 0. 1.14416471e-02 0. 0. 0. 0. 0.
      2.28832942e-02 0. 2.28832942e-03 4.57665883e-03 1.37299765e-02 0.
      2.28832942e-03 0. 2.28832942e-03 0. 2.28832942e-03 2.28832942e-03</_>
    <_>
      2.21238937e-03 0. 8.84955749e-03 2.21238937e-03 0. 6.63716812e-03
      0. 4.42477874e-03 6.63716812e-03 4.42477874e-03 4.42477874e-03
      4.42477874e-03 2.21238937e-03 0. 0. 2.21238937e-03 2.87610628e-02
      4.42477874e-03 2.21238937e-03 0. 0. 0. 0. 0. 0. 2.21238937e-03
      1.10619469e-02 1.54867256e-02 0. 0. 1.32743362e-02 1.10619469e-02
      1.32743362e-02 2.21238937e-03 4.42477874e-03 8.84955749e-03 0. 0.
      0. 6.63716812e-03 0. 8.84955749e-03 0. 1.54867256e-02
      1.32743362e-02 0. 6.63716812e-03 4.42477874e-03 0. 8.84955749e-03
      0. 6.63716812e-03 8.84955749e-03 4.42477874e-03 0. 2.21238937e-03
      0. 4.42477874e-03 1.10619469e-02 6.63716812e-03 2.21238937e-03 0.
      0. 0. 2.21238937e-03 8.84955749e-03 0. 2.21238937e-03 0.
      2.21238937e-03 0. 0. 8.84955749e-03 2.21238937e-03 6.63716812e-03
      4.42477874e-03 2.21238937e-03 1.32743362e-02 0. 0. 0.
      1.32743362e-02 0. 2.21238937e-03 0. 0. 2.21238937e-03 0.
      2.21238937e-03 0. 0. 4.42477874e-03 0. 4.42477874e-03
      4.42477874e-03 0. 2.21238937e-03 4.42477874e-03 6.63716812e-03 0.
      6.63716812e-03 0. 6.63716812e-03 0. 0. 0. 0. 0. 0. 0.
      1.76991150e-02 1.76991150e-02 2.21238937e-03 0. 0. 3.31858397e-02
      0. 0. 0. 2.21238937e-03 0. 1.10619469e-02 0. 0. 2.21238937e-02 0.
      6.63716812e-03 2.21238937e-03 2.21238937e-03 0. 0. 4.42477874e-03
      1.10619469e-02 2.65486725e-02 1.10619469e-02 0. 2.21238937e-03
      6.63716812e-03 4.42477874e-03 1.32743362e-02 0. 2.21238937e-03 0.
      0. 6.63716812e-03 0. 2.21238937e-03 0. 2.21238937e-03
      2.21238937e-03 0. 2.21238937e-03 0. 1.54867256e-02 1.54867256e-02
      6.63716812e-03 0. 0. 4.42477874e-03 0. 0. 0. 0. 0. 0.
      4.42477874e-03 0. 0. 4.42477874e-03 4.42477874e-03 0.
      4.42477874e-03 4.42477874e-03 4.42477874e-03 2.21238937e-03 0. 0.
      1.10619469e-02 0. 0. 0. 0. 0. 2.21238937e-03 1.54867256e-02
      2.21238937e-03 4.42477874e-03 2.21238937e-03 0. 4.42477874e-03
      6.63716812e-03 8.84955749e-03 4.42477874e-03 6.63716812e-03 0. 0.
      4.42477874e-03 1.32743362e-02 0. 1.10619469e-02 0. 4.42477874e-03
      2.21238937e-03 4.42477874e-03 0. 4.42477874e-03 8.84955749e-03 0.
      4.42477874e-03 0. 8.84955749e-03 0. 0. 1.32743362e-02 0.
      2.21238937e-03 0. 0. 0. 1.10619469e-02 2.21238937e-03
      4.42477874e-03 0. 4.42477874e-03 0. 0. 0. 0. 2.21238937e-03
      6.63716812e-03 1.10619469e-02 0. 8.84955749e-03 2.43362822e-02
      2.21238937e-03 0. 2.21238937e-03 6.63716812e-03 0. 0. 0. 0.
      2.21238937e-03 1.10619469e-02 0. 0. 1.76991150e-02 0. 0. 0.
      4.42477874e-03 0. 0. 6.63716812e-03 1.32743362e-02 2.21238937e-03
      8.84955749e-03 1.10619469e-02 0. 0. 2.21238937e-03 4.42477874e-03
      2.21238937e-03 2.21238937e-03</_>
    <_>
      1.93050189e-03 0. 0. 3.86100379e-03 0. 5.79150580e-03 0.
      3.86100379e-03 0. 0. 3.86100379e-03 1.73745174e-02 0. 0. 0.
      1.93050189e-03 1.73745174e-02 3.86100379e-03 1.93050189e-03 0.
      1.93050189e-03 0. 0. 7.72200758e-03 0. 3.86100379e-03
      1.15830116e-02 1.54440152e-02 0. 0. 1.54440152e-02 3.86100379e-03
      1.35135129e-02 1.93050189e-03 5.79150580e-03 7.72200758e-03
      9.65250935e-03 0. 5.79150580e-03 5.79150580e-03 5.79150580e-03
      1.73745174e-02 0. 9.65250935e-03 2.89575290e-02 0. 5.79150580e-03
      7.72200758e-03 0. 1.35135129e-02 0. 7.72200758e-03 2.31660232e-02
      9.65250935e-03 0. 1.93050189e-03 1.93050189e-03 1.93050189e-03 0.
      5.79150580e-03 0. 0. 0. 0. 1.93050189e-03 3.86100379e-03 0.
      5.79150580e-03 0. 0. 3.86100379e-03 0. 3.86100379e-03 0.
      5.79150580e-03 0. 0. 5.79150580e-03 0. 0. 0. 0. 1.93050189e-03
      1.93050189e-03 0. 0. 0. 0. 3.86100379e-03 3.86100379e-03 0.
      3.86100379e-03 1.93050189e-03 0. 1.93050189e-03 0. 5.79150580e-03
      1.93050189e-03 5.79150580e-03 1.93050189e-03 3.86100379e-03 0.
      7.72200758e-03 0. 0. 3.86100379e-03 0. 0. 0. 0. 3.86100379e-03
      5.79150580e-03 5.79150580e-03 0. 0. 4.05405387e-02 0.
      1.93050189e-03 0. 0. 1.93050189e-03 9.65250935e-03 1.93050189e-03
      7.72200758e-03 1.15830116e-02 0. 1.93050189e-03 1.35135129e-02
      7.72200758e-03 0. 0. 7.72200758e-03 2.31660232e-02 1.73745174e-02
      1.93050189e-03 5.79150580e-03 0. 0. 3.86100379e-03 7.72200758e-03
      1.93050189e-03 1.93050189e-03 1.93050189e-03 0. 7.72200758e-03 0.
      0. 0. 5.79150580e-03 0. 0. 0. 9.65250935e-03 1.15830116e-02
      1.35135129e-02 1.93050189e-03 0. 0. 1.54440152e-02 0. 0.
      5.79150580e-03 3.86100379e-03 1.93050189e-03 1.93050189e-03
      5.79150580e-03 0. 0. 0. 5.79150580e-03 0. 0. 1.93050189e-03
      1.35135129e-02 0. 0. 0. 3.86100379e-03 1.93050189e-03
      3.86100379e-03 1.93050189e-03 1.93050189e-03 1.93050189e-03 0.
      7.72200758e-03 0. 0. 0. 0. 0. 0. 9.65250935e-03 1.93050189e-03
      1.15830116e-02 1.93050189e-03 0. 7.72200758e-03 1.73745174e-02
      3.86100379e-03 1.93050189e-03 0. 9.65250935e-03 3.86100379e-03 0.
      0. 3.86100379e-03 5.79150580e-03 0. 3.86100379e-03 0.
      5.79150580e-03 0. 0. 1.93050187e-02 0. 0. 0. 0. 0. 1.35135129e-02
      1.93050189e-03 1.93050189e-03 0. 5.79150580e-03 0. 0.
      1.93050189e-03 1.93050189e-03 0. 9.65250935e-03 7.72200758e-03 0.
      0. 4.44015451e-02 3.86100379e-03 0. 0. 5.79150580e-03 0.
      3.86100379e-03 0. 0. 1.93050189e-03 1.54440152e-02 0. 0. 0. 0. 0.
      1.93050189e-03 3.86100379e-03 0. 7.72200758e-03 7.72200758e-03
      1.15830116e-02 1.93050189e-03 5.79150580e-03 1.93050189e-03 0. 0.
      3.86100379e-03 1.15830116e-02 1.93050189e-03 1.93050189e-03</_>
    <_>
      3.30033014e-03 0. 1.65016507e-03 6.60066027e-03 3.30033014e-03 0.
      0. 0. 4.95049544e-03 3.30033014e-03 6.60066027e-03 1.65016507e-03
      0. 0. 0. 0. 2.97029708e-02 0. 0. 0. 3.30033014e-03 0. 0.
      2.31023114e-02 0. 8.25082511e-03 1.48514854e-02 1.15511557e-02 0.
      0. 4.95049544e-03 1.15511557e-02 2.14521457e-02 8.25082511e-03 0.
      1.65016502e-02 0. 0. 0. 0. 3.30033014e-03 1.81518160e-02 0.
      1.15511557e-02 9.90099087e-03 4.95049544e-03 0. 4.95049544e-03 0.
      1.65016507e-03 0. 6.60066027e-03 1.65016507e-03 4.95049544e-03 0.
      0. 3.30033014e-03 3.30033014e-03 0. 0. 1.65016507e-03
      3.30033014e-03 0. 0. 0. 8.25082511e-03 3.30033014e-03 0. 0.
      1.65016507e-03 1.65016507e-03 0. 6.60066027e-03 1.65016507e-03
      3.30033014e-03 0. 3.30033014e-03 1.65016507e-03 0. 0. 0. 0.
      8.25082511e-03 3.30033014e-03 0. 0. 0. 3.30033014e-03
      1.65016507e-03 1.65016507e-03 1.65016507e-03 4.95049544e-03 0. 0.
      3.30033014e-03 0. 8.25082511e-03 1.65016507e-03 4.95049544e-03 0.
      8.25082511e-03 1.65016507e-03 3.30033014e-03 0. 0. 1.65016507e-03
      0. 0. 0. 0. 1.15511557e-02 1.32013205e-02 8.25082511e-03 0.
      1.65016507e-03 1.48514854e-02 0. 1.65016507e-03 0. 0.
      3.30033014e-03 1.98019817e-02 6.60066027e-03 6.60066027e-03
      1.81518160e-02 0. 3.30033014e-03 1.32013205e-02 1.65016507e-03
      1.65016507e-03 0. 1.15511557e-02 6.60066027e-03 1.98019817e-02
      1.15511557e-02 0. 0. 0. 3.30033014e-03 3.30033014e-03
      8.25082511e-03 1.48514854e-02 1.65016507e-03 1.65016507e-03
      3.30033014e-03 0. 0. 0. 0. 0. 0. 0. 1.48514854e-02 3.30033014e-03
      1.15511557e-02 4.95049544e-03 0. 0. 1.98019817e-02 0. 0.
      1.65016507e-03 4.95049544e-03 0. 4.95049544e-03 0. 3.30033014e-03
      0. 3.30033014e-03 6.60066027e-03 0. 0. 6.60066027e-03
      3.30033014e-03 4.95049544e-03 0. 1.65016507e-03 8.25082511e-03 0.
      0. 1.65016507e-03 3.30033014e-03 3.30033014e-03 8.25082511e-03
      3.30033014e-03 1.65016507e-03 0. 0. 1.65016507e-03 0. 0.
      2.31023114e-02 0. 1.65016502e-02 4.95049544e-03 0. 3.30033014e-03
      6.60066027e-03 0. 6.60066027e-03 0. 3.30033014e-03 4.95049544e-03
